{"layers":[{"w":[[0.05489137,0.00738850,-0.07111897,0.02752679,0.03405605,0.00297166,0.01360470,0.03355595,-0.04404322,-0.03570194,0.01648095,0.08429457,0.07660232,0.03570972,0.06582326,0.03749066,0.01243989,0.00689588,0.04230385,0.04199611,-0.05026206,0.07446580,0.06928719,-0.06310431,0.06127832,-0.06025884,-0.01588356,0.00283948,0.02922794,-0.08183875,0.07419548,0.02970661,0.01179846,0.06549267,-0.06218986,0.00895023,0.06673878,0.07088626,-0.01592351,-0.05366482,0.04770759,-0.05149470,0.04654381,-0.07097718,-0.05968685,0.05792633,0.07853595,-0.06931397,0.06960019,-0.00864529,0.04656637,0.07087568,-0.00362951,-0.08419102,0.03680139,-0.06940124,-0.03527771,-0.08280988,-0.00642379,0.07128268,0.03828306,-0.07533818,-0.00905079,0.08538640,-0.07061075,0.06035211,-0.04092350,0.06033943,-0.06956764,-0.07296434,-0.03393618,-0.03629438,-0.02147500,-0.05187929,-0.03133883,0.02482323,0.00579655,-0.01155025,-0.00925790,0.00100216,0.03239484,0.02440177,-0.00327511,0.04880647,0.03404951,-0.01545667,0.01415511,-0.00376290,0.01716675,-0.01536120,0.04589760,-0.07407238,0.05380573,-0.05397606,0.04744888,-0.07138888,0.03250811,-0.05671590,0.07605253,0.02871905,-0.04947305,0.02180145,-0.04894290,-0.06573228,0.02795585,-0.06097363,-0.08304405,-0.05549372,0.05810503,0.05177017,-0.06047752,-0.08378884,-0.08099991,-0.05452991,-0.05774219,0.00270957,0.05353455,-0.03332116,-0.02399345,-0.03784984,-0.08554797,-0.01436846,-0.03645084,0.00848236,-0.08093866,0.02947077,0.04019628,-0.04041830,0.06459940,0.00354108,-0.06578781,-0.07287534,0.07703479,-0.05092540,-0.01694243,-0.06004101,0.01735388,-0.05994408,-0.00342580,-0.04553123,0.00153001,-0.00130539,0.03867964,-0.07127500,0.04346602,-0.05033139,0.05227397,0.02975496,-0.08501475,-0.00509311,-0.02409919,0.07407420,-0.05067056,0.07137634,0.08457128,-0.02119544,-0.08365879,-0.00812259,0.04391516,0.00400119,-0.00218018,0.05972153,-0.05094701,0.01465659,-0.02116529,-0.01758306,-0.00408211,0.04312088,0.07225224,0.02415323,-0.07384412,0.05261833,-0.05226939,-0.04713400,0.01711996,0.04111828,-0.06728850,0.05531195,0.06642544,-0.00027888,-0.00056340,-0.08002992,-0.03951730,0.03394415,-0.00293512,0.05318902,0.01763587,-0.02039462,-0.01910046,0.00146793,0.02685261,-0.03228739,-0.02454286,0.07587259,-0.05889869,0.01939945,-0.02954777,-0.06456591,0.03882647,-0.03531111,-0.06575764,0.01707473,-0.03985021,-0.00495582,0.06276053,-0.03565725,-0.05942452,0.00730278,-0.01220716,0.05473221,-0.04512028,0.02255302,0.05661461,0.07331029,0.06858112,-0.00522404,-0.00025288,-0.04366864,0.08586584,-0.07849610,0.05476879,-0.00363515,0.03447084,0.04672652,-0.01811930,0.01732773,-0.02806721,0.06309339,0.05987027,0.00339946,0.02295725,0.01709712,-0.01079739,0.02719602,-0.02978736,-0.00649738,-0.08291096,0.04473400,-0.08513557,0.07447473,0.06179353,0.06674535,-0.05008884,-0.01019334,0.04348370,0.05148816,-0.05994676,0.04420426,0.02447757,-0.01079643,0.04846659,0.07280327,0.06022406,0.02568638,0.06348129,0.07023441,0.01602552,0.01219245,-0.04088202,0.06339391,-0.03134176,-0.04894002,-0.06647973,-0.05412129,0.08465260,-0.02749989,-0.04227841,-0.08268557,-0.02234920,0.06068509,-0.07304599,-0.06970824,0.06771820,-0.03254784,0.02021603,0.02094892,0.05088625,-0.05074992,-0.06422386,0.04981660,0.00073928,-0.00435913,-0.04003048,0.05670511,-0.06539690,0.05177067,-0.06986223,-0.01426361,-0.05599560,-0.03349457,0.04373249,-0.08316902,-0.06417745,-0.07118127,-0.02142259,-0.03500953,0.05940507,-0.00348999,0.07077646,0.02638007,0.02817265,-0.01436431,0.00040538,0.05863702,-0.06690504,-0.01959676,0.05736593,-0.06090065,-0.08319940,-0.03380137,0.02313832,-0.00206226,-0.01490111,0.06369726,-0.07091313,0.00324726,0.03232218,0.01236897,0.07220529,0.07684691,0.06542573,0.02268557,0.02071762,-0.05724186,0.06443403,0.08350960,0.04307794,-0.05619422,-0.00743831,0.00805152,-0.00734792,-0.04106325,-0.03353537,-0.05015563,-0.07980388,0.00281788,0.07270839,-0.07334851,-0.06333642,0.04772205,-0.06061342,-0.01023389,0.08426292,0.04673298,0.00515395,0.07258255,0.04779049,0.00585462,-0.06464872,0.05815988,0.07710137,0.08561680,0.06101880,0.06354761,-0.03722021,-0.05694088,0.03425279,0.07233576,0.06630961,0.05563346,-0.05456219,-0.08097488,0.04759730,0.05076378,0.00487956,-0.00408329,-0.05201382,0.07333340,-0.05058802,-0.07609442,0.02856012,0.02751582,-0.02787967,0.06413829,-0.05386553,0.05790832,-0.07865957,0.02589072,0.06538110,-0.06332568,0.00252351,-0.02110673,-0.02234756,0.06788616,0.02674292,-0.04187589,0.03692016,0.01851617,0.05750591,-0.06784707,-0.00647928,0.05001128,-0.06868548,0.07048538,0.03057969,0.01006178,-0.04830356,-0.04698234,-0.08497108,0.08018786,-0.05384684,-0.02382249,0.08359472,-0.01348801,0.02501885,-0.05829722,0.07209970,0.08317686,0.06636576,0.03151209,0.05146724,-0.05777998,-0.03053252,0.02118118,0.08004094,-0.03076389,0.04377697,-0.08215743,0.00859475,0.08566808,0.00296458,-0.01627512,0.01468308,-0.05700836,0.01087369,-0.07523146,-0.04516165,0.03721780,0.01412841,-0.05045126,-0.06107291,-0.00584186,-0.08378024,0.03073237,-0.06045096,-0.07890503,0.06718949,-0.00774894,0.08115413,0.02248063,-0.01211929,-0.07754698,0.05160357,-0.00660407,-0.08569528,-0.00635017,-0.05615116,-0.06947936,-0.02979307,0.08013558,0.03379051,0.08137558,0.04102538,-0.06355772,-0.01867108,0.02636561,-0.02564348,0.02837425,0.03255428,0.00300762,-0.03280748,-0.07006328,0.08014335,-0.07882171,-0.02805632,0.00334502,-0.07707811,0.08208812,-0.02225735,0.04320071,0.00140224,0.07990547,0.06936421,-0.07757556,0.00192121,0.00430059,0.06524488,-0.02321637,0.04459015,0.07420354,0.04219533,0.07515084,-0.06040848,-0.03624871,0.03427681,-0.00228640,0.07573332,0.08153810,-0.07188492,-0.05599118,-0.02140213,0.03279377,0.06168875,0.05239823,-0.00654850,-0.02699249,0.07264364,-0.03038039,-0.04841532,0.06991556,-0.06215796,0.00539640,0.08035386,0.03390038,-0.02782604,0.08372737,-0.04019859,-0.02152255,0.06010672,-0.00476113,0.00566651,0.04061662,-0.07226291,0.06740627,-0.01248900,-0.02482401,-0.00055480,-0.07671942,0.01348359,-0.07613282,0.02048782,0.03956327,0.05702711,-0.08198835,-0.06986564,-0.08265074,0.04898662,-0.06796269,0.07050392,-0.04417959,0.00918436,0.00715183,0.08218693,-0.03431527,-0.07315849,-0.08548067,-0.07428544,-0.07550530,0.05391369,-0.07227635,-0.00989292,-0.03006259,-0.03637581,0.08232480,-0.07163936,-0.06428827,0.07753419,0.01631434,0.07904540,-0.07992364,-0.04659243,0.02230734,0.02568649,0.00949278,-0.01651006,-0.05922244,-0.08414646,-0.00595109,-0.06500450,-0.06482204,0.06098721,0.06130988,-0.06823061,0.06397670,0.00121308,0.00206682,-0.07721229,-0.04689151,-0.02679398,-0.05710329,-0.00970544,0.05257746,0.06893107,-0.01370974,-0.07262538,0.07320400,0.08042316,-0.03945843,-0.01596113,-0.03508780,0.07132687,0.03546096,0.03709288,0.07765998,-0.06495880,0.08462722,0.02592961,-0.01856591,-0.00058020,-0.03019993,0.00085504,0.05220643,-0.02645899,-0.02316616,0.00541036,-0.01639928,-0.03811810,0.04590754,-0.08292614,0.00000842,-0.01521963,0.05014572,0.07062189,0.01699480,0.02668215,0.08338713,-0.03147134,0.04103283,-0.01384619,0.00263205,-0.00461756,-0.00816250,0.00165117,0.02841108,0.08136775,0.07390495,-0.01528279,0.07613378,-0.00717556,0.06863689,-0.06301527,-0.06423362,0.03017540,0.05331289,0.00114354,-0.08100868,-0.08578528,0.00112491,0.04620079,-0.02739279,-0.00141362,0.05231023,-0.00905241,-0.00504007,-0.04548905,0.02722189,-0.01713669,0.01981396,0.07312864,-0.01377884,-0.01499872,0.00354041,0.02695568,0.05158848,0.06470881,0.02391435,-0.03502152,-0.07521862,-0.06530860,0.07539784,0.07580348,0.06223862,0.08396704,-0.05621257,0.02562247,-0.02161153,0.06691366,-0.07288159,-0.08508499,-0.07085897,-0.03450381,-0.01273592,-0.02220915,-0.07540566,0.06322563,-0.02939559,-0.02696291,0.07178436,-0.08348805,0.06361086,0.01038445,0.04010843,0.02722245,-0.05389149,0.00439108,0.00193226,-0.02917418,-0.01710385,-0.04650965,-0.04790832,0.03683057,-0.01773332,0.05128811,0.05866673,-0.02590496,0.01217228,0.01454452,0.02964350,0.05948829,-0.00067312,-0.06276177,-0.02328940,0.01647663,0.00963300,-0.07440149,-0.08264150,-0.06764285,0.01984799,0.02983959,0.05581468,0.01769083,-0.00056297,0.02216607,-0.01882987,0.06743672,-0.04621876,-0.00698634,-0.05706950,-0.05824651,-0.07748537,-0.02373304,-0.01678869,0.04924251,-0.04579493,0.00057254,-0.01976226,0.07908326,0.07169653,-0.02965441,-0.05830388,0.01232269,0.05666187,-0.03045502,0.07710723,0.08111746,0.01919529,-0.05332296,0.07095809,0.03169135,0.04965300,0.00106488,-0.04368556,0.04401287,-0.03339225,0.03277176,0.01450162,-0.04115480,0.00772157,-0.03596630,-0.07919176,0.07800524,-0.00538708,0.02107441,-0.06690524,-0.01578975,0.00608821,-0.03023635,0.01267543,-0.02013867,0.04446443,0.00519997,-0.05425688,-0.07452292,0.04249453,0.02808982,0.01190261,0.06571680,-0.05595836,0.00125327,-0.00885303,0.02375241,0.00780678,-0.03739622,0.08179077,-0.07084533,-0.08403358,-0.07212906,0.01747661,-0.00257828,-0.03494819,-0.06321140,-0.06309450,0.06619310,-0.02972723,0.06039213,0.01871792,-0.04003225,0.05129867,-0.01318245,0.05205049,-0.08411425,0.04009932,0.07172411,0.07448609],[0.02951629,-0.00474241,0.03208788,0.08235065,0.06038504,0.01647141,0.00066258,0.06497353,-0.02755076,0.07172825,-0.03831990,0.01000337,-0.03034870,-0.01089834,0.06738994,-0.03556399,-0.03733754,0.03503590,-0.00329085,-0.03269538,0.00204115,-0.02972466,0.05097864,-0.04560763,-0.05805554,0.06837498,-0.01913953,0.01488349,0.02509416,-0.06012058,0.00225223,-0.07272762,0.03156613,-0.02810351,-0.08215932,-0.02186731,-0.03358971,0.04287409,0.07429918,-0.07886803,-0.06030671,-0.02107228,0.07143676,-0.06986539,-0.04858181,-0.05225264,0.01210269,-0.08500127,-0.03685910,-0.03286199,-0.07358197,0.07778851,-0.02230331,0.04227274,-0.01123522,-0.01855706,0.02506401,0.07655650,0.02640644,0.04993274,0.07855830,-0.01816504,-0.00916705,0.02139369,0.05295361,0.08061673,0.08197687,-0.01665720,0.01977260,0.04278102,0.07528841,0.00364989,0.02290704,-0.03765660,0.06224568,0.06895482,0.04624280,-0.02529380,-0.01409859,0.07592908,-0.08283246,0.01757967,-0.06956124,0.06072948,-0.05095253,-0.06621399,0.03271078,0.02129287,0.05694120,0.06473771,0.08411817,-0.07389127,-0.06902166,-0.01175252,0.01133408,-0.03316820,-0.05942362,0.03249819,-0.01773768,-0.05466545,-0.07699985,0.01518636,0.06702951,-0.07421264,0.03745183,0.06617793,-0.01155161,0.05955828,-0.04825072,-0.00230116,0.03873706,-0.02314475,-0.01944483,0.02221061,0.07297159,-0.00087621,-0.00946784,0.02488339,0.03654148,-0.03921152,0.06790892,0.08047085,0.06122657,0.08203162,-0.01955076,-0.06678649,0.00186816,-0.05275469,-0.08153228,0.02968855,-0.07115313,-0.01331860,-0.04969779,0.07594528,-0.01656474,0.01493021,0.00603326,0.07888355,0.04099589,0.05487270,0.07141804,-0.05624045,0.08304822,0.02956248,0.00119130,0.00009240,0.07870571,0.05234510,0.05634432,0.07992875,0.03444147,-0.08280382,0.02453933,-0.06808361,0.01918573,0.04903331,-0.03907457,-0.03983334,0.02934039,-0.04362503,0.01119227,0.05169462,0.02932267,0.02012743,0.05690133,0.06059531,0.00123604,-0.00918372,-0.08145253,-0.07409883,-0.02664871,-0.08156785,0.04853365,-0.02746346,0.06734207,-0.05692891,0.05479427,0.05062033,-0.07165251,-0.00850201,-0.06760769,0.06740493,0.00426806,0.06988689,0.06201257,-0.04856467,-0.02401215,-0.01572961,0.07726377,-0.00451351,0.02004600,0.04862128,0.06506318,-0.04920439,0.05791790,0.02916373,0.07423378,-0.02537020,-0.06217260,0.07979418,-0.00498838,-0.02575849,-0.05807757,0.06699648,-0.01087016,0.08037869,-0.02695998,-0.08347813,-0.01885349,0.06676282,0.03442678,-0.08190844,0.00565774,-0.07027201,-0.06282669,-0.01786270,-0.03119417,0.05421133,-0.03412863,-0.03150327,0.05117091,0.05324319,0.01802166,-0.06406724,-0.04137884,-0.04952783,-0.02490285,0.03730303,-0.07949104,-0.08234525,-0.04798904,-0.04284905,0.04379309,0.04740448,-0.04538637,-0.03403525,-0.05880303,-0.00194040,0.01337872,0.07054834,-0.03914657,0.04801699,-0.07407955,0.05012171,-0.01758678,-0.02710978,-0.06315496,-0.08165981,0.01595396,-0.06443516,-0.05143991,0.05327869,-0.00632380,-0.04262174,0.06394688,0.02698380,-0.04073068,-0.06143067,-0.08190051,-0.04208668,-0.02096807,-0.02836069,0.02872404,-0.05709533,-0.04124980,-0.00604855,-0.06501386,-0.05599806,-0.00924375,0.03026164,0.03821923,0.05457814,-0.00122424,-0.02469512,0.00301310,-0.03957513,-0.08446619,0.07611967,-0.02953246,0.03216086,-0.06348762,0.02795219,-0.03475276,0.08019219,-0.04441425,-0.00465658,-0.05474624,0.00899891,-0.00259924,-0.00465698,0.04443516,0.06148915,-0.00702154,0.07520806,0.08408872,-0.01396512,-0.02440806,-0.01936176,0.04923072,0.03468198,-0.00042622,0.04205981,-0.02126428,-0.05694093,0.05798865,-0.06363373,0.02819630,0.04672570,0.07990106,0.08159763,-0.01240046,0.05022705,-0.03436802,0.02908795,-0.01448075,0.05134943,-0.05345228,-0.01089620,0.01381924,-0.02176314,-0.04134551,0.02365890,0.00049535,0.03714685,-0.05210586,0.01490114,0.07136537,-0.04055766,-0.01568278,-0.01357282,-0.07577134,0.04895816,-0.00321794,-0.04811280,-0.04532626,-0.06531587,0.03545213,-0.03713151,-0.03213266,-0.05532608,0.06668072,-0.01396464,-0.05304712,0.06512032,-0.02194368,0.02076131,-0.04118665,0.04483595,0.08124868,-0.05063275,-0.00118578,0.04302807,-0.05944754,0.03056563,0.06978232,0.04045904,-0.04663542,-0.03452337,0.01054666,-0.02845427,0.04726101,0.06843153,0.07943592,-0.01028936,0.07353244,-0.05439341,-0.02617769,-0.01491040,-0.02241839,0.04384553,-0.06176267,0.02632204,-0.03631719,0.04619010,-0.04457872,-0.07726768,0.00485097,0.06877448,0.08137056,0.01771667,0.07106526,-0.05890314,-0.04510665,-0.05889573,-0.03641814,-0.07109227,-0.00364707,-0.01617114,-0.07750035,-0.07805338,-0.06808101,0.04299673,-0.04338744,-0.06144056,-0.01162743,-0.08462213,0.02491853,-0.07121913,-0.01453333,0.06522399,0.02308979,0.03907151,-0.05710489,0.05243893,-0.05312623,-0.07412221,0.03749780,-0.08043431,0.08133839,-0.07429824,-0.04085522,-0.06064310,0.08150351,-0.03946844,0.07301392,0.08391798,-0.00169989,-0.00747309,-0.07344478,-0.08050647,0.00572030,0.07781459,0.06588637,0.04246119,-0.06930365,-0.01436984,-0.08174617,-0.02914141,-0.08543231,0.05971380,0.05427098,-0.05877201,0.08410858,-0.06303906,0.02261870,0.07015719,-0.02236322,-0.07438056,0.05796941,0.04799381,0.03338838,-0.00284103,0.03915030,0.01131764,-0.04937601,-0.05281122,-0.05760084,0.02612255,-0.05292966,-0.03757766,0.04826386,-0.07491061,0.02076613,-0.02308520,-0.08309485,-0.05588372,0.03586449,0.05992851,-0.03797379,0.05697516,-0.03855713,-0.00896590,-0.07670192,0.08235184,-0.01188913,-0.00013193,-0.05053220,0.06627882,0.01481140,-0.00220162,0.04372415,0.05533335,0.07353214,0.05032498,0.02436680,-0.01509451,0.03126224,-0.01781680,-0.05042734,-0.01102249,-0.01076596,-0.03977821,0.03714098,0.05651311,0.01845679,-0.05238782,-0.01414373,0.02885070,0.04815656,-0.01244004,0.07297386,0.02238997,-0.01246050,0.07235043,-0.04544128,-0.04445844,-0.00728892,0.00418763,-0.00178538,-0.01696975,0.04734327,-0.06405049,-0.06941743,0.04905114,0.06418934,0.04449608,-0.05911290,0.04810228,0.04705594,-0.05686713,0.07523399,-0.08235300,0.01371903,0.07992084,0.08252987,-0.04102858,0.02240009,-0.06588625,-0.01644510,-0.03987785,-0.01132053,-0.06206759,0.06898239,-0.00211399,0.04649803,0.04892967,-0.04894720,-0.04632100,0.00210757,-0.00693572,-0.02492419,-0.07864159,0.03079934,0.03705230,-0.03887263,-0.01947209,0.00774065,0.03851966,-0.08452871,-0.03095565,0.00225682,-0.04723024,-0.02940592,0.05024682,-0.06993373,-0.00937879,0.00816885,0.03871799,0.08276702,0.03528672,0.07495642,-0.05068957,0.06102216,0.00199454,0.07285950,0.00692063,-0.03334476,0.07375171,0.00746397,-0.03110343,0.04632682,0.04822037,-0.02262294,-0.03624945,0.08496805,0.07772794,-0.03981280,0.06938648,0.06765712,0.01181458,0.03536205,0.04524333,0.01717083,-0.03023207,-0.01314991,-0.07945172,0.08396985,0.04401139,0.07263108,0.06830422,0.05946168,0.03648600,-0.00023784,-0.02935605,0.06645662,-0.02910125,-0.01458947,0.02306930,0.05992416,-0.05536715,0.07589928,0.02259501,-0.06130987,0.05201427,-0.01541541,0.01808746,0.00042185,-0.01749118,-0.07620872,0.06305937,0.00240605,0.04685386,-0.01353165,0.04169116,0.07736064,0.06519755,-0.03702728,0.01968593,-0.04390315,0.05073549,0.03636389,0.04820082,0.05110950,-0.01200870,0.07147802,0.06231118,-0.06056932,0.00932322,0.00624403,-0.07332824,0.01952125,-0.08330795,0.06170001,-0.03107280,-0.00417682,0.02413631,0.00692850,-0.02970484,-0.07936843,-0.04478285,0.03723514,0.03325909,-0.04037542,0.07143591,-0.03684983,0.03467684,0.08447182,0.01131856,-0.08402931,0.06584781,-0.07365210,-0.06576231,0.01027912,0.03730624,-0.03316378,0.08506262,-0.02225793,0.05448588,-0.04448931,0.01261357,0.07592943,0.02168583,0.06072580,0.06040843,0.02905777,-0.05206791,0.03814608,0.04942339,0.08154916,0.07728454,0.02739400,0.00083702,0.07083699,-0.04489670,0.07421544,0.00707451,-0.02888274,0.05794466,-0.06998828,-0.07979808,0.06444199,-0.05901974,0.05975463,0.06861665,-0.03200219,0.05613174,-0.03980075,0.04014731,-0.03512838,-0.07395615,0.07622137,0.01724625,-0.07519599,-0.00851315,-0.01974770,0.06926320,0.06080420,-0.02027135,-0.06498211,-0.03555725,-0.06923035,-0.06267095,-0.06269159,0.05773219,0.07835234,-0.06450742,0.05216215,-0.05112198,0.01586235,0.05204535,0.07622396,-0.04007141,0.02550111,-0.04068534,-0.01475046,0.06280955,-0.07194909,-0.01774660,-0.00320628,-0.08463908,0.06069951,0.04468793,-0.07809269,0.02510034,-0.07836904,-0.00439267,0.04472982,0.01440597,0.04746411,-0.08329840,0.03649485,0.04536527,0.04706462,-0.05745203,0.05257196,0.07308152,-0.03667538,0.04133760,0.07778195,-0.03602610,0.05579663,-0.00326835,-0.06447302,0.03550085,-0.00029907,-0.03464554,0.03764441,0.01011557,0.04546124,0.03094844,-0.02435073,0.01374352,0.07123639,0.06558945,0.07633951,0.03755410,-0.05903226,0.06457051,0.02052097,-0.05627455,0.06560472,0.03314560,0.01368634,0.05643263,0.03549873,-0.03370269,0.04030498,-0.08504269,0.00156952,0.06681045,-0.02002797,-0.04477856,0.04664221,0.04648729,-0.02967126,0.07711077,0.00018879,0.05840621,0.02455620,-0.04825907,-0.01595776,-0.04332295,-0.00054633,-0.06423964,0.05552899,-0.03296818,-0.03342590,0.07060506,0.01804624,0.02765481,0.02485849,0.05842138,0.08299548,0.04760364],[0.08039222,0.05437107,0.05603621,0.00638907,-0.00309910,-0.04475396,-0.06928222,0.03975194,0.05466904,0.08509033,0.08480527,-0.01483481,0.01348083,0.05335376,0.02225020,0.07808185,-0.08378016,-0.04160186,0.03719091,0.08473659,-0.03043600,-0.03512642,0.03870418,0.08223768,-0.05842502,-0.04208504,0.08047148,0.02844760,0.04540101,-0.04554518,0.04642991,0.06254909,-0.04141521,-0.06817669,0.04973584,-0.00031126,-0.03400891,-0.05759681,0.06417903,0.00195189,0.01518478,-0.04365679,0.03147907,0.03491735,0.00425708,-0.07405123,0.00822136,0.02011188,0.05617946,-0.06651396,0.03813837,0.02039175,-0.03657253,0.03908027,-0.07597791,-0.01728866,0.05660339,-0.01359969,-0.03921154,0.06115701,0.02379410,-0.01614080,0.05937726,0.02765858,0.06053089,0.04873141,0.06496290,-0.02892950,-0.04652857,-0.05721494,0.02944276,0.02029187,0.08090270,-0.02465161,0.06843267,0.07452025,-0.01290881,0.08295361,-0.04627657,0.04273475,0.04961138,-0.03457700,-0.03052367,-0.05785782,-0.01269509,-0.06628190,-0.05003563,-0.00971341,-0.07076118,0.00008678,0.04391646,0.03631422,0.04475095,-0.05139178,-0.03084629,-0.00892607,0.00194403,-0.01042231,-0.02474853,-0.02898459,0.06946725,0.08390143,0.03571745,-0.08344687,0.04955339,0.06528147,-0.02711683,0.06804835,0.02081569,0.07238121,-0.03460590,0.03246537,-0.07890719,-0.00179066,0.08396948,-0.05735611,0.02992164,-0.04875816,0.02058151,0.05448071,-0.07204508,0.01977665,0.04727910,0.08530261,0.06940116,-0.05558587,0.05603420,0.07544245,0.07936636,-0.07897166,0.06594095,0.08312268,-0.06184991,-0.05109955,-0.03093343,-0.02844366,0.00093456,0.01135734,0.05082310,0.00063901,-0.07911456,-0.06197828,-0.07009584,-0.05421514,0.04883749,-0.07984594,-0.00193975,0.02909626,0.07462417,-0.05851591,-0.00340316,0.03314749,-0.05459112,0.06290666,0.05363483,-0.05669281,0.06487136,0.01643594,-0.06052423,-0.02125512,0.01894062,-0.01335352,0.06041957,0.00557267,0.06975562,0.05399910,-0.03565719,-0.07766443,-0.06426992,0.02944428,0.05118492,-0.00401421,-0.01682319,0.07894544,-0.00165552,0.08490016,-0.05644974,0.02905167,0.04788594,0.07886543,-0.06786881,-0.07713048,0.06035439,-0.04202692,0.05544543,-0.08180088,0.03899929,0.06566592,0.01222536,-0.05147265,0.07496473,0.01699038,-0.01847341,-0.05679842,-0.00811644,0.01234630,0.05403981,0.05695402,-0.00282321,-0.01935104,-0.00866130,-0.04728090,0.04615846,-0.02638402,0.03145052,0.06672475,0.06373935,0.04293564,-0.07568351,0.03756716,-0.04804744,0.04033164,0.01343255,-0.05680231,-0.02175218,-0.00137281,0.01428733,-0.02967612,-0.06552361,0.07836287,0.06231875,0.06445374,-0.00508664,0.01537034,-0.00190308,-0.05381080,-0.00840627,-0.08118185,0.00214045,0.04185106,-0.06188471,-0.03884514,-0.04837488,0.07841092,0.08083960,0.07015795,0.08068818,0.04382589,-0.07484280,0.02094089,-0.05232446,0.06701544,-0.08360910,-0.05775743,0.05675805,-0.04746549,0.05316656,0.00373958,0.07867110,-0.02079123,-0.03837887,0.03178459,0.08192462,-0.06197346,0.02791080,0.04405292,0.00913202,0.06133842,-0.04550698,-0.04925767,0.04999816,0.04247902,-0.04865121,0.01426937,0.02552279,-0.04429397,-0.01639154,0.05514224,-0.04221870,0.07109955,-0.03057856,-0.04186207,0.05745150,0.03803311,0.02866982,0.04037446,-0.01645756,-0.07987893,-0.01503009,0.00002474,0.06292630,0.06105170,0.02097285,-0.00512139,-0.03959750,-0.04711897,0.00098936,0.05065013,0.05380841,-0.00630040,-0.00550672,-0.05035724,-0.04668425,-0.00768440,-0.05901652,0.04227049,0.00520817,-0.05113164,-0.07385577,-0.06874028,-0.01521695,0.05801140,0.01268007,-0.05344956,0.06081896,0.01371495,0.02625361,0.04005703,-0.01872643,0.04649215,0.07659284,-0.00496849,0.00895778,0.00739755,-0.06669834,0.01272222,-0.07407240,-0.04753461,0.01818498,-0.06514051,-0.03224359,0.00580189,0.07383457,0.03846268,-0.05995731,-0.02129330,0.00586078,-0.03750584,0.04207810,-0.02261434,0.01318274,0.08259492,-0.03290820,0.05124458,-0.05954784,-0.01196949,0.03741078,-0.00643513,0.05061372,0.06693675,-0.02198370,-0.04002970,0.02113568,0.03659878,0.06860739,-0.04196456,0.08450955,0.04566665,-0.00808337,0.07408906,0.07098629,0.03523725,-0.03349555,-0.05934913,-0.05405213,-0.02737957,0.07696831,0.08237103,0.01941375,0.05741719,-0.04639432,0.01929082,-0.01548688,0.07707771,0.00742126,0.06581538,-0.04489069,-0.06727217,0.07301518,0.02273621,0.01038367,0.01808443,-0.07615486,-0.05518367,0.03238364,-0.07204150,-0.06541946,0.06293465,0.04032051,0.01090561,0.03632138,0.00357780,0.06257704,-0.01023180,-0.01407298,0.05541563,-0.03775809,0.07960359,-0.06595574,0.01360440,-0.07738578,-0.00913189,-0.04527850,-0.06375578,0.04728340,-0.00778096,0.03785354,-0.00852624,0.03848239,0.07957751,0.00193769,-0.05689844,-0.07079212,0.06883879,-0.01996410,0.07921679,0.06229908,-0.03287776,-0.03763534,-0.04762701,-0.07560253,0.03610042,0.00250317,0.05084671,-0.05275458,0.02907467,0.03545198,0.05276619,0.01238323,0.04629364,0.00374126,-0.07111181,0.03882127,0.00352535,0.00824884,-0.01832907,0.04619873,-0.05784629,-0.08328194,-0.07202099,-0.00658318,0.07344398,-0.03907218,0.07051188,0.02091632,0.01716745,0.02573469,-0.07111865,0.04777262,0.03193167,0.01725707,0.08513182,0.04148273,0.08032343,0.06888623,-0.08562942,0.04986676,-0.05333625,0.04474879,0.00648659,0.08251689,-0.02744611,-0.01974449,0.05934150,0.06602175,-0.07227610,0.05778527,-0.02499149,0.06977409,-0.03597547,0.03510820,-0.06374439,0.02817543,-0.01261533,-0.03077114,0.05656753,0.06484423,0.00393673,-0.08173221,-0.00773826,0.07408111,0.04244085,0.06066101,-0.02796067,-0.03070574,0.01286909,-0.08430833,-0.06109080,0.03359307,-0.01373629,-0.01929601,0.08099750,-0.00774068,0.08261222,0.04538647,0.02265262,0.02710273,-0.05229805,0.05192680,0.00758341,-0.04749431,-0.00323331,0.05767350,-0.02428352,0.01354499,0.05551804,-0.00358125,0.01066993,-0.06678056,-0.07136931,0.01401932,-0.07061838,-0.00190508,0.06912047,-0.04948558,-0.01242909,-0.03592372,0.03667451,-0.04580437,-0.06408206,0.05321972,-0.03087038,-0.02801978,-0.01092034,0.03976715,0.05572015,0.02914397,-0.00260173,0.06420156,0.06626564,0.00887802,0.04909336,0.05612292,0.01278292,-0.04568283,0.02855325,0.06050396,0.00390406,0.04980081,0.02344604,-0.03175993,-0.02478674,0.05293071,-0.00555113,0.00113233,-0.05674362,0.04629471,0.03456366,-0.04452647,0.02062774,-0.03537930,-0.06161877,-0.08491860,-0.08015499,0.07943338,0.01561306,-0.05628978,-0.05516361,0.02605087,0.00018800,0.00544195,-0.08269377,-0.06507434,0.01784710,0.00540541,-0.06034015,-0.07752659,0.01031006,0.06109861,0.06292208,0.06071126,-0.00992114,0.06641681,-0.06178932,-0.07145067,0.02337967,-0.04762416,-0.04882709,-0.05136403,0.03086437,0.00311912,-0.04789576,-0.02472343,-0.04046546,0.03625720,-0.07034237,0.07318475,-0.05603861,-0.06779711,0.02534208,0.02749345,0.04529471,0.06395052,0.05405534,0.06750538,0.08039740,-0.01205224,-0.07236588,0.00775472,0.03134475,0.04289965,-0.02195931,-0.06647528,0.05275125,0.02256716,-0.02100389,0.02159196,-0.08147148,0.06724928,0.07457075,-0.06757881,0.01740253,0.01477542,-0.04232953,0.05473218,-0.00403225,0.01494015,-0.00572569,-0.05455056,-0.07430331,0.07995792,0.00362204,-0.08295892,0.05766620,-0.01437009,0.04198269,-0.07237180,-0.04303086,0.03417265,-0.06614450,-0.01713767,0.02863130,0.02198419,-0.01775993,0.07983083,-0.03430823,-0.06352823,-0.06078894,-0.04040208,0.00728639,0.01764601,0.03061472,-0.00093689,-0.07278232,-0.08335130,0.05593095,0.05373991,0.05544198,-0.05297153,0.04030985,-0.01418608,0.07610578,-0.07114235,-0.04564989,-0.05814999,0.00779281,-0.06468124,-0.08483855,-0.08342967,0.03690191,0.05209911,-0.05779825,-0.02051197,0.01948343,-0.08100975,-0.05244675,0.05663249,0.04801964,-0.01515210,-0.04836154,0.04756317,-0.07583333,-0.08525153,-0.07243792,0.08173838,-0.00710838,-0.08144969,-0.07697983,-0.07213457,0.07333418,-0.00502937,0.00825589,0.01544548,0.03952982,-0.00366323,-0.04906880,0.06613500,-0.01045953,0.03182761,0.08048695,0.03226522,-0.00463733,0.00356830,0.03748503,-0.01462828,0.00619161,-0.01151500,-0.00259329,-0.07988480,0.01066629,0.04442358,0.03669586,0.06125472,0.02606993,0.03656128,0.06360543,0.02703226,0.02879192,-0.02137022,-0.00391566,-0.04563812,0.01744814,0.07364639,0.04056572,0.07460134,-0.05200441,-0.05613732,0.00653241,0.02033210,0.04438721,0.02482793,-0.03260087,0.03342123,-0.05150424,0.02935157,-0.05672467,-0.03133504,-0.08281916,0.04856666,-0.02878474,0.01655447,0.06614154,0.02048565,0.06815282,0.03201174,-0.06155189,-0.07591256,-0.07541843,0.01964450,0.01557719,-0.05589238,0.04505732,0.07107990,-0.06444148,0.01477280,-0.01578403,-0.07282777,-0.06452076,-0.04538888,-0.00016379,-0.04390230,-0.03168689,0.02388614,0.03830849,-0.03536328,-0.04891121,0.06836010,0.00559944,0.02063569,0.05293495,0.02731346,-0.03120986,-0.05763463,0.06281348,-0.05122410,0.04168246,0.05085590,-0.00244997,0.04362177,-0.03716137,0.04906514,0.08433858,-0.02608392,0.01935200,-0.04248084,-0.02419254,0.03430453,0.03472310,-0.01593886,0.01633725,-0.01407947,-0.02027662,0.06805550,0.02046543,-0.02610622,-0.03805918,0.03581031,0.07118156,0.03771122,-0.00179455,-0.01799659,0.01116317,-0.06492940,0.05657992],[0.06877229,-0.00081560,0.01239650,-0.03232726,0.05390085,0.07249767,-0.08135178,0.05484999,0.01034927,-0.04850262,-0.08401440,0.07764243,0.04814439,0.00173287,0.02528241,0.07727776,0.04301255,0.01157390,-0.04182605,-0.06034151,-0.01014399,-0.00760846,-0.05782048,-0.06936312,-0.00247232,0.01878734,-0.07475290,0.04040038,-0.04433681,0.03761899,-0.03592932,0.05727046,-0.01517425,-0.01599188,0.04301018,0.00644659,0.02967256,0.08223496,0.00252938,0.03535511,-0.00249180,0.07273234,-0.04221486,0.01237422,-0.07873959,0.06256648,0.01128802,-0.01934016,-0.04725722,0.01512889,-0.02126088,0.07124784,0.06747333,0.07487646,-0.01557230,0.06445657,0.02009357,-0.05007058,-0.05036433,0.01240719,0.05613137,0.01420198,0.00764456,-0.08086283,-0.06003514,0.02767647,0.07610229,0.01551813,0.00729949,0.07176305,-0.03654586,0.01147753,-0.02145726,0.05094132,0.00969766,-0.05939436,-0.04451891,0.07115974,0.06107374,-0.02125174,0.08314624,0.00880395,-0.03458954,0.00091392,-0.03491724,-0.08292563,0.00097264,0.01601205,-0.02036314,0.04351256,-0.05875313,-0.02851838,0.05761989,-0.07009570,-0.06003505,0.00145472,-0.01296899,0.05538275,-0.07889292,0.06583916,-0.03214869,-0.08010777,0.04361654,0.03900599,0.01847274,-0.01818309,-0.02124111,-0.08391143,-0.01988555,-0.05285637,-0.05555089,0.02803549,-0.04759922,0.00846040,0.02353618,0.06199826,-0.04091424,0.03452994,0.02650348,-0.03897962,-0.05520857,-0.00472718,0.04102946,-0.07352830,0.04194834,0.06771193,-0.02536274,-0.07442959,0.08059143,-0.00566148,-0.01591085,0.01553199,-0.04552079,0.05697976,-0.05371289,0.04221179,0.00159222,0.00071552,0.06259752,0.02835106,-0.03357233,-0.07344516,-0.06863244,0.04940760,0.08500640,0.00380362,0.02296239,-0.03077734,-0.03415911,0.07915813,0.01397454,0.02633948,-0.07464485,-0.06999630,0.02351172,-0.05556151,-0.05657944,0.02040103,-0.07282865,0.07723370,-0.08285175,-0.05398402,-0.00085577,-0.07374900,0.04869048,0.04884990,0.05364708,-0.06693736,-0.03294014,-0.03287782,0.03658092,-0.02273058,0.04263092,-0.08034842,0.00257790,-0.00915363,-0.02905252,0.03570320,-0.00789780,0.05344781,-0.06931867,0.06325436,-0.04301208,0.03894640,0.04154145,-0.03851884,0.02026394,0.05486688,-0.06006915,0.07314855,0.02135867,-0.02766943,-0.06052560,-0.01147103,-0.05513984,0.08275364,0.08117970,0.06903615,0.08017015,0.08544923,-0.06045811,0.07286292,0.01795255,-0.01601893,0.03820000,-0.02053604,0.06684850,-0.01908747,0.02765971,-0.01980251,0.05666092,0.08412021,-0.01913983,0.07816998,-0.07893851,-0.08437407,0.04353942,0.01043406,-0.01995650,0.00825181,-0.01306483,-0.03580697,-0.02211770,0.04869690,0.07492972,0.00429941,-0.00197425,-0.00591445,-0.07165851,-0.02001374,0.01273039,0.00953920,-0.01747102,-0.01309287,-0.04946988,0.01248362,0.05183804,-0.08326497,0.04810248,0.04991091,0.00612067,-0.02908945,0.02056892,-0.05796093,-0.00042419,0.00723745,-0.06985313,-0.08522061,-0.02693895,0.01895262,0.05333608,0.03151331,-0.07145005,0.02776086,-0.05605727,-0.02540208,-0.06220595,-0.06371250,-0.05089723,0.07807720,-0.06200589,-0.03933461,0.06770751,0.08289054,-0.00308973,-0.02290920,0.04253815,-0.00567084,0.05217483,0.02137814,-0.05521670,0.00087195,0.07558053,0.00308106,0.07631864,-0.08348862,0.02792989,-0.05200854,-0.08144719,0.00869099,0.03791929,-0.08405077,0.07933427,-0.07286730,-0.04638733,0.00840582,-0.05827333,0.00803246,-0.04326394,0.05265920,0.06481590,0.06383100,0.02497394,-0.05868843,-0.01675966,-0.01128977,0.00148967,0.00392734,-0.04179814,-0.07954028,-0.00901960,0.02278552,-0.02182343,-0.02533683,0.07264855,-0.02998164,-0.01819827,-0.02276199,-0.03103063,-0.00764918,-0.04212597,-0.04949758,-0.04321430,-0.07426228,0.03348260,-0.04374737,0.07918450,0.08136668,0.04075193,0.07735308,-0.02614633,-0.04501948,-0.04034249,-0.07197908,-0.04172429,0.07863729,-0.05279057,-0.06165924,0.05878176,-0.06875081,-0.00317134,0.05648752,-0.03312120,0.07140743,0.01724352,0.02023134,-0.01602349,-0.04162026,0.07153570,-0.01925669,0.00685378,0.00976399,0.02647829,-0.06791703,-0.05491223,0.02390146,-0.04019605,-0.07593070,0.07615640,0.00719139,0.05343046,0.02262861,-0.03563697,-0.00262651,-0.05312920,-0.00021516,-0.03304992,0.01704128,-0.01213782,0.02512667,-0.08216998,0.01880921,0.07360705,-0.00615179,-0.06094661,-0.08345109,0.08551683,0.08130328,-0.03049419,0.08310477,0.02964236,0.03158796,-0.07276922,-0.06161361,0.06190826,0.01408003,-0.03628178,-0.01629888,0.03386106,-0.00232256,-0.08561208,0.04034089,-0.01910727,-0.05549645,0.01353696,-0.08058345,-0.08145113,0.04961116,-0.01929960,0.02217993,0.01989876,-0.02962928,0.05243621,-0.04852533,0.02947095,0.01238587,0.00977938,-0.01205330,0.07644122,-0.03688977,0.06005323,0.02820933,0.05967438,0.02306452,-0.00610013,0.03575768,-0.06063357,0.01209683,0.06304666,-0.08221919,-0.00639139,0.05915809,-0.01980145,-0.01597668,0.04967908,-0.01595570,0.01085081,0.03051160,-0.00101440,0.06145064,-0.06826311,0.01502713,0.00083472,-0.07448371,0.05793140,-0.05367114,-0.00385197,0.00047397,-0.01459314,0.07485741,0.06994942,0.07349665,0.00080755,-0.05522580,0.06532653,0.07639579,0.01545323,-0.05928743,-0.02853866,-0.07829062,-0.02059154,0.00749781,0.00747724,0.06229115,-0.02261239,-0.02865997,0.02782296,0.02231906,-0.04584743,0.05853411,0.05457941,-0.07772533,0.00250804,0.02550772,0.01458632,-0.04020629,-0.05575752,-0.07155675,-0.01802245,0.00245067,-0.08315196,-0.02574089,-0.02642565,-0.07093640,0.00764561,0.02674998,-0.06499421,0.04828005,0.05059148,-0.04278640,0.05336364,-0.07115464,-0.05668923,-0.02065530,0.01956531,-0.01883682,0.08295835,-0.03397766,-0.01226559,-0.06308074,0.02195205,0.05026731,-0.05566460,0.01326091,-0.05152594,-0.05968794,-0.05565261,-0.05610846,0.06379357,0.04263065,-0.07725008,0.07265624,0.00748985,0.03449056,-0.05999383,-0.01492951,0.03583907,0.03662099,0.02665011,0.00391024,-0.04150107,0.04863221,-0.05079846,-0.08478063,-0.04506524,-0.06109365,-0.07792029,0.01684413,0.04484581,-0.01968514,0.05999783,0.03543046,-0.04459258,0.05765969,0.05715842,-0.06591409,-0.04337822,0.05851161,0.03744982,-0.02837386,0.02057588,-0.00922380,0.01762812,-0.00725607,0.06168710,-0.01566727,0.06938629,0.01133203,-0.00902710,0.03346144,-0.04084140,-0.01080480,-0.02023171,-0.03296956,-0.06550351,-0.04281999,-0.03416444,0.07256225,-0.08310727,-0.01839367,0.01331130,0.03979527,-0.06279658,0.03034183,0.04430335,-0.01009073,0.03983154,-0.04246069,0.01498239,0.06141865,-0.03196043,0.08186571,0.02582167,-0.06950426,0.06805962,0.06530179,0.05658003,0.05953521,0.06471414,0.06451485,0.04742802,0.01689132,0.06579376,0.07601032,-0.00079075,0.05036197,-0.02630338,-0.06418822,-0.03738641,0.06199935,0.06778391,-0.02812286,0.02512223,0.06276473,0.00902153,0.07237525,0.03905048,0.07270879,0.00998807,-0.06730466,-0.00602750,-0.02380291,-0.08366569,0.04472060,-0.04849694,-0.01326226,0.06681972,0.07776154,0.03022049,0.00310177,-0.08532593,0.06006689,-0.04037755,0.06003371,0.03755749,-0.08314043,-0.01505497,-0.07814708,0.03975822,0.07169183,-0.07559197,0.01971529,-0.08545207,0.04093724,-0.03404013,0.05413326,0.04674958,0.04749903,-0.03281539,-0.08173586,0.00036646,-0.00915515,0.00225134,0.03946918,-0.07624743,-0.04928725,-0.06873984,0.08083002,0.03481522,-0.01678453,0.01641931,0.06139526,-0.03562342,0.05152645,-0.03384995,0.03492762,0.00525266,0.06118955,-0.07290833,0.06699459,-0.02657330,-0.05116956,-0.03226090,0.00402589,0.02747666,0.01724284,0.03635593,0.01579316,-0.04883672,0.07810847,0.02210217,-0.08425330,0.00868995,0.07968543,0.01917113,0.02877080,0.02747596,0.00102227,-0.06837876,-0.07855888,0.08470835,0.02724611,-0.07388986,-0.01589507,-0.03768528,-0.07777885,-0.01590294,-0.03391575,0.01923080,0.06451239,-0.03341620,0.04732118,0.07655020,-0.03779421,-0.04341285,0.01906702,-0.06402895,0.03217175,-0.01271348,-0.07421869,-0.00591061,-0.04403673,-0.04803937,0.04616051,-0.07292334,-0.00260670,-0.00791111,0.06754219,-0.05016157,0.07747843,-0.03079974,0.03055726,-0.01421640,0.06279363,0.05040301,-0.00380587,0.02829636,-0.06313909,-0.06710680,-0.00281049,0.02626926,0.04428210,-0.04943880,-0.02958335,-0.05156291,-0.03496737,-0.01861998,0.08516366,-0.02217256,0.07286830,-0.00436086,-0.01117381,0.00679718,0.01429477,0.00061568,0.05640427,-0.01187041,-0.06559572,-0.01582660,-0.07844753,-0.03736110,0.00821755,0.05286250,-0.02858675,-0.04825801,0.04599651,-0.02625033,0.00268687,-0.01712198,0.07425760,0.04106268,0.01450246,-0.07922991,-0.00899472,0.05158070,0.08537849,0.00076542,-0.02653071,0.07541315,-0.02071924,0.06773765,-0.03888215,0.06563910,0.05118670,0.00108094,-0.01504570,0.00017233,-0.03218880,0.05699375,-0.03318612,-0.01434489,-0.01089585,0.01261687,-0.07374463,-0.03972301,-0.03414332,-0.00636038,0.07422226,0.03242754,-0.02789611,0.00628652,-0.00609260,-0.02615757,-0.00387856,-0.03912692,0.00005543,-0.03357647,-0.05974932,0.01591170,0.04581701,-0.03673344,0.04592552,-0.00244895,0.06906941,-0.03200382,-0.04911538,-0.07099874,0.07724812,-0.04178109,0.04567730,0.08082815,0.01621864,0.01348338,-0.04614678,-0.03238803,0.08574928,0.02556650,-0.06844529,0.01374689,0.02166509,-0.05626111,-0.03380230,-0.05539663,-0.04971698],[0.05883195,0.02268592,0.07843549,0.00115956,0.03099041,0.06134150,-0.05184610,0.02059965,-0.01741879,0.06723594,0.05211722,0.02069078,-0.06573697,-0.05164752,-0.00626582,-0.02884900,-0.02763433,-0.06654081,0.05771770,-0.05993582,-0.01718269,0.02129222,0.00425427,-0.07344767,0.01156203,-0.04255365,0.08002549,-0.01919848,-0.06410071,-0.02212124,0.01309003,-0.02046205,-0.06221679,0.05915371,0.02717426,-0.07575989,-0.03277783,0.00718661,-0.07567382,0.05078629,-0.02560581,-0.06073786,0.05098409,-0.03428076,-0.06083952,-0.00323030,0.07542975,0.00435942,0.02419362,-0.04407666,-0.07689065,-0.01771501,0.02376812,-0.02249175,0.03892370,0.02355559,0.04341830,-0.03508682,-0.07218210,0.07903179,-0.02699234,0.02182391,-0.01735186,-0.00572538,0.04546886,0.04391622,-0.05689912,0.02258161,0.03082775,0.04737600,0.01234634,-0.07258726,-0.06162175,-0.07768835,-0.06084927,0.04013471,0.08389203,0.08486699,-0.04737351,-0.06740335,-0.08068717,0.02126998,0.06767195,0.01493413,-0.08555979,0.08290631,0.00637874,0.04798008,-0.08430848,-0.04143734,0.01593719,0.02426419,-0.04190494,0.06810249,-0.06793647,0.00035751,-0.02852050,-0.02428721,0.00542995,-0.04680005,0.03898182,-0.02623332,0.03152443,0.07890080,0.00682931,-0.07537524,-0.07531627,0.02016040,0.03854845,0.05459078,-0.04845678,0.04737433,0.05130202,0.05942632,-0.01690722,-0.02849297,0.07579162,-0.02076688,0.00645927,0.05246840,-0.07179040,0.08349708,-0.08151529,0.08042125,0.03123740,-0.05635522,-0.00270714,-0.03596888,0.04369162,0.04138912,0.00280755,-0.05106111,0.06763941,0.04772212,0.02113739,-0.03137801,-0.08282694,-0.03206765,-0.03245309,0.06008611,-0.06910021,-0.00492138,0.01859577,0.07384524,-0.00153769,-0.05832540,-0.04583909,0.07471373,-0.02000747,-0.00241171,-0.01883954,-0.04739816,-0.02594496,0.01168176,-0.04780579,0.01748140,0.02296195,0.02400584,0.01201144,-0.03831924,-0.03782817,-0.03847747,-0.01543565,0.04257352,0.05964365,0.07260431,0.05205239,-0.07478789,-0.07758438,0.07443023,-0.07181847,0.08292010,0.08087126,0.05323609,-0.08329023,-0.01872814,0.01971086,-0.04597379,0.05463669,-0.00694129,-0.04100413,-0.03187852,-0.01713287,-0.06766195,-0.05588931,0.05768793,-0.06979718,0.03503448,0.06220705,-0.03491121,0.04331087,-0.04036634,0.03726973,0.02753196,-0.07675417,-0.07911547,0.04042789,0.06106759,0.06891618,0.03814487,-0.03458665,0.04022668,0.05352817,0.07591359,0.00891834,0.06001312,-0.00155669,-0.04717660,0.02540159,0.03802689,0.01806235,-0.08525450,0.06351811,0.05931844,0.03372094,0.02665986,-0.07261960,0.03446878,-0.01702468,-0.08498980,0.02712728,0.07125752,0.02276108,0.01799144,-0.06675553,0.03220648,-0.03792905,0.06776971,0.02081573,0.00160479,-0.04940399,0.04062168,0.08538350,0.06510319,-0.02471169,-0.08414958,-0.07335256,0.02371016,0.01825681,0.02960391,-0.03102579,-0.07715657,-0.00176255,0.04912149,0.00502996,0.06501991,0.00032733,0.00766152,-0.06186291,0.05478080,0.00287689,-0.05480603,0.04972417,-0.06582022,-0.00493081,-0.01070108,-0.06655911,-0.02265286,0.02425083,0.03851706,-0.04496287,-0.01644196,0.00105451,-0.00318238,-0.02337308,-0.07950156,-0.02857700,0.06262825,0.03271488,0.07163724,0.02563616,-0.05119565,-0.02124641,-0.03349959,0.01496300,0.04705703,-0.07737201,-0.05565420,0.07102212,0.08490168,-0.07645898,-0.07515265,-0.00051826,-0.04915479,0.07640157,0.01598996,-0.02585615,-0.04205520,-0.04776829,0.00279767,0.04194459,0.03832037,-0.00710882,-0.02916870,0.02679738,-0.02445536,-0.06485655,0.07991725,0.04321072,0.04199841,-0.07058241,0.05284367,-0.03644111,-0.00158492,0.07969689,-0.05678537,0.05728937,0.01665013,-0.01892143,0.05337269,0.03434180,0.07083613,-0.02279343,-0.03346502,0.00797823,-0.05764402,-0.07967447,-0.04710492,0.04880289,0.00581744,0.02031320,-0.07473771,-0.00422010,-0.05071645,0.01328675,0.08090800,0.03315086,0.05933926,0.04980683,-0.07149962,0.05651068,-0.06376239,-0.01239232,-0.04049779,-0.03673108,-0.07504709,-0.05056786,0.04374499,-0.01711118,-0.06282284,-0.08394267,0.00352058,0.06071576,0.01540352,-0.06993076,-0.04199953,0.07094530,-0.07396033,-0.02955625,0.00980457,0.01386293,-0.00266102,-0.07338258,0.01132236,-0.05008729,0.08271583,-0.04803141,0.06363885,-0.04399568,0.07455131,-0.00538772,-0.08198521,0.06398065,0.03498695,-0.07849063,0.00174619,-0.02414962,0.02040152,-0.04586147,0.05989820,0.03214253,-0.02060904,-0.03730397,-0.06722461,-0.03632376,0.01053845,0.04623755,0.06792253,-0.00844933,0.02829518,-0.07059432,0.07393037,-0.01825568,0.05139069,-0.06588177,0.04186404,0.06234853,0.03289527,-0.05138263,-0.01767610,-0.05402376,-0.00847672,0.06811353,0.04647405,-0.03163880,-0.07575378,-0.07019776,0.04608756,0.06888516,-0.01997266,0.02002842,-0.03903363,-0.06705596,0.01060755,-0.00050913,-0.04606990,0.04263505,0.07308222,-0.04311620,-0.06313666,0.05471445,-0.05955748,0.03179964,-0.00328483,-0.07245329,-0.06815144,0.02363239,0.00689141,0.07388917,0.05536840,-0.03166459,0.04808005,-0.01148412,-0.03464489,-0.02757523,0.05190226,-0.04813327,0.05832272,0.06385349,-0.03418992,0.02386320,0.06952057,-0.05010375,0.02802216,0.06533313,0.07947809,-0.05001077,-0.06699615,0.03519840,-0.06152491,0.02141670,-0.03873211,0.07430597,-0.00547853,0.02044488,0.03595744,-0.03191737,0.05428050,0.03869661,-0.06516142,-0.01673449,0.04462246,0.07908019,0.05995387,0.05577537,-0.08387809,0.05875370,-0.05555255,0.05592461,-0.06242199,0.08219861,-0.01330432,0.00550448,0.04870938,-0.00504472,0.02879403,-0.03784451,-0.02648000,-0.01080019,0.01833998,0.01604479,0.07520320,0.06948413,-0.02872864,0.07440361,-0.03344189,-0.02375495,0.03390003,-0.07816211,0.08447865,0.08011400,0.00336042,0.06703978,0.00116751,-0.06703700,0.07999585,-0.06839821,-0.03216050,0.06940286,-0.06563033,0.01374710,-0.03734791,0.02009059,0.06213327,-0.01557982,-0.07909936,0.04342038,0.07021759,-0.06950229,0.04979317,-0.06165410,-0.05675137,-0.00250554,-0.02876747,-0.03187219,0.01471078,0.08047628,-0.01832501,0.03866005,0.07744400,0.07922455,0.04570553,0.02783537,0.01049692,0.08062686,-0.03657894,0.01030326,0.02038749,-0.03413285,-0.03462545,0.07831899,0.08142072,-0.07613982,-0.02535744,-0.05877700,0.03736164,-0.00748428,0.03526099,-0.08061142,0.06981365,0.04925591,-0.00884088,0.07685993,-0.06076219,0.04558548,-0.01244421,0.01594025,0.04058084,-0.05391829,0.05028066,0.07619496,-0.05625270,0.01824135,0.04817038,0.05454103,-0.03153123,0.08357798,0.08377875,0.02667069,-0.04206211,-0.04551373,0.05191077,0.05122298,-0.02781235,0.08505481,0.03472025,0.06980436,-0.07124428,-0.01918403,-0.04970188,0.02711058,0.02969605,0.00460336,0.00045636,0.06224438,0.05225680,0.08559410,-0.07261052,0.06503849,0.04357072,0.06375750,0.02364309,0.01900980,0.08433296,0.02457859,0.06070355,0.03468432,-0.01693382,0.05693009,-0.04863607,-0.05312188,-0.04530782,-0.03327511,0.07728633,-0.01986735,-0.04785997,0.05862934,0.01043196,-0.03517349,-0.06464691,-0.05594014,-0.04972463,-0.03220220,0.00628553,0.00083639,0.00113776,0.03628523,-0.06069290,0.05130065,-0.00384064,-0.08324000,-0.05037871,-0.03452864,-0.03448341,0.00470196,0.06708058,0.01188002,0.00429289,-0.01972174,0.05259342,0.03548237,0.02196142,0.06596278,0.05097144,-0.00760128,0.05840943,0.00906665,-0.00282304,0.05355769,0.06330588,-0.05909146,-0.07979181,0.00881764,0.01575336,-0.04328272,0.00032747,-0.06827673,-0.08092078,0.03882661,0.03852754,-0.05563606,0.07391682,0.07300445,0.06094610,-0.04314810,0.05875496,-0.04376590,0.06223263,0.01039094,-0.05961556,0.07061417,0.04615442,0.03150406,-0.03927254,0.02096250,0.05048617,-0.00137670,0.05048446,0.01044495,-0.02865051,-0.05538161,0.05206515,0.00265922,-0.00266156,-0.03518650,-0.02599262,-0.00465598,-0.06938097,0.04169755,-0.02725409,0.03244953,-0.07037195,0.05163546,0.05724698,-0.00835622,0.01394107,0.04012341,0.08294342,0.04994542,-0.07102873,0.05051110,-0.04843541,-0.00530566,-0.00865668,0.08506870,0.00356960,0.01974813,0.00705805,0.07618628,0.03690797,0.04907800,-0.06044935,-0.03085403,-0.02236184,0.05968245,0.05330488,-0.01467332,-0.02807609,-0.00098131,0.05087990,0.07942348,0.05701567,0.07049739,-0.04696726,0.02567257,0.01590802,0.01979680,0.06722235,-0.02342961,-0.02505038,-0.01101746,-0.08153358,-0.01814168,-0.07686855,0.05166876,0.02438770,0.02483316,0.00574603,0.02469390,0.04188640,0.07001583,-0.07431382,-0.03413458,-0.02362595,-0.07998424,-0.02136049,-0.02118351,0.03727103,-0.05824979,0.05171605,-0.06784610,0.08494896,-0.05829195,0.07321960,-0.00563651,-0.02432122,-0.03065066,0.00746919,-0.01243056,-0.03441272,0.07901789,0.05069561,0.02749996,0.05077683,-0.07895005,-0.06189378,-0.02994520,-0.05767769,0.08530327,0.02717093,-0.04963469,-0.04457909,0.04836955,-0.01952887,-0.05582829,0.07526360,0.01819758,0.07700411,0.01137708,0.00482666,0.02170368,0.05384433,0.00317217,0.06075130,0.01874066,0.04927620,-0.02200188,0.02214781,-0.02314433,0.07387895,0.00964975,-0.01037023,0.03584774,-0.01701594,-0.03278390,0.08171675,0.02825223,0.04097047,0.01563396,0.07411721,0.06848431,-0.01863451,-0.04385780,-0.08408689,-0.07397297,0.04319034,0.00065341,-0.07108985,0.07196588,-0.02628987,-0.00325514,-0.02474747,0.02422842,-0.02691238],[-0.02858521,0.00393400,0.03193323,-0.03499744,-0.00309461,0.01185288,0.05173913,-0.05525114,0.03702227,0.06270351,-0.00468834,0.04735970,0.02637415,0.07435609,0.05859423,-0.03966600,0.05993441,0.02327527,-0.01427132,0.05218188,-0.01396056,0.01766867,0.04517377,-0.03629840,0.06628025,0.01054008,-0.01394759,-0.02603861,0.04844543,-0.01183707,-0.04415648,-0.00277103,-0.07901298,-0.00268808,-0.04259673,-0.01155172,0.03218186,-0.02742984,-0.05929728,-0.07230157,0.04143529,0.07003648,0.07220105,0.03251438,-0.06217905,0.07221989,0.00860882,0.01814673,0.06931315,-0.04643150,-0.05721205,0.05443291,0.04728957,0.00281069,0.04470993,-0.06520596,-0.08274816,-0.05928665,0.07597891,0.08346864,0.05610295,-0.05859946,-0.02938390,0.01716879,-0.08398771,-0.02694749,-0.04673968,-0.01044004,0.02798057,0.00413935,0.04550601,-0.03742035,0.05823264,-0.00430358,-0.07896526,-0.01561253,0.02833937,-0.03759123,0.01025116,0.02166552,-0.08299819,-0.05460642,0.05170948,-0.02764092,0.02199288,-0.07225256,0.00707134,0.03926050,0.06070521,-0.07239775,0.05696648,0.04607195,-0.02501845,0.02472845,0.01488248,-0.01824133,0.06068648,0.05051435,0.05276693,-0.07703950,-0.01044911,-0.02368875,-0.01958513,0.05872155,-0.08364610,0.06756922,0.02314492,0.07958361,0.01877155,-0.00579112,-0.01193503,-0.06470168,0.02318126,0.08329881,-0.06268182,-0.02046945,-0.00805772,-0.02790828,-0.04773141,0.02229205,0.06682498,0.06064884,-0.03082781,0.02630510,-0.00729865,-0.02057387,-0.06162419,-0.03186724,0.08407062,-0.03352412,0.07481514,-0.00361294,-0.02945666,-0.03173730,0.05155847,-0.03114802,-0.07002188,0.04905470,0.04877803,-0.02644951,0.08521164,-0.08096941,0.05455368,0.00721136,0.05585464,0.00393061,-0.00435629,0.05997313,0.04152718,0.01233537,-0.00886466,0.05127120,0.04374985,-0.03485100,-0.03863978,-0.07353626,-0.00313008,-0.03236877,0.00577904,0.07050221,0.03260632,-0.04609919,0.07905283,0.08533850,-0.03178749,-0.06089351,0.00878783,-0.04314664,-0.04634461,0.02982835,-0.01941238,-0.06953216,0.00577012,-0.02472995,0.01969416,0.07075308,0.00897545,-0.06411315,-0.03420052,-0.03002547,0.01382344,-0.04660806,-0.04068460,-0.02875384,0.02027554,-0.07916623,-0.08467860,0.03728440,0.07607453,-0.04552453,-0.07472114,-0.05276683,-0.08072178,-0.01193160,-0.03220616,-0.08366086,0.02612560,-0.01466451,0.07208153,0.02333310,0.00916644,-0.06229138,-0.02118644,0.02920169,-0.03368324,-0.06449671,0.00913696,-0.01313651,0.08578958,-0.01138457,-0.00617439,-0.01426287,0.02780740,0.03533590,-0.00231371,0.00853170,0.08327434,-0.08050406,0.06970894,0.08364219,-0.00281563,0.06896847,-0.05663425,0.06150442,0.04527552,-0.01212818,-0.05644518,0.06522605,-0.04371405,0.00283474,0.03067564,-0.06937080,0.06976980,0.03860966,-0.06089094,0.05708368,-0.03282639,-0.01929968,0.08437399,0.07031784,-0.02840406,-0.03626114,-0.00813831,0.00265466,0.04557262,0.05555572,0.04433316,0.07796708,0.06087619,0.06273533,0.06858144,0.00538658,-0.02197176,-0.06543742,-0.08542479,-0.06787815,0.00878688,-0.03166055,0.03866079,0.06031686,-0.07946193,-0.00283517,0.07070263,0.06090821,0.01485038,0.00390696,0.05900975,0.05829209,-0.04883851,0.02699071,0.05696608,0.03009502,0.05845593,0.00826284,0.01984884,0.04795078,0.03623180,0.01117264,0.07154428,0.02569212,0.02684364,0.07255279,0.02351661,-0.04759901,0.07491469,0.05833344,-0.05132361,0.02912102,-0.06417980,-0.07544172,0.00446332,0.07805420,0.03019804,-0.07580595,0.01321011,-0.02924461,-0.06502637,-0.05023374,-0.04724904,-0.05626781,-0.06285065,-0.03033338,0.04935821,0.03494933,0.06716793,0.01042722,-0.03084541,0.02488887,0.05127320,0.05623519,-0.04427063,-0.04259631,-0.07189851,0.00162391,-0.05283891,-0.06420306,-0.02816579,0.01262932,-0.05790741,0.06459776,0.01292631,0.01978031,-0.00456710,0.06220300,0.08385000,0.03399985,0.06206868,-0.07465765,-0.08097371,0.05716139,-0.02794142,0.04452666,0.07802730,-0.04612350,-0.01687329,0.00993597,0.07798221,0.00642659,-0.03732002,-0.01001798,-0.06097068,-0.07389878,0.07056303,-0.01707912,0.00451210,0.04678750,-0.05315034,-0.06507070,-0.00951441,0.02735800,-0.04468342,0.03151577,0.05029244,-0.03010429,-0.00203797,-0.00788034,-0.00156142,0.04503461,0.02660488,-0.01691896,-0.03480435,-0.04789460,0.04702202,-0.08565847,0.05457652,-0.05987954,0.01375139,0.03706274,0.00552530,-0.06173767,-0.08066092,-0.08115736,0.01987072,0.06626305,0.07631967,-0.05201228,-0.07481431,0.06868804,0.05241321,-0.08055161,-0.05711247,-0.06422737,-0.03743016,0.02151437,0.07537866,0.03747535,-0.05298641,0.05017621,-0.05357746,0.00067951,-0.00500987,-0.02047411,-0.04783060,0.01097808,-0.03162834,-0.03029947,-0.06259058,-0.06702519,-0.03078122,0.00362172,-0.03302862,0.05897751,-0.03634610,0.02348201,-0.02029527,0.03188479,0.06559198,-0.07118490,0.02063781,-0.04003169,0.03870407,0.02625865,0.03804942,-0.07486553,-0.02205589,0.00321972,-0.01839247,-0.08517379,-0.01375064,0.04069037,0.06477942,0.07191705,0.00843259,-0.02691729,0.03083043,-0.05012617,-0.06465932,0.03520284,0.03634309,0.05065848,-0.06218563,-0.02820419,0.06176978,-0.06207966,0.03038367,0.01785021,-0.02503037,0.06278826,-0.00222602,0.00617204,-0.07575908,-0.00376260,0.03685130,0.06392124,0.07785017,0.04193283,-0.06022619,-0.03806229,0.05739970,-0.00739104,-0.06007364,-0.00095472,0.05455673,0.05653048,0.08556969,-0.04526648,-0.06132594,0.01832258,-0.01322601,-0.07521054,0.06552161,0.01667191,-0.00816609,0.02184353,0.07006674,0.01680861,-0.00382577,-0.04978677,-0.01350521,0.03992244,0.01986990,-0.05977595,0.08310746,-0.07710145,0.03019759,0.04398663,0.07457042,0.07712137,0.03015492,0.06921633,0.06478108,-0.01095419,0.05750778,0.01539678,-0.08034134,0.06416801,-0.04013294,0.01128087,0.00561034,-0.02478543,-0.03359510,-0.07668954,-0.07190542,0.02113378,-0.00946744,-0.05990994,0.01643927,-0.06040787,0.00130418,0.04969900,-0.00390729,0.03999310,0.04373281,0.02162526,-0.02068435,-0.00176405,0.07081930,-0.00391095,-0.01204462,0.02621829,0.03679344,0.06917340,-0.07356722,-0.00429651,0.02261757,-0.05435234,-0.04973666,0.04686789,0.03101530,0.01145468,-0.01936703,0.07305558,-0.03453889,0.08048488,0.02950655,-0.06166529,0.02802041,0.06250726,0.04987593,0.04816576,-0.02541756,0.04087006,-0.00959674,-0.07766175,0.05653697,0.02613690,-0.07772795,0.06706040,0.07660384,-0.03395286,-0.04835148,-0.02806775,0.00151655,0.07169806,-0.03168585,-0.07478775,-0.07236001,-0.01140394,0.06406083,-0.07213912,-0.01560004,0.07799713,0.07404409,0.02134250,0.04249987,-0.01540056,0.01574022,0.07201015,0.05524405,-0.01252690,0.04038691,-0.08093967,-0.01779111,-0.07043874,-0.02110431,0.02993436,0.03923074,-0.04396029,-0.02553043,0.02721830,0.04009639,0.02688077,0.02202788,0.03536076,-0.04423535,-0.07379635,-0.08384777,0.05242709,0.08032534,-0.05242512,0.05266783,0.01927630,-0.04360239,0.03487160,0.01721740,0.03510743,-0.02750993,-0.04642682,0.00145126,-0.02878908,-0.01696987,-0.01155222,-0.04854779,-0.02869043,0.00151099,0.08515941,0.07586384,-0.07818557,0.03917236,0.05199721,-0.02450129,-0.00759390,-0.03429268,0.04312229,-0.04928992,-0.03674101,0.05267813,-0.07944027,0.05165746,0.04005792,0.06718083,0.02254998,0.05030561,0.08063398,-0.04201725,0.05595017,-0.07357359,-0.03651585,0.00161520,0.00114869,0.06302790,-0.02585110,0.06691521,-0.00421369,-0.04765269,0.08123633,0.05551191,0.08314671,-0.06148278,0.06262180,-0.03743839,-0.08000177,0.05401938,0.00264488,0.01795173,0.06314547,0.04719787,0.02534972,-0.01954190,-0.05175869,0.05016244,-0.00828400,0.08292148,-0.07441696,0.02123239,-0.07334452,-0.02362687,-0.02305760,-0.04248716,0.06698434,0.05793155,0.05458321,-0.05860255,0.00508070,-0.00671057,-0.01230616,-0.05361300,0.08389367,0.05342170,-0.02910331,0.01172285,-0.08524515,-0.04071437,0.05876300,0.01350929,0.00343605,-0.06099926,0.07671830,0.07027309,0.02245050,0.00192943,-0.08066132,0.03174018,0.00822496,0.01591367,0.05071362,0.00538857,-0.06327564,-0.04212768,0.08497182,0.08143996,0.00141218,0.02010405,-0.00975353,-0.07253336,-0.03817752,-0.02105986,-0.01401430,-0.00412853,0.07454785,0.07101871,0.07296179,-0.07826655,0.00191376,-0.03843040,0.07064117,0.05366253,0.05998857,-0.05828790,-0.01256020,-0.05072029,0.01238462,-0.06535085,-0.05357446,0.05766117,-0.06846730,-0.06079186,-0.04538044,0.04606425,-0.06279744,-0.04952376,-0.04097542,0.05960534,-0.05502263,-0.04256209,-0.01422499,-0.07492224,0.07231256,0.04174059,-0.05222597,-0.06031198,-0.00881355,0.01844772,-0.05748028,0.04305346,0.01974024,0.06572502,0.03553119,0.01077463,0.03499325,0.03282467,0.06645956,0.03346889,-0.02934322,-0.02314437,0.06776707,0.06313218,0.00223771,-0.05283045,-0.04790970,0.01199331,-0.08342984,-0.03801045,0.02132111,-0.04056464,-0.00596844,0.03303058,-0.05922979,0.01474065,-0.04808712,-0.01648229,-0.08524328,-0.06105439,0.03331880,-0.06524058,0.03515384,0.01577133,-0.03892200,-0.01675957,-0.02630090,-0.03673409,-0.04437834,0.00275624,-0.07332275,-0.07691354,0.05768559,-0.04966744,0.08107080,-0.02770703,0.01659504,-0.02130287,-0.03165082,-0.02926980,0.02420820,-0.08206972,0.02764239,0.06038541,-0.06653737,0.01051829,-0.04732419,0.07987381,0.01796222,-0.05671798,-0.06877452],[0.04178596,-0.01302398,-0.03360426,-0.00307744,-0.01523048,0.01943939,0.06016090,-0.00520876,0.05551807,-0.07398922,0.08307386,-0.02681625,-0.03388123,0.07206816,0.02222157,-0.05086317,0.01267394,-0.00519959,0.04421442,-0.05786109,0.04008149,0.06437718,0.02159940,-0.00018059,0.04386223,0.03610742,0.06818075,-0.04813325,-0.05287990,-0.04664614,0.03933129,-0.06990591,0.07320481,-0.07762755,-0.05708265,-0.07293051,-0.03327458,0.01949140,-0.06723986,-0.06100059,0.04808856,-0.00681309,0.02844895,0.04280774,0.06605770,-0.02488751,0.08202402,0.02176803,0.03940680,-0.00987030,0.03517962,0.00986807,0.07769788,0.06261050,-0.06000761,0.00205357,-0.00190171,-0.07858677,-0.05473113,0.00193875,0.03056081,-0.06630610,-0.02432857,-0.01457710,0.08446785,-0.04761704,0.00239433,-0.00416198,0.03151181,-0.00342662,0.06088998,0.07007904,-0.08330888,0.06914164,0.05323407,-0.03292317,0.02005835,0.06179679,-0.08162669,0.00507046,-0.06700299,-0.00962065,0.06088018,0.04932032,-0.05732945,-0.00302490,0.08079789,0.05523189,-0.07796094,0.00089227,0.08001000,0.00138954,-0.04772185,0.05810518,-0.03820394,-0.02455112,-0.02370308,-0.03784083,-0.05989701,0.00712575,0.08246050,-0.03448232,-0.06251828,-0.03538168,0.01363897,0.00744009,0.05972656,0.02075016,0.04098057,0.06328218,-0.00167647,0.04370668,0.03544454,-0.00434761,0.02614874,-0.06420501,-0.02261574,0.05299660,-0.04339999,-0.03175346,0.01620238,-0.02828285,-0.05278042,-0.01119596,-0.00213031,-0.02529984,0.01840063,0.01326684,0.02068015,0.03753650,-0.03574043,0.00786998,-0.00129442,0.04118691,-0.00073883,-0.08281207,-0.03559742,-0.08368945,0.05598833,-0.08298308,-0.07883687,0.04844467,-0.01959837,-0.08023156,-0.07824969,-0.06927796,0.01408688,0.06554427,-0.03814194,-0.08290343,0.07156510,-0.02267817,-0.07457966,0.07679955,0.05406669,-0.00460327,0.02410393,0.07465843,-0.02696665,0.01955832,0.05568768,0.00543838,-0.02324839,-0.01668169,0.02263484,-0.07679445,0.00518634,-0.00985525,-0.07283884,-0.00516644,-0.07438452,0.04134201,0.08481076,-0.08315124,-0.02725534,0.00862370,0.06601623,-0.06137262,-0.02387176,0.07433566,-0.06665847,-0.08384499,-0.08198659,-0.00519357,-0.06022462,-0.01287743,-0.06323494,-0.04994531,-0.04007346,0.06417818,-0.01324103,-0.02373948,0.05810246,0.08283053,-0.01767621,0.03365296,-0.03984560,-0.04728118,0.05702726,-0.08105229,-0.08378393,-0.03985214,-0.00658967,-0.05534907,0.01234396,-0.08146773,0.06096094,-0.05303444,0.08465181,-0.04895132,0.03526924,-0.01341840,0.01000791,0.03114473,0.07109556,0.08250981,0.04564498,0.02582941,-0.04069183,-0.02071550,0.03602838,-0.01364535,-0.03159688,-0.07803363,-0.04622257,-0.02750820,0.08424889,-0.02465532,0.04482197,-0.00441499,0.00818170,-0.03121107,0.07039494,0.00818759,0.02893293,-0.02649009,-0.08351124,0.02323630,0.04498738,-0.04520988,0.06101020,-0.05129898,-0.08342753,-0.00513404,-0.07342652,0.01510681,-0.03905462,-0.06359932,-0.07348856,-0.02839487,-0.01240955,0.05969333,0.01104685,-0.00819813,-0.06061003,0.01222399,-0.01243541,0.03867897,0.05166636,-0.01702288,0.03355465,-0.04822573,-0.01336421,0.03561406,0.04578582,0.02034924,0.05303970,-0.06323922,0.06459558,-0.05041661,0.00710182,0.00293951,-0.03179504,-0.02368245,0.05029638,-0.02875471,0.01902538,-0.03968926,-0.03866079,0.03209316,0.00465032,-0.02777630,0.00103980,-0.01673294,-0.06711815,0.02647601,-0.06514987,0.00283922,0.02629797,-0.07264837,-0.00293353,-0.07738046,0.05328236,-0.07026028,0.03682292,-0.02515534,-0.07694460,-0.06683378,-0.02476418,-0.04224595,-0.05015504,0.04204671,0.02381192,-0.06038501,-0.06509524,0.02186791,0.01998627,-0.07139869,0.08422024,-0.00641701,0.06126521,-0.05705933,0.00546674,-0.03388452,-0.08294787,0.02789915,-0.05742399,-0.00182845,-0.06757320,-0.06159792,0.01044034,-0.00698462,-0.03079322,-0.04018844,-0.00487838,-0.07751076,-0.06110614,-0.04541042,-0.08059621,-0.01577122,0.01406087,0.02305990,0.05628490,0.06201246,-0.04820022,-0.02901087,-0.04902377,0.05821035,0.01924440,-0.01409946,-0.07337592,-0.01035767,0.07983951,0.06975041,-0.06430636,-0.00895431,0.02723392,0.00722883,0.02240527,-0.00940757,-0.00467032,0.04260509,0.05359717,-0.08023036,-0.03010179,-0.06054845,-0.01012411,-0.03661946,0.07965562,0.07896007,0.02354397,-0.02273082,-0.07967934,0.06252661,-0.03936458,-0.05555942,-0.02961789,-0.07377131,0.00528804,0.06618946,0.05010080,-0.00545375,0.00617742,0.03872922,0.01926960,0.00669486,-0.07532395,0.08204851,-0.02032568,0.06356977,0.06553575,-0.02625480,0.06608772,0.00738671,-0.01950274,0.01624677,-0.02663416,0.02507718,-0.02101748,-0.05082801,0.01752707,0.05308504,0.03148325,0.02656934,-0.02737065,0.04744626,0.03295099,0.08517215,-0.07160518,0.06853428,0.02006291,0.07316396,0.04279727,-0.07315192,0.03096592,0.04704613,-0.02457490,-0.02705157,-0.01474828,0.00161243,0.07169515,-0.01825809,0.03003455,0.05773279,-0.04321376,-0.00226367,0.01304864,-0.05508624,0.05452584,-0.07945038,0.02279364,0.04982195,-0.04903924,0.00685339,-0.04455835,-0.08288962,0.07963151,-0.01008351,0.05991504,-0.01516292,-0.04158413,0.08338942,0.01480258,0.03380417,0.00870173,-0.00059785,-0.06747767,0.01942209,0.01446804,0.06801936,-0.01279342,-0.01830324,0.03424715,0.04333156,-0.03857439,-0.03855820,0.00717419,0.03200779,0.06499440,0.06653736,0.01009851,-0.08403520,0.03894131,0.02993107,-0.05347313,0.00056434,0.03997977,-0.02354128,-0.04558700,-0.01941198,-0.02904158,-0.03142224,-0.02936680,0.00455758,0.04541032,0.01368624,-0.02790393,-0.00101196,-0.06750572,-0.07338203,0.02046511,-0.00613430,-0.03488556,-0.02151191,-0.08429509,0.06446465,0.07015588,-0.06904602,-0.08117869,-0.01869781,0.03550962,0.03266816,0.05038562,-0.00810752,-0.02335633,0.01119759,-0.03292627,0.06035054,0.02014193,0.00757018,-0.00956803,0.06317478,0.03440180,0.06035385,-0.05220389,-0.03567949,-0.00502535,0.02161787,-0.04936980,0.04952151,0.02833148,-0.08358386,0.04001058,0.01706886,0.07739671,0.00251877,0.08540582,-0.01031544,0.00855430,-0.01864910,0.07523905,0.03440300,-0.04709518,0.02945094,-0.07685976,0.00326467,0.06652339,0.01614711,-0.08470927,-0.01280489,-0.01454495,-0.02693160,0.03193583,0.08120165,0.02991646,0.07083125,0.04994464,0.01356824,-0.08290354,0.05163040,0.02188958,-0.04720086,0.06429791,-0.05448375,-0.08396611,-0.07017650,0.03715688,-0.05559044,0.02503479,0.05345384,-0.04981826,-0.00324106,-0.01030656,-0.06779587,-0.06110961,-0.04875709,-0.03285856,0.03219366,0.04482362,-0.00591166,0.07169112,-0.02736720,0.00201122,0.05061951,-0.02561843,-0.07826807,-0.07292565,0.02361382,0.04463465,-0.05830385,0.06569137,0.07882101,0.06285127,-0.07760428,-0.05690828,0.06837852,-0.01521602,0.02868222,-0.02570506,-0.08077959,0.05473243,0.05857020,0.01212358,0.07298896,0.02587211,-0.08321124,0.02149737,-0.06767485,0.06543212,0.02202873,0.06752785,0.05428491,-0.04018478,0.06758099,0.01232003,-0.02284961,-0.02379566,0.02510336,-0.03460167,-0.07056668,-0.05124601,-0.06685068,-0.01199917,0.02291452,0.07842025,0.08271665,-0.07861710,0.08379261,0.00063652,0.03603112,0.07991471,0.07454943,-0.02693221,0.01825605,-0.06370854,0.05552968,-0.03169987,0.01923055,0.07698333,0.08299775,-0.08118743,-0.00692029,-0.00077769,0.06758214,-0.05850398,-0.04670502,-0.03251388,-0.02495167,0.00695483,0.07391640,0.03874292,0.07589456,0.02333794,-0.05787147,0.02920510,0.00703267,0.01254460,-0.05880043,-0.01260995,0.01142240,0.00679729,0.04549671,-0.07514954,-0.04904254,0.08104842,0.02327862,0.07975858,-0.05555402,0.03608647,0.06839272,-0.01562002,-0.05822531,-0.02049813,-0.03415440,-0.01450826,-0.06238386,0.07425752,0.01473826,-0.04830847,-0.05514251,-0.03689301,-0.08495546,0.04174238,-0.03490132,0.04175002,0.01742501,-0.07681293,0.04790622,-0.04568980,-0.03018307,0.03201130,-0.01247097,-0.00620158,-0.02084411,-0.07483772,-0.05879943,-0.06651005,0.03350829,0.08097518,0.03607178,-0.06187512,-0.00958118,0.01155437,-0.00933662,-0.04642120,-0.03795552,0.02612291,0.03988019,-0.07008111,0.04404976,-0.05002076,-0.08412893,-0.08536370,0.02920370,0.07931519,0.02579449,0.03328991,-0.01391223,0.05042655,-0.07617382,-0.07320418,-0.01702912,0.04572346,0.07436935,-0.06709886,-0.05073779,-0.08324377,-0.01910052,0.05984577,0.03405856,-0.08185767,-0.03006131,-0.07804466,-0.02749332,-0.06070217,0.00244881,-0.00778709,-0.00709712,0.02052852,-0.08487766,-0.02834490,-0.00775901,0.01517320,-0.06792673,0.04941899,0.06564001,-0.02466796,0.06218532,-0.06743074,0.01074231,-0.06674401,-0.01926028,-0.08091068,-0.06237430,-0.00155478,0.01967905,-0.05616099,0.03556286,-0.00938982,-0.00946574,-0.03846115,-0.07185270,0.08348847,0.05674247,0.01694316,0.02959684,-0.06520371,0.00369273,-0.08287877,-0.07068519,0.00359631,0.07125021,0.05803712,0.06374032,0.06546663,-0.05691126,0.01128361,0.05325995,0.07453417,-0.06438991,-0.05576061,-0.00643105,0.00716831,-0.07048501,-0.01394060,-0.03583121,-0.05122514,-0.01038628,-0.02316656,0.03912462,0.01164685,0.05150912,0.03332952,0.02423201,0.03684162,-0.00583560,-0.04667819,0.00048786,0.02048527,-0.06521000,-0.00172998,-0.04432732,-0.00272139,0.00457626,-0.01271246,-0.01422874,0.04553743,0.07719596,0.02194504,-0.05882336,-0.03291980,-0.03712944,0.01222538,0.05523665],[-0.06054209,-0.06366586,0.04800429,0.03346602,0.08377735,0.02596326,0.01171300,-0.08426869,-0.06635636,0.06269640,-0.03325786,0.03479743,-0.03056230,-0.03667697,-0.00059415,0.07547409,0.05813574,0.08232420,-0.04753751,0.08072308,-0.08005334,0.07413159,0.00501972,-0.05431024,0.04837582,0.03196283,-0.02255959,0.06310197,-0.00705124,-0.07947368,-0.00554957,-0.04671899,-0.05740163,-0.04667244,-0.05111095,0.02452275,-0.02848532,0.02454099,0.01032495,0.08571219,-0.06930120,-0.06604941,0.03682373,-0.02853804,0.06803361,-0.01405995,-0.03828102,-0.00495672,0.00841852,-0.07111187,-0.08572923,0.07876968,-0.02236760,0.06351145,-0.03375650,0.05365641,0.02505270,-0.01324718,0.07956634,0.01198830,0.05866956,0.01278908,0.06256444,-0.02375679,0.02102206,-0.02196793,-0.04981281,0.02011378,-0.05436236,-0.08147313,0.03367728,0.08088103,-0.00958785,0.05101648,0.03882417,-0.03352248,0.03397670,-0.02972350,-0.03868229,-0.07891689,0.01559139,0.05542722,-0.07107539,0.05494326,0.07058639,0.06312705,0.05787712,0.05818973,0.08393357,0.08252314,0.07592014,-0.06749202,-0.03711287,-0.08089933,0.03616095,-0.05538153,-0.04976673,0.08566783,-0.05714500,-0.03756903,0.08252601,-0.05964221,0.03918079,-0.00879947,-0.01623785,-0.01942660,0.07226828,0.06902187,-0.04751013,0.01541201,0.01539980,-0.04919042,-0.05556320,-0.08214664,-0.01757270,0.05861410,-0.02831431,-0.06234515,-0.05941221,-0.05274152,0.06691147,-0.08266071,0.07462431,-0.00196762,0.05881518,0.04658478,-0.00671627,-0.05090170,0.02167416,-0.04433355,-0.02838755,-0.01246335,-0.03497006,-0.07642978,0.00286806,-0.02673713,0.04233790,0.07024733,0.01175379,-0.08383134,0.03927907,-0.03144316,0.02186930,-0.02998029,0.05556487,-0.03601955,0.01001518,-0.01566507,-0.07181657,0.07108913,0.00738863,0.02516383,0.01499887,-0.05448676,-0.07020911,0.05984393,0.02989221,-0.02024726,0.04217058,0.03176459,0.01334060,0.05399157,0.02230565,-0.06241794,0.01155242,0.05704407,-0.01861775,-0.00949290,-0.01746046,0.04643904,0.02006022,-0.00008892,0.06486538,0.04180831,0.04128355,-0.02294401,0.02775664,0.06562312,-0.01678654,0.05338722,-0.07175596,-0.05248231,-0.00144385,-0.07048347,0.04055060,0.01047406,-0.05803871,0.05985660,-0.00074779,0.03371916,-0.01260199,0.00478731,-0.00789775,-0.04649866,0.05689757,-0.08375522,-0.05306850,-0.01222141,0.04947085,-0.03664795,0.04453077,-0.08079941,0.08255552,-0.02199262,0.00878190,-0.02758081,0.03708007,0.05747525,0.06953695,0.00638122,-0.02024425,0.01444636,0.04379212,-0.03636688,-0.00139250,0.04304439,-0.08543464,0.07805224,0.00390906,-0.07010517,0.06197253,0.05831872,-0.01828910,-0.04673257,-0.04233681,-0.08426930,0.08484047,0.05389669,-0.04629517,-0.05640002,0.08387385,-0.06620968,0.03767926,0.06422699,0.01093414,-0.06598984,0.04486404,-0.04962268,0.03273723,0.01568023,-0.03745816,0.06514992,-0.04777583,0.03723639,-0.05919831,-0.00043195,-0.05565314,-0.07901923,0.04024736,0.00181826,0.01977130,-0.01527565,0.08205856,-0.06183382,0.01440835,0.01782903,0.08056278,0.07985429,-0.07746635,-0.04524935,-0.01302410,0.06605340,-0.08278810,-0.03773977,0.06020764,-0.06996477,0.03781850,0.06742601,-0.05703239,0.05948775,-0.01452119,0.03618979,-0.00658541,-0.03556939,-0.02838051,0.05338062,0.02017895,-0.08249016,0.06474058,0.07208692,-0.03350258,0.04418807,-0.04627087,-0.02144528,-0.02004275,-0.07046470,0.06168172,0.02839445,-0.01998412,-0.06888255,-0.08127846,-0.01225308,0.01527668,-0.08218461,-0.00054064,0.01354838,-0.06490685,-0.06103433,0.02459887,-0.08071559,-0.03826129,0.01639677,0.06309340,0.04640182,0.01768568,-0.05575766,-0.04719383,0.05525180,-0.07695240,-0.02077671,-0.04186877,0.03099154,0.08129910,-0.01025879,0.04890466,0.04252607,-0.01955904,0.01690735,-0.02793369,0.05662525,-0.01574244,-0.02931748,0.01647088,0.06878257,-0.08505529,-0.00385720,0.02962516,-0.03938840,-0.04114104,0.07477940,0.00547892,0.01030940,0.01715370,-0.01533187,0.03133572,0.04364680,0.07186348,-0.00212868,-0.04820462,0.05693778,0.05691723,-0.07494961,0.08254027,-0.06227784,-0.02617173,0.07284395,-0.05141534,-0.05316471,0.00478708,0.01971746,-0.01188480,0.02195664,0.02207268,-0.01102458,0.00743117,-0.05599552,0.03128408,-0.06726624,0.05135934,-0.03198046,-0.05475740,0.04046375,0.03767002,0.08130064,0.06747877,0.04065569,-0.00893355,-0.08080956,0.00296074,0.03225178,-0.03602341,-0.05750844,-0.07689674,-0.02318073,0.04500750,0.04659880,0.00413449,-0.02733844,-0.00690604,0.07833111,-0.03961142,0.05993478,0.00212170,0.01010182,-0.05175585,-0.05371759,-0.00920640,0.07966574,-0.05496620,-0.08306099,-0.04969509,-0.08094358,-0.02053701,-0.02730247,-0.07582490,-0.04178698,-0.00528613,-0.02712993,-0.01377956,0.00329220,0.07541499,-0.08244167,0.06350054,0.00455176,-0.03484518,-0.03812528,-0.01826314,-0.00060320,-0.00129212,0.04440486,0.04800504,0.00040412,0.00533378,0.00914088,0.03468792,0.01649621,-0.04347713,-0.00801370,0.02306399,-0.07925230,-0.03335483,-0.00293235,-0.08050653,-0.07694861,0.07295753,0.04087737,-0.01755953,-0.04529490,0.02040007,-0.03074840,0.06479787,0.01809697,-0.05459348,0.06454383,0.06399652,0.02191613,0.01735967,0.02655277,-0.01096803,-0.00291493,0.06647747,0.05883875,0.06020544,-0.00941060,0.05984117,0.01025286,0.06447387,0.04987361,-0.02714706,0.06817735,0.08516520,0.00343122,0.00148116,-0.00904529,-0.08259765,-0.03199529,-0.04023422,-0.03036884,0.05489136,0.04153264,-0.07525602,-0.06767209,0.07341367,0.01806079,-0.02970069,0.04251152,0.01141489,0.03828919,0.03678655,-0.05450998,0.01874875,-0.02919703,0.01417559,0.05441079,0.00938348,0.02163477,0.00766644,-0.07276706,-0.04429815,0.07441656,-0.07696545,-0.02757526,-0.07732800,-0.07032479,-0.05807418,0.01729938,-0.04330728,0.04213149,0.03045639,-0.02019681,0.04515799,0.04659237,0.06600687,0.06440774,0.00649213,-0.05527947,-0.06653813,0.02323274,0.02995067,-0.08097074,-0.04556096,-0.01581870,0.07631121,-0.03589731,0.05730652,-0.03081005,-0.04710998,-0.02277086,-0.08303437,0.04772854,0.06363793,-0.04379462,-0.06804477,-0.07684848,0.00046741,0.08020701,0.01220560,-0.04657361,-0.05184132,-0.04809421,0.03667919,0.02481293,0.07209290,0.03061359,0.05968354,0.01115494,-0.04685035,-0.06627798,0.02723798,0.03430184,0.07457111,-0.07924697,0.04376357,0.03242207,-0.02972053,-0.02963177,-0.07202280,0.06408752,-0.05665030,-0.06448852,-0.07359549,-0.08208708,0.07711896,0.05932484,-0.06096324,-0.04525244,-0.07843200,0.03154218,-0.00526543,-0.07044508,0.00279796,-0.01804530,0.03082447,0.04448207,-0.07389453,0.03910934,-0.01624270,-0.03154900,0.08203060,-0.07524578,0.02377234,-0.07087198,0.05379865,-0.05418617,-0.07814674,0.03144611,0.01244755,0.05420450,-0.00888916,0.06996470,-0.00477719,-0.05229241,0.02617691,-0.05120286,-0.01195378,-0.06588539,-0.03110885,0.05111984,0.05718525,0.07807687,0.03537486,0.03002456,-0.04311384,-0.04698543,-0.07375783,0.06739316,0.05867208,-0.08032704,0.00361408,-0.05093601,0.06173567,-0.03328536,-0.07411227,0.00862102,-0.08537856,0.02979665,0.06118216,-0.06076334,0.04412019,-0.00268813,-0.01364349,-0.04011090,0.06788891,0.04692397,-0.01761681,-0.03118519,0.08303447,0.05540712,-0.05632131,0.03210273,0.04348841,0.07295901,0.04818100,-0.06967656,-0.06715372,0.05097223,-0.08390516,-0.00416601,-0.01381957,0.07093810,0.05839255,0.02030326,0.01969030,-0.07170704,0.05487486,0.00839705,-0.03298877,0.06162876,0.04689277,-0.01330598,0.01160508,-0.02557527,0.03452806,-0.08367450,0.00777866,-0.02624374,-0.01645254,0.06726223,-0.00329857,0.08431438,0.08272795,0.01318786,0.01927124,0.08218790,0.03239700,0.02937824,-0.00532635,0.00542835,0.01828110,-0.05784274,0.06962363,-0.06486525,0.00369356,0.00799732,-0.05980523,-0.08567850,-0.00306684,-0.01536395,0.05517817,0.03118940,-0.06866428,-0.07815628,0.05737980,0.04511109,0.00206417,0.00758530,0.08077399,0.06463983,0.06997029,0.05559365,-0.08118885,-0.04281242,0.03911451,-0.05259626,-0.02386120,0.04164953,-0.03199987,-0.01451674,0.04233029,-0.06956046,0.03009555,0.05875263,0.08384353,0.01164418,-0.00079772,-0.04392841,0.01529904,0.00350284,-0.01384716,0.08548331,0.00423315,0.03249138,0.07708128,-0.03999636,0.03437015,0.03123251,0.06695016,-0.08137327,0.06493021,-0.06030098,0.03492030,-0.00321828,-0.06298801,-0.06247724,-0.01606838,0.02180216,-0.04278534,0.01122326,0.00213775,-0.03309114,-0.00094570,0.04057428,0.03615420,-0.00746017,0.08571377,0.07271909,-0.03470639,-0.02243540,0.08309963,-0.00357858,-0.04524066,-0.01440353,0.07421369,0.02953448,-0.01614014,0.00471408,-0.02303945,-0.06242084,0.04711548,-0.02767963,-0.07067858,-0.03394885,-0.06118286,-0.08335415,0.02044473,0.03981171,-0.03642538,-0.02393629,-0.07728668,-0.01852325,-0.04253190,0.02779155,0.04670801,-0.03947248,-0.05942232,0.03054241,-0.02119724,0.03446438,-0.07270424,0.05711732,-0.04367641,0.08567175,0.06285880,-0.01989184,-0.07084937,0.02280165,-0.05829198,0.08218085,-0.08206432,-0.00170819,-0.08445451,0.08235254,0.01505753,0.02251612,-0.02970959,0.06103673,-0.02005532,-0.03326499,0.03403341,-0.03137534,0.07544618,0.04287135,-0.04946698,0.04204454,-0.08071339,-0.00381836,-0.04382596,-0.06268288,-0.02765832,0.02182576,-0.08384480,0.06786136,0.03038565,0.02210727],[-0.03271065,0.07903349,-0.00224800,-0.05420500,0.04475241,-0.06558160,-0.08365998,-0.05296189,-0.00690615,0.08239283,0.02213183,-0.02216139,0.00544885,-0.04030320,-0.04668028,0.07074911,-0.02549447,-0.08026285,0.02621783,-0.00915001,0.02608915,0.00829487,-0.04736098,-0.07272674,0.07013274,0.00028092,0.00474010,-0.04840163,-0.01683826,-0.02104332,-0.00900452,0.03383171,0.04164634,-0.01814396,0.04477192,-0.03304174,-0.04144779,-0.06862479,0.00041824,-0.07211369,-0.04567407,-0.07988225,-0.01401186,-0.05208537,0.00112224,0.05920859,-0.00985724,0.05817967,0.03972500,-0.07938068,-0.07695439,0.07972773,0.01402398,-0.03446770,0.06473767,-0.05019832,0.06011424,-0.06366550,-0.01667926,0.04430973,-0.02090203,0.07438061,0.06854679,-0.08377627,0.01582258,-0.06793274,-0.05077101,0.07791563,-0.03255121,0.00809004,0.01863375,0.03232789,0.06532287,-0.01105772,0.00515340,0.06044868,-0.05584084,-0.03656899,-0.05097200,-0.05030088,0.06889991,-0.04513418,0.00447941,-0.08407061,0.07982541,-0.08340253,0.01684463,-0.02009879,-0.04762864,0.04481459,-0.02684135,0.01518642,-0.04381583,0.02359712,0.08527119,0.05856950,-0.05122524,-0.05808836,-0.08229971,-0.05267932,0.02968144,0.00365470,0.07951283,0.01739210,0.02060682,-0.02503315,-0.01860600,-0.07039867,0.07131424,-0.02755372,-0.03938184,0.03233110,0.04774816,0.06837363,-0.02636041,0.04964460,-0.07303842,-0.05553212,0.05047638,-0.00882480,0.04555132,-0.04578270,-0.07935327,-0.02448330,0.02363468,0.05925313,-0.07913037,-0.05959571,0.07944281,-0.04942189,0.02155364,-0.06727745,-0.01365035,-0.03559218,-0.03450624,-0.04979131,-0.00195102,0.06169260,0.07341503,0.02107269,0.07478996,-0.00527496,-0.03856869,0.04287808,-0.02062073,0.03487772,-0.07647425,-0.05737965,0.04242926,-0.06997637,-0.03443433,-0.07775717,0.01967576,-0.00921983,0.02007649,-0.02886252,0.05292743,0.00030400,-0.03327294,-0.02720746,-0.08155032,0.00443396,-0.01500968,-0.05407347,-0.03307310,-0.01467149,0.03000647,0.04296393,0.03138611,0.00262769,0.00028722,-0.00366430,-0.05987139,-0.06763479,0.08360270,-0.01842939,0.01645973,-0.03835869,0.03913959,-0.01640481,-0.05611891,-0.05647381,-0.06221882,-0.02116258,0.02937846,-0.02109659,0.04638007,0.06488265,-0.02561574,0.05999706,-0.08332221,0.00419311,0.02984540,-0.05533705,0.08308200,-0.01834477,0.07358398,0.05839840,-0.03079597,0.06356818,-0.03082922,0.05707505,0.06396116,0.04748369,-0.03388384,-0.02659560,-0.05783533,-0.08183437,0.06578331,-0.07780848,0.01713199,-0.01941086,0.04333760,0.00412250,0.04881872,0.06931632,0.06004389,0.06903058,-0.02884988,-0.05322393,-0.00157816,0.01283298,-0.06895489,0.04883354,-0.05602043,-0.07187582,-0.02293750,-0.06194215,-0.03048413,0.05258628,-0.02838814,-0.08378127,0.07800549,-0.01842643,-0.03989447,0.04419974,0.04671769,-0.00166896,-0.05126066,0.00122893,0.07303143,-0.03220224,0.03544248,0.05250913,-0.00902985,0.05917129,-0.03989540,0.08068435,-0.04445211,0.08542086,-0.03085024,-0.03041086,-0.04878088,0.00900415,-0.00442433,0.02071909,-0.00057074,-0.08059384,-0.02868698,0.03701800,-0.07856879,-0.04647235,0.04287360,-0.07118089,0.03684096,0.03769750,-0.08396646,-0.00119768,-0.00403722,-0.07587976,0.03028648,0.07585668,-0.00338810,-0.05059168,-0.03618429,-0.01243096,-0.04463588,-0.00834420,-0.00754736,0.08193771,0.00481031,-0.02235890,0.01321898,0.07219178,-0.03256452,-0.05417899,0.02960154,-0.01310538,0.01047639,0.07948098,0.03508932,-0.03879466,-0.01975541,-0.08085770,-0.07792182,0.01792913,-0.08360311,0.05015615,0.04086176,0.04749965,0.05822281,-0.03400468,-0.07145116,0.03309898,0.06834426,-0.00531785,0.05332199,0.08521631,-0.02991705,0.00809705,-0.03788957,0.04833084,-0.03163207,-0.03555922,0.08517525,0.04786829,0.03247391,0.03193044,0.05746687,-0.07070957,-0.01764781,-0.06455822,0.04020119,-0.03604258,0.05437103,-0.01280755,-0.01525567,-0.00888260,-0.06778072,-0.05316865,-0.02752311,-0.04007353,0.03617620,-0.08386565,0.05586555,-0.02430226,-0.07594429,0.00827940,-0.04872832,0.01029326,-0.06613934,0.05308113,0.02622621,-0.05380006,-0.06096727,-0.07831445,0.04092629,-0.04832543,0.05850598,0.07006385,0.03826058,-0.01438538,-0.03787120,0.02928405,-0.07478040,0.01792377,0.03980235,0.00553467,0.08063736,-0.00287115,0.01967753,-0.05772885,0.04997054,-0.00550333,0.08499026,-0.00032613,0.02715403,-0.02862515,-0.02679792,0.03559180,0.05378246,0.02016094,0.04085658,-0.01205921,-0.05182200,-0.05428792,-0.04675083,0.08231956,-0.06094391,0.00295138,-0.08596687,0.00172428,0.08431034,-0.03403977,0.04607028,-0.08411139,0.05292843,0.05375934,-0.00034030,0.01012556,-0.03628059,0.03099525,-0.06332578,0.07201945,0.05262049,0.05634869,0.06344564,0.00274854,-0.02064611,-0.05094429,-0.04077421,-0.03361470,0.02360927,-0.08502904,-0.05626270,0.05948661,0.00228424,0.07799944,0.05763488,-0.00656340,-0.08097541,0.06328622,-0.03679420,0.06955243,-0.01063358,-0.04629914,0.03401583,-0.05521013,-0.06004750,0.04105520,-0.04317485,0.04108190,0.00408634,-0.02374893,-0.02440096,-0.06147292,0.07318741,0.06532430,0.00907135,0.00374150,0.05917920,-0.05699480,0.07146187,-0.05212339,-0.00075450,-0.07417819,0.01600005,-0.02320165,-0.05876341,-0.04084664,0.04394896,-0.07083382,0.03080980,0.02044521,-0.03427522,-0.02797583,0.00062046,0.04038287,0.00603797,-0.01473834,0.06102755,0.03491181,-0.04038616,-0.04353424,-0.01373639,-0.04320906,-0.00791796,-0.07878061,0.06520043,-0.01913932,-0.05824737,0.03076597,0.06329902,0.07377236,-0.03574355,-0.04907133,-0.08334240,0.02808794,0.05291649,-0.03533086,-0.00535955,0.00027491,0.04033323,-0.06840459,0.01988016,0.05825792,-0.06535465,-0.04646225,-0.04949711,-0.02309078,0.04642864,-0.06424101,0.05631460,-0.07910729,0.05074465,-0.03298593,-0.03584654,-0.00111961,0.06519274,0.08115800,0.05994715,0.07669945,0.00217613,0.00182561,0.00774352,-0.05879110,-0.07999476,0.06061912,-0.00529785,-0.03562325,-0.02713400,0.03076462,0.04139832,-0.06783567,0.07747879,-0.06177872,-0.07884940,-0.02933006,-0.00942733,0.01103897,0.00146974,-0.01318994,-0.05934541,-0.03896008,0.04488466,-0.01200477,-0.00480751,-0.04573364,-0.05836967,-0.07898839,-0.06517928,0.03619098,-0.02525152,0.02064113,-0.00470757,0.02681232,-0.05856550,0.04121975,-0.08257271,-0.04396227,0.05487237,-0.02330140,0.05430574,0.05311611,-0.02568927,-0.01870817,0.08269142,0.04962554,0.03377318,-0.05875432,-0.06287946,0.00791497,-0.06391860,-0.01271000,-0.04501807,0.00026259,-0.02807967,-0.02701643,-0.06916387,0.00731136,0.01676698,-0.06032889,-0.02457662,0.05022594,-0.01743880,0.00153875,-0.04918937,0.03883186,-0.02443642,-0.07689817,0.07485908,0.06148658,0.01047989,0.04714824,-0.01502274,0.02978460,0.03006483,0.02079369,0.06504148,0.01322001,0.04190382,-0.05693153,0.01329878,-0.03688774,0.01771965,0.04979747,-0.06687695,-0.05791347,-0.03190115,-0.04882123,0.02000947,0.04800721,0.07743142,-0.04131287,0.08171212,-0.01473211,0.05922670,0.00969984,0.04728862,-0.00674414,0.03956329,0.04591986,-0.05016967,-0.08476977,-0.07475879,0.03434603,0.01450577,-0.06713407,0.02396514,0.04080090,0.04921103,-0.06489342,-0.02495275,0.06251658,-0.02786828,0.07042776,-0.07248311,-0.07156783,-0.00765833,-0.01477385,0.06321204,0.03432699,0.06649090,-0.01793335,0.02317750,0.03421388,-0.02228863,0.03093405,-0.02481272,0.06740882,0.07229694,0.08246409,0.00034592,-0.02995679,0.02882211,0.03137754,-0.02180084,-0.01684623,-0.01936021,0.03813614,-0.08228582,0.07355583,-0.03389893,-0.00893337,-0.05228195,0.05909307,0.04395350,-0.00913385,-0.07298502,-0.03471098,0.04632447,0.02642178,-0.04280569,0.07428590,0.04587487,-0.07102808,-0.05492280,-0.08347752,0.02991895,-0.00918103,0.01390212,0.07138246,-0.05055619,0.04782341,0.05184001,0.07004452,0.00300965,-0.08062331,0.01607358,0.04581152,0.06041323,-0.07714685,0.00813054,0.03567929,0.07812602,0.08003647,-0.06309962,0.01951483,0.07513057,-0.06016392,0.08325831,0.01178899,-0.07175624,0.01743894,-0.05652217,-0.05846338,-0.07980896,0.00183908,0.05185357,-0.00455144,-0.02435234,0.06433433,-0.02919509,-0.05970651,0.05511191,0.07130627,0.07044861,-0.07394645,-0.03556073,-0.02340659,-0.03002879,-0.01181757,-0.06134836,0.03829947,-0.06576549,-0.05887303,-0.01804774,-0.01785171,-0.05345986,-0.03129348,-0.07354145,-0.02950666,0.08088373,-0.03114275,-0.04963017,-0.08505134,0.05585806,0.08418891,0.00854097,-0.01961349,0.03851996,0.07484809,0.06342046,-0.01196722,-0.07439280,-0.00075584,0.04503852,-0.03557318,-0.01252511,0.06426235,-0.02997730,0.07148432,-0.07323834,-0.02564791,-0.05538510,0.05736845,0.01285970,0.00842658,0.04530954,0.06651851,-0.03455325,0.07185145,-0.06219713,-0.03473411,0.01511562,-0.01271963,0.02046532,0.06963786,0.04821186,0.00465875,-0.02511371,0.08216288,-0.05732935,-0.05575884,-0.05527692,-0.07948841,-0.03829865,-0.02074727,0.02356566,0.00495032,-0.06913933,0.00637739,-0.03590290,0.03943188,-0.03461305,0.07858961,0.03478584,-0.00831878,0.08251297,-0.06509642,-0.07237415,-0.01070140,-0.02162796,0.05077300,-0.02802005,-0.01157024,0.04731167,-0.00450943,0.03755619,-0.01439474,0.06105564,-0.07190388,-0.03267058,-0.08464016,0.05063321,-0.03539314,0.02766310,0.07283119,0.07869685,-0.06053916,-0.08396628,0.01122501,-0.05280323,0.00431169],[0.03032337,0.03305388,-0.04187305,0.00863907,0.07100739,-0.00680704,-0.06841023,0.00454142,0.00049236,0.05098914,-0.00591842,-0.06257778,-0.00597674,-0.08273982,0.05644383,-0.00725473,0.06284533,0.04914952,0.07658815,-0.04379736,-0.04166639,0.04290899,0.06710180,-0.05647754,-0.02600542,0.05669179,-0.06838383,-0.05774411,0.02247013,0.00162448,0.08248062,0.04240689,0.03701164,-0.08145820,0.00212495,0.05384981,0.05091239,-0.06215502,-0.08381447,-0.00366362,-0.01718131,-0.01707229,0.01279294,0.02596460,-0.05251275,0.06659592,-0.07002594,-0.02548662,-0.03752770,0.05516126,-0.05914449,-0.00782701,0.05184094,0.07315291,-0.07811685,-0.06680928,0.04268401,-0.08071900,-0.01264711,0.05810124,0.04361591,0.06261473,-0.01408054,0.01525872,0.08370847,0.03865948,0.00247703,-0.08161269,0.08228622,-0.00769947,0.03015345,0.00959373,-0.02377443,-0.03664635,0.00477759,-0.07462702,-0.05030169,-0.01919430,-0.01680734,0.00052873,0.04691681,0.00175422,0.04049320,0.00548089,0.00271919,0.06548803,0.07538839,0.06644816,-0.06930484,-0.06337462,0.06457407,-0.01038396,0.08183671,0.02001719,-0.08457042,-0.04106247,-0.03416323,-0.05955516,0.07964689,-0.05249021,0.08381242,-0.07888658,-0.06522571,0.06880438,0.04743543,0.04594599,-0.06367473,0.01038788,0.01358707,-0.04836597,-0.08403204,0.01566700,0.06490920,0.00594579,0.07388412,0.01917930,0.04883064,-0.04759059,0.00477789,0.00494559,0.02692482,-0.06936455,-0.07307796,-0.00238386,-0.07156162,0.06609403,0.03528163,-0.05395321,-0.02481790,0.01607607,-0.06518549,0.00928174,0.07918292,-0.06861445,-0.00652333,-0.05781923,-0.05621117,-0.04634744,0.03594746,-0.08568042,0.03233097,-0.02087844,0.07594381,0.07229807,-0.07392631,0.02279325,-0.01932547,0.08487483,0.03394017,-0.06782527,-0.07625362,0.03757826,0.03130569,-0.07705662,0.02977409,0.06338117,0.07282881,0.01852932,0.00257021,-0.01450561,0.00449975,0.00795772,-0.03752688,-0.08537260,-0.05281303,-0.03337804,0.05340613,-0.03236493,0.02304599,-0.02020593,0.05745456,0.06392937,0.04215743,-0.01014499,-0.03088003,0.00007703,-0.00704276,-0.07133500,-0.03514108,0.04467008,-0.03045155,-0.04299041,0.00989852,0.06096426,-0.03627476,0.05099903,0.00305180,0.00257680,0.00125367,0.01802506,0.03359356,-0.04124242,-0.06765766,0.03692835,-0.04027266,-0.03090872,0.04399612,-0.00118069,-0.03180626,-0.07434279,-0.04703206,0.01213164,0.03799190,0.05963708,0.06807746,-0.01233679,0.07725862,-0.07304657,0.08381124,-0.07533724,-0.01364545,-0.00713580,0.08010355,0.01082312,-0.02433462,-0.01884986,-0.01813610,-0.00995802,-0.01320858,0.01326668,-0.07190983,0.06725911,-0.01221015,0.01132004,-0.03938834,0.04473349,0.07554535,-0.04452265,0.01916507,-0.03559846,-0.00527602,-0.03076569,-0.01658762,0.02239675,-0.00668664,0.07887362,0.03120238,0.01155039,-0.04655498,0.02112562,-0.03441133,0.03661424,-0.03996237,-0.06375959,0.00479739,-0.07620598,-0.03373108,0.06598437,-0.07166809,-0.00245052,-0.03565818,-0.08230084,-0.07764073,-0.00031427,-0.02563544,0.04922049,0.07692561,0.00898529,0.03246114,0.04703841,0.00057947,-0.03536022,0.01203434,0.07573114,-0.00350079,0.05617518,0.01753205,-0.07222385,-0.02378698,-0.02476884,-0.05136397,-0.06390604,-0.03720800,0.03932012,-0.00377570,-0.07708842,0.05267363,0.03071152,-0.05699136,0.07798158,-0.07021806,-0.01605141,-0.03095966,0.02597205,-0.06812790,0.00036592,0.00790817,-0.04162953,-0.00436850,-0.02462563,-0.01087720,0.00476468,-0.05238589,-0.03457369,-0.07791321,-0.02330561,0.06783741,0.06601261,0.03935062,-0.05589094,0.06554132,-0.07226241,0.00644905,0.01957034,0.02329749,0.04569856,-0.00800576,-0.01054234,0.06823995,-0.02256086,-0.02613033,-0.01588559,-0.03601543,0.07236453,0.01083688,-0.04890709,-0.03278062,0.07998016,-0.00139893,0.07449047,-0.05713401,-0.02393021,0.05175243,-0.02600549,0.08519998,-0.08094288,0.01169530,0.02466886,0.05341664,-0.08407526,0.07430557,0.05482911,0.03330845,0.02991743,-0.07930530,-0.05653057,0.02888170,0.04326346,0.02238548,-0.07389936,0.00411282,0.04358812,0.01768963,0.02378919,-0.00281150,0.08004326,-0.07137698,0.06580692,-0.04059501,-0.03248185,-0.00672512,-0.02978543,0.03239679,0.07102501,0.08524022,0.05234585,-0.07626620,0.05621246,-0.06098867,-0.06730490,-0.07499693,0.08352103,-0.05580281,-0.07860725,-0.00310225,-0.01775162,-0.03220834,0.02041074,-0.01255555,0.03940810,-0.02090309,-0.02775238,-0.02542944,-0.02161402,0.07134640,-0.00251590,0.04783545,-0.02562863,-0.07786951,-0.06141875,0.03796437,-0.08133028,0.00600560,0.02264131,0.07796513,0.01301505,0.05141308,0.01483878,0.07961393,0.07414364,0.04462010,0.08181364,-0.04494904,0.05760437,0.02836695,0.05138264,-0.05738154,0.07240095,0.05962623,0.01362338,0.03903458,0.00837252,-0.00635291,0.00995656,0.02547338,0.04226637,-0.04382883,-0.03697769,0.02887844,-0.06095000,0.07999049,0.06245900,0.01804718,-0.05635354,0.00366119,-0.01386627,0.01763813,0.05929758,-0.06453668,0.04221580,-0.00580879,-0.04011313,0.06280377,-0.01891010,0.00662540,-0.04689023,0.08234721,0.01233879,-0.01314215,-0.04160325,-0.06465062,0.03774127,-0.05117178,0.02656455,0.00645984,0.00136851,0.07917991,0.02988491,0.02065188,0.02525210,-0.05239142,0.05262090,-0.05815347,0.06332655,-0.00198860,-0.03238547,-0.07851087,0.00117328,-0.08503740,0.00303471,-0.01338884,-0.04437102,-0.01417968,0.06102529,-0.07539862,0.08497491,-0.07243222,-0.03466816,-0.02065728,0.01989666,-0.08517609,0.05052613,0.03153218,0.02208720,-0.07159684,0.02574336,0.07435839,0.03739225,0.00833180,-0.06275193,0.01028097,-0.04658141,-0.00387874,0.06273080,0.07146370,0.04410761,0.05508179,0.08005401,-0.04755410,0.06775425,-0.01040344,-0.01287095,-0.03727964,-0.01286145,-0.00998937,-0.07660154,0.03326417,0.03800797,0.00388012,0.03185632,-0.08352832,-0.05953520,0.05213886,0.03687105,-0.07544432,-0.06365189,0.02444389,0.01020271,0.04783247,0.00568696,0.00135066,0.07829190,0.07166029,0.07494376,0.08051782,-0.04917141,0.00004625,-0.01695777,0.01655655,0.05808359,0.01249180,-0.07182004,-0.02086387,0.05210216,0.00301888,0.08008555,0.00597125,-0.04385471,-0.02378150,-0.07287969,-0.02096133,0.00207603,-0.05265327,-0.04958447,0.08463711,-0.04269927,0.07745281,-0.01849088,0.04601271,0.05706514,-0.03118114,-0.05111457,-0.05008745,0.01748527,0.02987918,-0.02835055,0.04346364,-0.06142136,-0.06601816,-0.01935453,0.04720743,0.03949084,0.07073358,0.01206169,-0.00090045,-0.05486412,-0.04957299,0.01013348,0.00110571,0.04197889,-0.02837607,-0.04389625,-0.02810763,0.08497575,-0.03788409,-0.00026422,0.01187701,-0.05982212,0.06431126,0.04493987,-0.07144505,-0.07426098,-0.06000002,0.04286730,0.05010366,0.00631526,0.00842663,-0.04655062,0.02302441,0.07495993,0.08334869,0.05184759,-0.01681004,0.04588169,0.08021187,-0.04802754,0.04620925,-0.07454994,0.06157541,0.07921714,-0.05464997,0.01046536,-0.06966636,0.03842364,0.04852805,-0.08212528,-0.08542402,0.04262101,-0.04329246,-0.06528127,0.01974298,0.06079344,0.08213019,0.07119199,0.03109211,-0.04617499,0.05395741,0.05335666,0.06917743,-0.06598423,0.02654536,0.06383948,-0.02808979,0.03761512,-0.05793133,-0.04778459,0.07623336,0.06460863,-0.08402316,0.05451655,-0.02303072,0.06429476,-0.07395588,-0.06298445,-0.05772123,0.06981739,0.04282985,-0.07979047,0.04430754,-0.02500756,0.05688046,-0.04231432,0.05341282,0.06405031,-0.02903995,-0.01450499,0.04961900,0.06834018,0.01121461,-0.05740850,0.01415553,0.01956929,-0.00887261,-0.08079778,-0.06184850,0.06227046,-0.03793688,0.04901097,-0.02923335,0.04558732,-0.07778349,0.03887085,-0.02815855,0.06885041,-0.05707240,-0.01643881,0.05301882,-0.00636566,-0.08276860,-0.03720398,-0.02745556,-0.07918236,-0.01984001,0.07173497,0.05931659,0.08542585,0.01104760,-0.07986870,0.03653546,-0.08450477,0.06648063,0.04393577,0.02545812,-0.02540168,0.03399707,-0.00053861,0.03942202,0.04344552,-0.02450599,-0.07848326,-0.05739966,0.01550762,-0.01955687,-0.03860455,-0.07543918,0.01397306,0.06152176,-0.08343419,-0.05776547,0.03611728,-0.03167732,-0.01066513,0.08145352,-0.02970886,0.02026145,-0.06365228,0.04420774,-0.08349575,-0.05843804,-0.06982011,-0.04644127,-0.06752562,0.02495699,-0.03538603,0.08051024,0.05829171,0.01173510,0.04505103,0.03282031,-0.06005535,-0.01513218,0.04048508,-0.04755951,0.03478345,0.06191819,0.01615168,0.06522126,-0.06542225,-0.07797121,-0.00619387,0.07401200,-0.08325299,-0.07997736,-0.01358883,-0.00128690,-0.03619999,-0.04532650,-0.00960133,-0.06983905,0.03840633,-0.03522498,-0.03971944,-0.03083684,-0.02432454,0.04253555,0.04506870,0.05469853,0.02753267,-0.01297712,-0.05732814,-0.01141245,0.01126493,-0.04159591,-0.05343753,-0.01382272,0.04642986,0.00160294,0.01994728,-0.00194242,0.00125560,-0.06913639,0.07673665,0.01825229,0.06238110,-0.02271178,-0.06102598,0.03520571,-0.06415555,-0.08443997,-0.08271531,0.02004625,0.03859954,0.07399864,0.05847535,-0.00562263,0.06653244,-0.04499470,0.03356029,0.06273144,0.01457812,-0.04211336,0.02419349,-0.06440868,-0.04950236,-0.01072948,-0.03913336,-0.03133391,-0.07619103,0.03640981,-0.02983300,-0.07039202,-0.06300640,-0.02927403,0.01626808,0.01056681,0.05417833,-0.08006909,0.03705988,-0.02512025,-0.02210820,0.08206033,-0.05321940,-0.05923485,0.08488210],[0.06011016,0.02510446,0.08346302,-0.05280772,-0.05368684,-0.01885779,-0.01781297,-0.02563165,0.07191410,0.06422398,0.06065542,-0.03662395,-0.08444332,-0.07483166,0.02047082,-0.06205625,0.02648598,0.03908675,0.08291285,-0.07800537,0.04530431,-0.07366358,-0.00898615,-0.02408996,-0.01874909,-0.02818953,0.08039122,-0.02968014,-0.07759466,0.01256316,0.01644576,0.06885100,0.02914143,-0.00215776,0.05137818,0.02480368,0.05393546,0.00926099,-0.03573431,0.01183422,0.02158616,-0.08021493,-0.02661949,-0.01936757,-0.06454450,-0.07314003,0.04179110,0.01071576,-0.07899878,-0.08291693,0.03119376,-0.05364566,-0.06248001,-0.04377326,-0.05187092,-0.01864702,-0.05108457,0.00967052,0.00687606,-0.03962478,0.00596204,0.04330868,0.08072934,-0.00683789,-0.06170774,-0.06316931,-0.06508648,-0.00033899,0.01126044,0.01155580,-0.06778602,-0.04956836,0.04519909,-0.03063243,-0.06562206,0.07490306,-0.01068403,0.06384160,-0.05503510,-0.00038315,0.07940719,0.00000601,-0.07046866,0.08540037,-0.06792502,0.00051194,0.04497423,-0.04179785,0.00024078,0.04300287,-0.00617492,0.03001200,0.02747977,-0.06319332,0.07937128,0.03222055,-0.05176591,-0.03986064,-0.03111997,0.02041754,-0.08507003,0.01075797,0.05787598,-0.00418279,-0.01048460,-0.08404575,0.01018527,0.02960423,-0.05762325,0.01576531,0.03411500,0.08049341,0.03156684,0.05616920,-0.06377407,0.06868704,0.05492137,0.06188398,0.07291766,0.04322761,0.01244520,-0.04896935,-0.02783369,0.02933310,0.01722625,-0.00445285,-0.07046532,-0.07453398,-0.05735214,-0.08109497,0.06245468,0.01208475,-0.00628726,0.07096969,-0.02483195,-0.05051945,0.06892615,0.02582177,-0.03616129,-0.00133463,-0.04965337,0.05576768,-0.00001239,-0.07599172,-0.08516809,-0.00505959,-0.03390022,-0.05943277,0.02140605,0.05981825,-0.00361715,0.07684933,0.08549533,-0.01106048,-0.07093453,-0.01095029,0.01239175,0.01120905,0.01079180,0.04662100,-0.07220013,-0.00162828,0.08352772,0.01867387,-0.01567153,-0.05397640,-0.02160803,-0.06685841,-0.08333737,0.03202344,-0.06058866,0.01546425,0.04596139,-0.07984192,-0.01509579,0.07295717,0.00702478,-0.02565113,-0.01739554,-0.04414593,0.08587497,-0.00916016,0.07088584,0.01117500,0.00773762,-0.05385387,-0.04567983,-0.00985892,0.07939404,-0.00845437,-0.07316032,0.01722436,0.04432387,-0.08280725,0.03094371,0.03129590,0.03104662,-0.05034953,0.08413511,-0.02245288,-0.07769326,-0.06395863,0.06522177,-0.02164089,0.00828766,-0.00708942,0.02875078,0.03789727,0.07240523,0.01590974,-0.05649829,0.06363900,0.06794215,0.00599691,0.00717843,0.00877622,-0.02884817,0.01176677,-0.07245462,-0.00767260,-0.02027491,0.08371579,-0.03017665,0.06503444,-0.07438704,-0.07858551,0.01646970,0.02078524,0.05016317,-0.05472682,0.07731145,0.07341097,0.06806114,0.02028543,0.04650417,-0.01571489,0.06537606,0.01509555,-0.01726183,0.02670725,-0.07394155,0.04414939,-0.05168501,0.08163307,0.05107269,0.01450760,-0.07284430,-0.00401801,-0.00602456,0.03190237,0.03513304,0.02037934,0.00534427,-0.01198554,0.01874150,0.08276033,-0.05522414,0.04500537,-0.04059961,-0.06172651,0.05626361,0.01930592,-0.00260032,0.05868537,-0.01484030,-0.01032507,0.03280553,0.01962313,0.08431681,-0.05994382,-0.00782138,-0.04130997,-0.06678730,0.00376140,-0.04225362,0.07976262,0.05889710,-0.03546937,0.03156129,0.01642713,0.00330783,-0.02497733,0.08519072,-0.06440577,-0.05820229,-0.05447456,-0.06068571,0.04271264,-0.07917191,0.04981210,-0.00086574,0.07623965,-0.04946059,0.05928317,-0.02336961,-0.06595048,-0.08373458,-0.06772152,0.06936794,-0.03084355,0.04836857,0.08523174,0.05958039,0.03737758,0.01518307,0.08520865,-0.05949387,-0.06462196,-0.06071419,-0.06085214,-0.05701775,0.06801609,0.07090888,-0.02498296,-0.04632209,-0.02958374,0.05784836,-0.04827632,0.05775097,0.04988380,0.06665132,0.03087140,0.03443997,-0.00305038,-0.08107904,-0.02828372,0.04662694,0.01589045,-0.05906541,0.04015830,0.06865767,0.06917428,-0.01834262,0.08185097,0.02528321,-0.08476934,0.05665552,0.04540771,-0.03199551,0.06664025,0.06604487,0.00810745,0.06539328,-0.02981847,-0.08091197,-0.01651433,0.06388482,-0.06933595,0.01504221,-0.05221823,-0.05584118,0.00905005,-0.05497003,-0.01727402,-0.01915050,-0.06200205,-0.00218037,0.00499305,0.04941010,0.06583784,-0.02460190,-0.04884581,-0.01080287,0.00245872,-0.07014452,-0.03552474,-0.07668506,-0.04438376,-0.02805463,0.06001160,0.07273276,-0.00320655,-0.07330734,0.00235005,-0.07101134,0.08343214,-0.03093720,-0.04514562,0.08014229,0.02654906,0.01185970,-0.06798518,-0.05546384,-0.07880539,0.05991844,0.06409603,-0.02401296,-0.00983591,-0.02080499,0.05792771,-0.05694022,-0.05752339,-0.07732524,-0.04886416,-0.08183160,0.08281813,-0.02534909,0.01281541,-0.01129625,-0.00552187,-0.04353264,0.02201956,-0.04419920,0.02310939,0.07130723,0.07922138,0.06790000,-0.04546127,0.07012278,0.03905714,0.04733398,-0.02139757,-0.00970866,-0.07936484,0.02330291,-0.04266758,-0.05492187,-0.00329035,0.02985939,0.03874640,0.04337291,-0.01441249,-0.05494970,0.00948955,-0.03044613,-0.06963041,-0.07639181,-0.03092082,-0.08122913,0.04969423,0.03124418,0.01874450,0.07463961,-0.00113827,-0.06645317,0.00605689,-0.05060128,-0.06775049,0.03947017,0.02127148,-0.02154479,0.03777241,0.07208627,-0.07972232,-0.01706653,-0.04847199,-0.03041618,-0.02813712,0.02026661,-0.05881764,0.07975490,-0.07810833,-0.07360727,0.04883002,0.01016679,-0.02767218,-0.06581439,-0.04668403,-0.04690935,-0.07255262,0.01678021,0.04868571,0.04734217,-0.08071708,0.02216672,0.00464645,-0.00734181,0.00697186,0.05819856,0.00420619,0.08154429,-0.06146726,-0.02093617,0.00360624,-0.00453141,-0.05096283,0.00080059,0.00724423,0.08365927,0.02182806,0.05864184,-0.02355351,0.01386721,-0.08196891,0.02643081,-0.07038353,-0.06996106,-0.03304419,-0.08429192,0.00967862,0.06119059,0.01111802,-0.01969422,-0.05331335,0.01391889,-0.07675396,0.06880645,-0.02475490,-0.06682601,-0.04408944,-0.04323675,-0.04741714,-0.03651153,0.07135419,-0.02210201,0.03208099,0.01464701,0.04647433,-0.01080877,0.01287174,0.02971473,-0.06833114,-0.00321930,-0.00870851,-0.06964134,0.08345231,-0.07125290,0.06556824,-0.04012540,0.08130522,0.05335975,0.06595992,-0.05392079,-0.07021074,0.02817441,-0.04677169,-0.04840284,0.01878176,-0.01241081,0.01697426,-0.03929089,-0.05970912,-0.06151759,0.01783865,-0.02741113,0.05227344,0.05824962,0.05948789,0.04845928,0.00222049,-0.01979682,0.03551456,-0.05186526,0.01731653,-0.02722612,0.01659141,-0.06438663,-0.05999064,0.02709457,-0.05528764,-0.05126591,0.02895308,-0.05702752,-0.04446001,0.06304366,0.04611086,-0.07513215,0.03418653,0.08405163,-0.08537815,0.06503309,-0.04565131,-0.03732270,-0.01967984,0.04658650,0.08356991,-0.02720301,0.07096396,0.03724534,-0.01087837,-0.00584040,0.03833492,-0.03968429,-0.06356244,0.04816770,-0.06078342,-0.07240512,-0.01069492,-0.07067826,0.02770163,-0.05256712,0.04239227,0.03475006,0.02317688,-0.01275206,0.05287214,0.08202931,-0.04139761,-0.06076016,-0.03453693,-0.01037772,-0.01319627,-0.03461165,0.03765239,0.08449803,-0.06639777,0.00840052,0.08426643,0.02617522,-0.05365863,0.07928029,0.04546200,0.06127233,0.03524110,0.08140594,-0.02669275,-0.03199745,-0.05841551,0.05165030,0.01549840,-0.03201760,-0.06680971,0.01548445,-0.04423335,0.02615897,0.08050812,0.04172420,-0.08389906,0.04697280,-0.01500110,-0.07699823,-0.01258268,0.04993267,0.04304339,0.07835232,0.04047541,-0.02302310,0.06809555,-0.01899952,-0.00912607,0.02588481,0.04273606,-0.07470353,0.03814471,0.03240730,0.08400400,0.04257390,0.05324205,-0.08241372,-0.01845410,-0.01302109,-0.00518922,-0.03679624,-0.03292190,0.07390297,0.01853600,0.04180392,-0.08120819,-0.02205287,0.04610467,0.01600890,-0.04683511,0.07725540,0.06707893,-0.01646540,0.06185688,0.03238248,0.00293734,0.06459475,-0.02094562,0.03285660,0.03247623,-0.01829235,-0.05724999,0.00376686,-0.01711807,-0.02450636,-0.06564170,-0.01279474,-0.08105698,0.03224479,-0.01433053,0.03679025,-0.05333952,0.01255398,0.05098408,-0.05320837,0.06822526,-0.00633567,0.04524581,-0.07811029,0.00196450,-0.02162058,0.06847513,0.04276210,-0.06519517,-0.00944830,0.06893487,0.01865939,-0.07188655,-0.02907052,0.05354749,-0.03379526,-0.04472506,-0.01599764,0.06701308,0.01282493,0.01068112,-0.07914162,0.02361035,0.06671748,-0.05255064,0.05058873,-0.07771257,0.02919930,0.04324483,0.06179658,-0.07935529,-0.06164833,0.08531012,-0.02284700,-0.04586106,0.08542802,-0.04217886,-0.00863035,0.05016220,0.00829874,0.05279564,0.06302152,0.03716246,-0.08030687,-0.03951706,-0.05330858,-0.06433783,-0.08128043,-0.08393190,0.05647688,-0.04033766,0.05142186,-0.08542075,0.04203004,-0.02172267,0.08115121,0.05815942,-0.00058000,0.02702997,0.07783560,-0.08184588,0.02943662,0.01452066,0.07673148,0.04262301,0.03464166,0.06848573,-0.07731795,-0.00981553,-0.06971578,-0.03848854,-0.01239752,-0.07377735,0.02923778,-0.03405995,-0.02794131,0.04343135,0.07136241,-0.05679885,0.01292296,-0.05873083,-0.00203037,0.03382578,0.08280072,0.03724065,0.02877852,-0.00996015,0.03754959,0.07557460,0.08063314,-0.03502083,0.08509523,-0.04354230,-0.01976467,0.03619354,0.03576136,0.06353869,-0.00158265,0.06008863,-0.02760500,-0.01260986,0.02298047,-0.03043218,-0.05154521,0.05594578,0.02325014,0.00351168],[0.02471989,0.04844100,0.01748182,0.01514949,-0.06074808,0.08372169,-0.03476623,-0.04791499,-0.05181202,-0.01551555,0.08560074,-0.05084310,0.08052538,0.02641077,-0.06419674,-0.01921909,0.08550008,-0.03069700,0.00647482,0.08522030,0.04008164,0.07647883,0.05570205,0.03854513,-0.06018337,-0.07911804,-0.00893451,0.02481020,0.05533207,-0.08430179,-0.05434500,0.00593605,0.06875706,-0.05900905,0.06687216,-0.02489898,0.07317773,0.00155815,0.05104365,0.01363181,0.04398491,-0.06964792,-0.00864336,0.00453562,-0.05191015,0.06111407,0.04294579,0.07938180,-0.07843617,0.07005129,0.01932716,-0.02715690,-0.04718323,-0.00593504,0.00096590,0.03981567,0.00950991,-0.04165540,-0.06124476,0.07082503,-0.02221096,0.07307448,0.05870873,-0.01910450,-0.06585422,0.08067670,-0.08109795,0.07596148,-0.01680946,-0.00993177,-0.06061381,-0.08156928,-0.03685627,-0.07903405,