{"layers":[{"w":[[0.03338047,-0.02363952,-0.04301330,-0.02900915,0.06069266,0.07434500,-0.02480518,0.01605105,-0.06631126,0.01387100,0.00668389,-0.02001257,-0.04610761,-0.00787975,0.04871611,0.00868224,0.05176152,-0.04754619,-0.01169158,0.07899962,0.04768951,-0.01238969,-0.00017560,0.02521846,0.02059430,-0.07289446,-0.05983818,-0.01251733,-0.05006645,0.05552297,-0.02584612,-0.08047786,-0.07264618,-0.06246369,0.00601309,0.01055240,0.06053824,-0.05582394,-0.06537131,-0.05254174,-0.00338116,-0.05441275,-0.04202684,-0.09425887,0.02351775,0.02627788,-0.04896205,-0.03855017,0.03586220,0.01827058,0.05838647,-0.03124020,0.03377593,0.01110221,-0.07399498,-0.08364037,0.01037892,0.00709985,-0.00347522,0.00338853,-0.06149861,0.05746030,-0.02498334,0.04186329,-0.08916255,-0.06436883,-0.03679892,-0.04041369,-0.04899381,-0.00054366,-0.09540586,-0.00591891,-0.00313914,0.00350232,-0.05484173,-0.11134040,0.04332133,-0.03493817,-0.05775632,0.06704894,0.01197886,0.07670301,0.06600852,0.03059243,-0.02931230,0.07605324,-0.01958881,-0.01941191,-0.02554531,0.03419484,0.02793963,-0.09169879,0.00008187,-0.03638916,0.00031892,-0.05275184,-0.04092927,-0.06412780,-0.15347788,-0.03993801,-0.04432234,-0.01137356,0.00176082,0.05825811,-0.06093106,0.04002647,0.03741881,-0.04745646,-0.02468546,0.09454818,0.03981010,0.07560162,0.05346042,-0.01178301,0.08198193,0.00923277,0.02624377,0.05562294,0.02563706,-0.02220021,-0.05758938,0.01801782,0.03209219,0.03999081,0.11962423,-0.00749882,0.09251906,0.06552361,-0.03030139,0.01939088,-0.02966971,-0.02312629,-0.00642364,0.11347535,0.08137415,0.19049251,0.14253184,0.07809605,0.02531558,-0.02903642,-0.06781392,-0.00014888,0.03789559,-0.01247149,0.08642071,0.05509120,0.11635399,-0.00829146,-0.06442245,0.06671154,0.00144045,-0.02305926,0.10994299,0.02973581,0.03727555,-0.05035188,0.12931469,0.02317054,0.01622060,0.01652587,0.16092442,0.01480584,0.07834027,0.14576644,0.05905044,-0.02461144,-0.02094145,-0.04064926,-0.02469814,-0.08293969,-0.08091550,0.03981327,-0.01006922,0.03286258,-0.04392424,-0.04121464,-0.05595751,0.02858780,0.01419482,0.01629188,-0.00987049,0.00357387,0.07783080,-0.06984101,0.00069809,0.05658310,0.04658603,-0.15237559,0.10078356,-0.09653702,-0.00385805,0.05218033,0.06722067,0.06786960,0.06298269,0.06179191,-0.07786807,0.00576188,0.02185454,0.02510602,0.04827225,0.03942566,0.02066880,-0.00858789,-0.00805229,0.05791621,0.03101328,0.09115035,0.10309679,-0.03454386,-0.01997860,-0.01625822,-0.04389540,-0.00841841,-0.06623244,0.03510009,0.08701382,0.04727630,-0.09020939,-0.03439698,0.16114704,0.08294360,0.09550745,0.07877539,-0.02623439,0.01255298,0.06179854,0.05626233,-0.03386434,-0.09131084,0.04770997,-0.05913599,0.01505876,-0.04386033,0.00090560,0.03142022,0.01633847,0.12367097,-0.05856541,0.00308121,0.09968100,-0.02253181,0.07111482,-0.06361269,0.01210305,-0.00997811,0.08747429,0.02799287,0.05591803,-0.05769420,0.01326009,0.08822688,0.01985122,-0.08953433,-0.00144035,0.08745519,-0.04132185,-0.11008652,0.05720890,0.00722971,0.03339100,0.04607972,-0.02498143,-0.04263558,-0.03201160,0.01581069,0.03117221,-0.04458439,0.07107730,-0.04691945,0.13053671,-0.05536042,-0.03476594,-0.00035368,-0.06368671,-0.09100990,0.01683931,-0.12129837,-0.05861319,0.05875626,0.00291803,-0.06846910,0.05498163,-0.06800058,0.02662721,0.00509336,0.04809134,-0.01574463,-0.01831292,0.05388284,-0.00499777,0.07366683,0.07628157,-0.00140945,-0.01266301,-0.09612016,-0.01360675,-0.02750450,0.00754457,-0.15445851,-0.02311035,-0.01531322,-0.07686547,0.02614302,0.05536774,-0.10763987,-0.03183688,-0.00443975,0.00053915,-0.07403453,0.01478407,0.00785997,0.05578175,-0.08657203,0.00081534,-0.12353301,0.00047961,-0.07875466,0.01358911,0.03703814,0.01234822,0.06020647,-0.13549109,-0.03915878,-0.07883304,-0.12920435,-0.05229204,0.02753502,-0.08235519,-0.06917593,-0.01680747,0.08657540,-0.02441109,-0.12035511,0.00533633,0.04080708,-0.04152912,0.06220964,0.01051749,0.00899816,-0.02287137,-0.13273911,-0.09944060,0.03534276,0.06071648,0.00061728,-0.03571749,-0.05383161,-0.07849222,-0.02448331,-0.02143588,-0.19088790,-0.01791480,0.01393451,-0.02583165,-0.04750304,0.10485855,-0.03779603,-0.07967738,0.04035630,-0.13357165,-0.07617841,0.03803065,0.08286328,0.02549074,-0.01183494,0.02852008,0.10160213,-0.08404695,0.02892148,-0.08153597,-0.02104930,-0.11567067,0.02022350,-0.02398514,-0.01925239,-0.01824608,0.03586165,-0.03994365,0.01305090,-0.08543809,-0.17261641,-0.07724523,-0.06406122,0.10972783,-0.09256851,-0.07990205,-0.13081861,-0.11566190,-0.13436204,-0.06718270,0.05247848,0.07791111,-0.00891213,-0.06106773,0.02472701,0.02934980,-0.07194110,0.04559330,0.11589533,0.00969298,-0.01031826,-0.06477065,-0.03923167,0.09886420,0.11237191,0.02673713,0.11455344,0.09848246,-0.01394327,-0.00712380,-0.05158831,-0.00676062,-0.03231403,-0.08197819,-0.10614303,-0.04248690,-0.04478704,-0.05485993,-0.08616094,0.08384131,-0.06127726,-0.04068184,-0.04251378,0.04814665,0.05088672,0.09314236,0.21668321,0.11187728,0.00874761,0.10852338,0.11314647,0.02163604,0.08828677,0.04695760,0.08235693,-0.00716732,0.04384506,-0.00338312,-0.09344173,-0.01618350,-0.14202231,-0.07413635,-0.01880452,0.00919541,0.07454134,-0.14918481,-0.09997961,-0.02691581,-0.05865988,0.04098623,0.06000479,-0.06016741,-0.07588068,-0.02070872,0.01782406,0.11664364,0.24186920,0.26590574,0.25740823,0.18169720,0.21945091,0.03118096,0.01979410,-0.02544593,-0.19438271,-0.14482479,-0.08005240,-0.19936867,-0.08748873,0.05051532,0.02997982,0.05781975,-0.07336449,-0.11695906,0.00568156,0.01730129,-0.05398711,-0.01439557,-0.07672461,-0.16389066,-0.28196272,-0.20729670,-0.03998000,-0.01251964,-0.03135504,0.22857216,0.22402598,0.21394084,0.24745454,0.19718322,-0.11944178,-0.07732558,-0.14536197,-0.05672724,-0.03547485,0.02407501,-0.08299337,-0.01635357,0.11181933,0.09189633,-0.03350337,-0.07735349,0.04175258,0.00181726,-0.03410137,-0.03370028,-0.08730280,-0.28769225,-0.42967165,-0.57049292,-0.45788395,-0.32209304,-0.22389421,-0.08953037,0.15589152,0.11521613,-0.03088660,0.02420836,-0.17718734,-0.05302090,-0.13283139,-0.08087703,-0.02202843,-0.05996620,-0.01538336,0.00832656,0.11254530,0.05111326,-0.10429075,-0.04979310,-0.05866759,0.07157464,0.04334764,-0.01019451,-0.07823636,-0.27132502,-0.27714691,-0.63579947,-0.68475956,-0.76795888,-0.88174099,-0.92909825,-0.68008769,-0.51807535,-0.46290383,-0.39234114,-0.19350450,-0.05932244,0.01515739,0.01941474,-0.02324763,0.05289951,-0.01719874,0.02941774,-0.02112242,0.02001204,0.00389444,-0.05767828,-0.02422460,-0.07100353,0.08248046,-0.05985272,-0.00453521,-0.04372853,-0.13076672,-0.15504959,-0.39514297,-0.47701323,-0.66435462,-0.87209123,-0.98245716,-0.81229633,-0.48030666,-0.22475514,-0.03195156,0.01760502,0.06943613,-0.02527918,0.14665660,-0.02785174,0.03061159,0.00918965,0.06621098,0.02266435,0.03040033,-0.06532405,0.07699390,-0.00481565,-0.02003023,0.03969152,-0.02146624,-0.03709540,0.03695625,0.11186096,-0.03160462,-0.00257539,-0.11303417,0.03476603,0.10890559,0.06511590,0.09218592,0.05727629,0.09710549,0.04956994,0.02971073,0.04936168,0.01304150,0.01033258,-0.02713066,0.13510530,-0.09981131,-0.04154884,0.02473619,-0.09491464,-0.03876963,0.05838684,0.07504120,0.06032473,0.11023156,0.13161846,0.07680011,0.04657862,0.08499420,0.05608854,0.13780271,0.25572401,0.23323597,0.16810419,0.06854761,0.06192203,0.00182342,0.00716130,-0.06368430,0.07746767,-0.04316066,0.08232103,0.02944894,0.02413295,0.02564171,0.03919999,0.05155311,-0.08489853,-0.06353337,-0.01931465,-0.00722363,0.04495550,0.07013611,0.06477103,0.05105769,0.09128571,0.20984761,0.18655089,0.12010487,0.10473123,0.14108172,0.19579579,0.11992063,-0.12466302,0.00763869,0.09622083,-0.07857339,0.03525648,0.04385994,0.01105694,0.01999842,0.04842620,0.03194096,-0.09954220,-0.00554865,-0.03785484,0.00403212,-0.04951689,-0.05214651,-0.00319038,0.02099547,0.03799870,-0.00398106,0.03855271,0.00410457,0.10151609,0.27634394,0.17326114,0.17496873,0.08873220,0.15059556,0.19418910,0.02965005,0.00226991,-0.00102866,0.04188017,0.09117030,0.03100726,0.08409794,0.09188384,0.04900904,0.01753134,-0.02733639,0.06909666,-0.08233894,0.03548046,-0.06819684,0.08714975,0.10395859,0.06850852,0.06596356,0.12488612,0.12807871,0.06635939,0.17033315,0.16554900,0.12981741,0.13210343,0.12837330,0.04322857,0.05085573,0.06275856,0.10375997,0.04535468,0.13703538,0.06115951,0.11010519,0.05570497,0.04403610,0.06889407,0.08846185,-0.00868990,-0.05459758,-0.00564079,-0.07981278,-0.05606963,-0.00196082,0.11467291,0.19863111,0.24932410,0.20874436,0.18094780,0.17861101,0.09631591,0.13838741,0.09560630,0.14845544,0.15987441,-0.05746506,-0.07460901,0.02721299,0.06060606,-0.03203847,-0.04551088,0.00880617,0.00825993,0.05191468,-0.09720573,0.00193859,0.04069286,0.00068899,-0.06560440,-0.03551667,-0.07421970,0.03428755,-0.02345308,0.08783620,0.12842479,0.07092509,0.11896739,0.12143600,0.07233695,0.04399149,-0.03800490,0.01462140,-0.00892427,-0.00924699,0.11690638,0.08791543,-0.01854774,-0.01073521,-0.06044446,0.06180950,-0.02026480,0.07066892,0.06591701,0.17273550,0.11661705,0.13611808],[-0.07576203,0.08082240,0.00825527,0.07911149,-0.05642759,0.04983916,0.03568408,-0.02384656,0.07614574,-0.06421103,0.00260608,-0.00960662,-0.02427609,0.03779601,-0.00279537,-0.02549586,0.01326402,0.07115605,0.00763847,0.04880728,0.05288488,0.06962983,0.07536419,0.02960784,-0.08017107,-0.03388519,0.08484026,0.06066600,-0.02621257,-0.01767562,0.06507362,-0.05918338,0.07202138,0.03144459,0.04929613,0.04112018,-0.04570849,-0.03113572,-0.03141975,-0.03485660,0.05757929,0.11214550,0.05001412,0.07911450,-0.03556019,-0.02198175,-0.07098676,-0.09578606,-0.01986250,0.02076011,0.00009102,0.07427958,0.01284416,-0.07963251,-0.00898708,0.06750352,-0.01446382,0.02621903,0.06134687,0.05633976,0.01017492,0.00289525,-0.03555422,0.00254425,0.02065983,-0.01024693,0.04908450,0.13949911,0.05123406,0.03900083,0.06211291,0.05322695,-0.11800407,-0.05902267,-0.18143860,-0.03037849,-0.06712394,-0.06055373,-0.06938466,0.04554036,-0.08549798,0.03257444,-0.08227737,0.07751272,0.02537604,-0.08046347,0.09200885,-0.03079794,0.10942295,0.01452729,0.11564966,-0.02369607,0.01686152,-0.02049169,-0.07259846,0.01955009,0.13757969,0.05402547,-0.13213824,-0.07454942,-0.09277371,-0.03958238,-0.20657052,-0.23898341,-0.17549630,-0.07550202,-0.09183153,-0.00864672,-0.00799478,-0.03368707,0.02664823,-0.00990261,0.04966962,0.00564630,0.09968683,-0.03323161,0.07751989,0.03551565,0.09306187,0.07199708,-0.02596886,0.09393965,-0.05626599,0.04146463,0.09135839,0.08757956,0.03847577,-0.04658633,-0.08891077,-0.14158407,-0.22869259,-0.33759832,-0.24778759,-0.20789324,-0.14859997,-0.10287615,-0.04359880,-0.02125585,-0.07771617,-0.03569093,-0.04193152,-0.03704112,0.07627472,-0.03588685,0.05476103,0.01263905,0.11129317,0.05806239,0.05989273,-0.00672492,-0.02536005,-0.04610607,0.08462893,0.05337714,-0.02042314,0.09435914,-0.01310327,-0.17481129,-0.18142356,-0.38516393,-0.26139602,-0.27648756,-0.28981221,-0.11608740,-0.07195297,-0.10504194,0.03284739,-0.07406620,-0.07978384,0.00363419,0.04463947,0.08312231,0.05678951,0.03136470,0.03018909,-0.00871306,-0.08842627,0.05959132,0.09810221,0.04546471,0.08036498,0.05918437,0.01611740,0.06895270,-0.04690806,-0.04020721,-0.14946857,-0.17918757,-0.29723969,-0.35304800,-0.24143684,-0.19446258,-0.16703260,0.02725671,-0.06572553,-0.09006113,0.00407525,0.06447089,-0.01200423,0.10067492,0.07415172,0.01851135,0.06261218,-0.01070327,-0.02084886,-0.05345326,0.11865076,0.14806263,0.17580025,0.08149084,0.20754816,0.07890160,0.11060358,-0.09797978,-0.08290850,-0.26519674,-0.32999352,-0.25473449,-0.24017826,-0.15929018,-0.15452154,-0.04926890,-0.09790438,0.07305676,-0.06541178,0.05737279,-0.02300146,-0.01088966,0.02397936,0.00766499,0.09991866,0.00784796,0.04955910,0.01722655,0.13427752,0.17078072,0.15839633,0.08059447,0.30586016,0.12012481,0.02215353,-0.03757652,-0.06948097,-0.08272523,-0.28488690,-0.29473534,-0.27450642,-0.26986709,-0.10374945,-0.01238379,-0.08262610,0.01403334,0.07055581,0.06628120,0.02909277,0.00002889,0.06246790,0.04257605,0.11021221,0.04739272,0.15701847,0.07831731,-0.05933496,0.01019481,0.15100482,0.14598496,0.30993307,0.23085469,0.18148819,0.00232526,-0.12732525,-0.26255062,-0.17797320,-0.31242695,-0.13808417,-0.21222988,-0.13975970,-0.10797453,-0.09298074,0.05112020,0.08274035,-0.00659231,-0.03838651,0.10174286,-0.01423978,0.07346122,0.00857701,0.05235986,-0.04151044,-0.07022495,-0.07812849,-0.05860171,-0.00425905,0.22746326,0.25838709,0.31556338,0.11883210,0.01483253,-0.13104680,-0.18990915,-0.29095268,-0.25061619,-0.06309669,-0.11976977,-0.12234622,-0.04111230,-0.02539233,-0.06428655,-0.02232397,0.04908695,-0.02861693,0.02643244,-0.04911377,-0.03332858,-0.13536583,-0.15019149,-0.19403392,-0.21194364,-0.17518732,-0.05336182,-0.05264142,0.04393850,0.16046397,0.14857684,0.04404656,-0.05971206,-0.18350714,-0.22257967,-0.14432642,-0.13280934,-0.22230792,-0.08513422,-0.15270938,0.00478283,-0.02029159,-0.05585430,-0.02057349,-0.06897941,0.00650586,-0.13238205,-0.17881663,-0.09357516,-0.13924347,-0.17130025,-0.01717595,-0.11973029,-0.11399382,0.00404471,0.00547100,0.12696680,0.09355718,0.17092283,0.04527157,-0.16043626,-0.05791858,-0.13612925,-0.09946265,-0.20784968,-0.07304782,-0.06493171,0.00789013,-0.02118395,-0.06570259,0.04378716,-0.03827753,0.07054079,-0.11015505,-0.12365792,-0.16793242,-0.13740404,-0.07163918,0.00366238,-0.06584889,-0.05450055,0.07088437,0.04477803,0.11926704,0.01107418,-0.06519964,-0.05244287,-0.02815957,0.03132306,-0.10359591,-0.09042750,-0.08167842,-0.16744342,-0.16850126,0.00568821,-0.09327579,0.05174362,-0.05796520,-0.03838647,0.01404030,0.01728459,-0.10387603,-0.08953346,-0.10782880,-0.01108256,-0.02533895,0.07566703,0.08720055,0.12738456,0.06726029,0.02504952,-0.06031391,-0.10456777,0.20977734,-0.00120121,0.00349989,-0.07761254,-0.12794912,-0.12196632,-0.12907533,-0.21642579,0.00165612,-0.00868221,-0.01985333,-0.05220333,-0.01937533,0.03929059,0.06722711,0.02937360,-0.04332614,-0.02282088,-0.17696646,-0.09670652,-0.02316475,0.06583907,0.03097156,-0.04454157,-0.00430737,0.02027037,0.03988234,-0.03363078,-0.05218368,-0.06511991,-0.15271004,-0.07723782,-0.09736562,-0.16368711,-0.18109082,-0.10417701,-0.09898395,-0.02007682,0.04794043,0.06281452,-0.02984465,0.07622276,0.02980483,-0.02010318,-0.10502421,-0.08895653,-0.11267705,-0.03581002,-0.13215594,0.01526057,-0.14383721,-0.06774763,0.05989411,-0.05333318,-0.08687992,-0.04168667,-0.04224958,-0.04114443,-0.11905507,-0.06219423,-0.25690097,-0.13733631,-0.08027624,-0.09117701,0.05290276,0.11359784,0.13237531,0.07968683,-0.04395494,0.00518848,0.01728936,0.04261561,0.05856190,-0.04934926,-0.10300445,-0.03349296,-0.00393963,-0.04183192,-0.09800955,-0.08041134,-0.04680242,-0.17177106,-0.10414311,-0.14169934,0.08515272,-0.02961101,-0.12923007,-0.19786057,-0.22069003,-0.07392690,-0.01976820,0.03195968,0.15061538,0.09089091,0.07731241,0.16553220,0.07813302,-0.04244949,0.08174737,-0.05582475,-0.07223982,-0.01952201,-0.01876335,-0.06479631,-0.07331397,-0.06181722,-0.08798541,-0.07310583,-0.06269601,-0.08301564,0.04676214,0.05529470,-0.08038196,-0.10021812,0.04018319,0.00847479,0.03478220,0.00360634,0.01894408,0.14099871,0.10591058,0.07322373,0.06919420,0.08281345,0.07227992,0.00334183,-0.04033406,0.04628866,-0.03125921,-0.03290888,0.03957894,0.00641224,-0.03139659,0.03800153,-0.01230574,0.06868812,0.03361127,-0.02060304,0.05822713,0.21050392,0.01309575,0.09460557,0.09100467,0.19767323,0.11515199,0.05784304,0.09965160,0.03819507,0.07981334,0.13441364,0.16552149,0.05432563,0.10290435,0.03102078,-0.05236666,-0.01181153,-0.04631599,-0.01275523,-0.04354665,-0.05877871,0.07657792,0.11898562,0.06906554,0.04924148,0.06101645,0.13790272,0.14578097,0.12793675,-0.05012452,0.07092222,0.03605676,0.00946420,0.06542949,0.03096838,0.08105280,0.05521555,-0.00173476,0.04325657,0.11636142,0.13932098,-0.01532905,0.10265726,0.06833065,0.00828983,0.03672944,0.06604812,-0.02191636,0.02652035,0.03291019,0.06367746,0.05869332,0.04757431,0.09074526,0.04891880,0.02789647,0.04510163,0.08128445,-0.04860345,-0.04490662,0.00262328,-0.04462767,-0.05036926,0.03899342,-0.05350696,-0.02988258,-0.01521518,0.00008816,0.12455340,0.05442522,-0.00816919,0.07153868,0.07020369,-0.00471546,0.03569910,0.08637507,0.16928272,-0.03466395,0.05341243,0.08113384,0.10936643,-0.00794084,-0.06418242,0.06460650,-0.04413935,0.06831473,-0.00110116,-0.05371979,-0.01000285,-0.05597024,-0.00542097,-0.11439738,-0.05280349,-0.11532295,0.00389830,0.00857465,-0.00458665,0.02336586,0.00920716,-0.05460158,0.04616002,0.05972488,0.06284689,0.06182296,0.12765464,0.08528499,0.06366678,0.04441543,0.08731440,0.03093754,-0.03933363,0.07997438,0.08437500,0.10625944,0.01388174,-0.02703705,0.04577769,-0.11548203,-0.14824589,-0.06850640,-0.09189092,-0.11579909,0.00402266,-0.07351863,0.00400481,-0.01054494,-0.00488420,-0.06471865,-0.03660801,0.04280649,0.02449074,0.12681895,-0.00634298,0.00568633,-0.01848952,0.01811237,0.03523763,-0.05126666,-0.02381755,0.06594730,-0.01620907,-0.04581208,0.07170179,-0.11132906,-0.12278445,-0.06465672,-0.03880328,-0.15377428,-0.03739158,-0.09945214,0.04571437,-0.03817006,0.03852342,0.03357116,-0.05318843,0.00964492,-0.05848191,0.08698732,-0.08317733,-0.03848799,-0.03002793,0.13673785,0.10935628,0.04086151,0.00425440,-0.09508066,-0.02487708,0.12594618,0.05375012,0.01465863,-0.02615768,-0.05316546,-0.05167445,-0.14442161,-0.09277718,-0.06730527,-0.07736120,-0.01228766,0.01724990,0.07571648,-0.14967942,0.02767724,0.01630022,-0.08365806,0.01576234,-0.02173490,-0.04662567,0.07074131,0.00547663,0.09541200,-0.00181637,-0.04653297,-0.03887247,-0.07787268,0.00915119,0.02970571,0.08574093,-0.01359760,0.01677555,-0.10412153,0.00708979,0.02873384,-0.07144468,-0.00016647,-0.03539686,-0.07640688,0.07632327,-0.04716778,0.03137924,-0.02004255,0.10504010,0.05947109,0.02340285,0.05878119,-0.00827487,-0.01864626,-0.07681342,0.05153615,0.01096386,-0.03116062,-0.04670844,-0.00176403,0.02620479,0.08909179,0.01015239,0.00668816,0.05749666,-0.09195996,-0.04842385,-0.09034387,-0.04796234,-0.01311614,0.03249443,-0.06057702,-0.02334039,-0.00684965,0.02277503,-0.06418473,0.02130654],[-0.06742334,0.03067756,0.04065899,0.02038166,-0.03801977,-0.02496636,-0.03503445,0.03019807,0.01231697,0.03473243,0.11418432,0.09719995,0.04364156,0.06834041,0.13484064,0.06646122,-0.02325002,0.03673168,0.03514644,0.05922448,0.08893088,-0.04801918,0.04867466,0.00962850,0.05185806,0.06469896,0.08223808,0.03570933,-0.01460985,-0.06452673,0.08242930,0.07705903,0.07128419,0.05957053,0.03412168,-0.01059025,-0.03466272,-0.01403207,0.05752996,0.08549312,0.07255112,-0.06441932,-0.03886925,-0.05522147,-0.03925678,0.01720907,0.10433221,0.12792301,0.04066353,-0.00750128,0.01605251,-0.06830455,-0.06576995,-0.01991422,0.04982832,0.04690145,-0.04721691,-0.04251814,0.02096592,-0.03760948,-0.02794148,-0.05855535,-0.02376413,0.04459665,-0.06073454,-0.01379309,-0.00896009,-0.01964755,0.01152916,-0.07666732,-0.01089629,-0.09107342,-0.00179318,0.10771383,0.00938653,0.07063656,0.03214072,0.00730001,0.05949508,0.01526043,-0.06714598,0.03431405,0.02855036,0.00928376,-0.05297526,0.06652700,0.01143035,0.00935262,0.03837956,-0.01732385,0.10796794,-0.03349353,-0.01352455,-0.02387716,0.06716201,-0.02270315,-0.13102527,-0.01472221,-0.14510912,-0.08997536,-0.01504659,0.06851310,0.06093111,0.00158359,0.06983913,-0.10692264,-0.06024919,-0.07092248,-0.02048578,-0.02397564,-0.09801720,-0.05981304,-0.01226390,0.02686560,-0.03678148,0.06833763,-0.05609579,0.06927180,-0.00242581,-0.03290620,0.00560551,0.08942141,0.12329784,0.05540051,0.02368795,-0.18239851,-0.10736319,-0.02252921,0.01933228,0.04796276,0.05979411,0.00079902,0.06056817,-0.12727550,-0.21408145,-0.20593300,-0.06549006,-0.11238683,0.01641452,-0.04989950,0.08759771,-0.01828701,-0.04023445,0.01729978,-0.05202351,0.03157547,-0.02108209,0.01237223,0.00685203,0.07836521,0.07443519,-0.02274688,-0.12656489,-0.13098289,0.01181268,0.16467634,0.04226663,0.03526027,0.01848338,-0.01356987,-0.02544879,-0.09579372,-0.13430698,-0.23188296,-0.18615319,-0.01964938,0.03906469,0.06330918,-0.02894350,-0.05982435,-0.08291968,-0.07189078,0.04403474,-0.03969340,-0.02666990,0.08144961,0.01363469,-0.09841055,-0.12911646,-0.04264965,0.02254477,-0.04370875,0.01555612,0.03517431,-0.00081244,-0.07046548,0.08774085,-0.10310960,-0.08339947,-0.11659584,-0.11071406,-0.26432222,-0.18482132,-0.04283382,-0.08241802,-0.06238975,0.02888615,-0.05283777,0.04501610,0.05034930,0.04283799,-0.09547458,-0.03549123,-0.01093472,-0.00337126,0.02241966,-0.05530475,-0.18068920,-0.04207975,0.16414563,0.02181291,-0.02906669,-0.00090410,-0.01642640,-0.10550829,-0.04049436,-0.05624068,-0.08933786,-0.20710409,-0.11363208,-0.07571673,-0.13414876,0.00339042,0.04647744,-0.07363454,0.03263489,-0.07004100,-0.06069513,0.01680510,0.09651379,0.06974038,-0.03477232,0.01395294,0.02862024,-0.11422686,-0.14524226,-0.16812007,-0.03209559,0.12572272,0.00877137,-0.13931307,-0.07714298,-0.15215005,-0.16925058,-0.21314861,-0.23117097,-0.07964151,-0.14351074,-0.09792408,-0.11914361,-0.05648016,-0.02739669,-0.07684087,-0.02766880,-0.01843558,0.04310105,-0.02625590,-0.07854895,-0.11613534,0.03338495,-0.02469303,0.02541384,-0.03725865,-0.16397284,-0.13668634,0.04060826,0.03658145,-0.02541966,-0.00245430,-0.08830609,-0.24769241,-0.29419029,-0.21009554,-0.14639837,-0.08581889,0.01390533,-0.07500339,0.00788863,-0.01332381,-0.10209154,-0.02128451,0.05229757,-0.03779210,-0.00754804,-0.15817608,-0.03790220,-0.00574678,-0.03082022,-0.00890703,-0.01518583,-0.03567347,-0.08737716,-0.06046535,-0.02464591,0.01522623,-0.02513360,-0.23756376,-0.21148674,-0.20479850,-0.19334398,-0.18727350,-0.03497107,-0.04231973,-0.13492024,-0.05968922,-0.11457358,-0.10895456,0.01127506,0.02251307,-0.04212206,0.00999299,0.00977346,-0.06837516,-0.04058392,0.04137516,-0.09207682,-0.07611476,-0.11253028,-0.04447664,-0.11625817,-0.18494326,-0.14234218,0.01590602,0.02336005,-0.05867882,-0.11647388,-0.17594565,-0.24198791,0.01010926,-0.01843934,-0.16089110,-0.17654343,-0.14854953,-0.16840678,-0.13804682,-0.04832468,-0.08155704,0.00638764,0.03899609,0.01533096,-0.00944806,0.03135478,-0.01305529,0.09838529,0.05387430,-0.09575926,0.01180170,-0.09731994,-0.04693431,-0.03038116,0.13495304,0.02408897,0.02098112,-0.15214059,-0.17127754,-0.11849190,-0.01421508,-0.02789306,-0.09736597,-0.14754243,-0.24095437,-0.24313939,-0.07876772,-0.10296390,-0.05154631,-0.04814830,0.04305325,-0.00591236,0.06431569,-0.00884716,-0.01223909,0.02456349,-0.04974956,-0.06559347,-0.11984316,-0.06760425,-0.04726729,0.13530728,0.21264462,0.16842428,0.16490731,-0.03649374,0.07329520,0.04521625,0.13519022,0.14049219,0.18521243,0.13083914,-0.09061854,-0.15454873,-0.06479492,-0.00085371,-0.05692944,0.04649244,0.01783570,0.07188462,0.00440660,-0.02413578,-0.08208438,-0.05018953,-0.06813195,0.01515005,-0.06003535,0.00935224,0.06470023,0.17227156,0.25935036,0.21804990,0.16495836,0.13582410,0.05169280,0.21675338,0.27519876,0.24911426,0.31331956,0.21872418,0.06869332,-0.07124823,-0.08445597,0.01431755,0.08367500,-0.05262392,-0.06075303,0.02647655,-0.02133749,0.01513660,0.01465833,0.01760849,0.00690426,-0.08923178,0.01351428,-0.02437777,0.16319299,0.19532323,0.07978343,0.09635226,0.01293186,-0.15104340,0.07645712,0.12925985,0.15093979,0.25406352,0.30316907,0.19355884,-0.00785743,0.06202325,-0.04997118,0.05939815,-0.03113517,-0.01379617,0.04296133,0.02598817,0.04336648,0.14191851,0.02794804,-0.16121450,-0.04845818,0.02790497,-0.01151825,0.16459703,0.25874043,0.19693461,-0.01287258,0.07281817,0.05216910,0.14213204,0.12961948,0.17785935,0.12649994,0.20804776,0.05979688,0.04372597,-0.00200271,0.08189925,-0.01397513,-0.04664022,-0.08345035,0.07504715,0.04617601,0.06271984,0.07897997,0.01843113,-0.02488992,-0.15422520,0.00248410,0.14384305,0.28872702,0.10416491,0.25396317,0.15549466,0.20212665,-0.02474762,0.01699374,0.00337923,0.13341622,0.15813260,0.03467631,0.02450833,0.06769618,0.00028728,0.00486795,0.16311085,0.07613714,-0.02143712,0.07573713,0.08136919,-0.05231837,-0.03787795,0.09072398,-0.13718006,-0.12414606,-0.10575306,-0.09890932,0.06262578,0.10012578,0.04745363,0.23983043,0.22254372,-0.01475287,-0.07708122,-0.12282006,-0.04649155,-0.07447252,-0.04320339,0.03839347,-0.02588918,-0.14019418,-0.06618407,0.00040922,0.01597847,0.01295085,-0.06956696,0.06907236,-0.06971689,0.07406406,-0.00041963,-0.03176660,-0.07863308,-0.25370550,-0.08897966,-0.04863394,0.03448264,-0.03349532,0.05849253,0.10170271,0.08500659,-0.02095787,-0.05478377,-0.11853932,-0.12804720,-0.24518335,-0.29785764,-0.18587758,-0.13441119,-0.26025149,-0.21788341,-0.14340714,-0.06436637,-0.11895854,-0.03413983,-0.08822548,-0.00754481,0.05132652,-0.10776919,-0.11645024,-0.14389360,-0.17039701,-0.17086279,-0.06580006,0.00865506,0.04651441,0.19612870,0.06668588,0.03911063,0.02415396,-0.02488413,-0.07242222,-0.23135956,-0.25753865,-0.39821854,-0.24330786,-0.28381202,-0.31305084,-0.16238594,-0.12509023,-0.15020823,-0.09374268,-0.07480515,0.04848129,0.05439891,-0.03512999,-0.02811781,-0.13830784,-0.11246020,-0.23433322,-0.04330957,0.00041260,0.04054787,-0.03880605,-0.01725218,0.13504322,0.21210425,0.11906525,0.00380120,0.04126587,-0.08037912,-0.14331128,-0.16083199,-0.24040374,-0.32284600,-0.19009158,-0.18853822,-0.15399083,-0.05346057,0.00480160,-0.00434687,0.03754816,-0.00629603,-0.05914501,-0.07045349,-0.14128435,-0.15635651,-0.21088228,-0.14186589,-0.13863367,-0.05132090,-0.07183622,-0.06287513,-0.02655527,-0.03216896,0.08567382,0.10453459,0.05898873,0.01094808,-0.06870890,-0.01106105,-0.18841168,-0.15197276,-0.12360325,-0.12811752,-0.11042175,-0.08110768,-0.04412575,-0.08683708,-0.01827006,0.08436312,-0.08804204,-0.09546060,-0.05258687,-0.16611306,-0.13741706,-0.09762581,0.01920300,0.02761588,-0.12732114,-0.08645315,-0.02874820,-0.02382344,0.00530635,0.06835779,0.00030604,0.12641211,-0.00155286,0.04404015,0.01949975,-0.09905259,-0.08344547,0.03756249,-0.08259323,0.01284811,0.05721666,-0.06737706,-0.06733777,-0.04431378,-0.07034610,-0.08503886,-0.12483790,-0.10461970,-0.11903679,-0.06464492,-0.12940238,-0.01578826,-0.03906712,-0.01853070,-0.01951906,-0.03766059,-0.05580473,-0.05360635,0.10584511,0.01459915,0.12651920,0.09544449,-0.04425471,0.03950508,-0.02585144,0.02943272,0.05866358,0.08125461,-0.03125206,-0.07168746,0.03438367,0.04323485,-0.00025238,-0.00502660,-0.08057560,-0.05913030,-0.04934033,-0.17231584,-0.15972306,0.09500008,-0.03064212,-0.08217439,-0.08616027,0.03283157,-0.07492670,-0.02371872,-0.06159293,-0.10436370,-0.07881033,-0.05134184,-0.14780352,-0.03778569,-0.01812527,-0.07066038,-0.07942798,-0.10017677,-0.05298930,0.03982893,0.07680001,0.00900811,0.05876797,-0.05050248,0.01183862,-0.00733205,0.01492401,0.01149609,-0.06488761,-0.04931585,-0.09874196,-0.03129693,-0.05545428,0.04489942,-0.03084036,-0.09548618,-0.09839509,-0.12773708,-0.16638669,-0.12329827,0.00801302,0.03102084,-0.04673287,-0.08771245,-0.07471834,-0.06193380,0.04535290,-0.06390901,-0.02973882,0.00405446,0.02258567,-0.00686880,0.00316883,-0.01508590,0.07153297,-0.09017453,0.01536314,0.02020523,0.00139822,-0.01473955,-0.01492604,-0.02216569,-0.03562776,-0.04585459,-0.15330251,-0.02562136,-0.03268722,-0.06345644,-0.09260420,-0.09001508,-0.01578601,0.07415500,0.04060531,-0.02138975,-0.03589723,-0.12598680],[0.01882515,0.04024268,0.08184928,0.00731052,-0.02904816,-0.00975238,-0.08543009,-0.08557542,-0.07442862,0.05885036,0.02786535,-0.01643388,-0.03050192,-0.01882674,0.03913407,-0.05127115,0.05779263,0.02926084,0.02193592,0.05994302,0.06477117,-0.03498699,-0.02279191,-0.07400736,-0.01551871,-0.00425572,-0.02857320,-0.04006224,0.06288380,-0.01159902,-0.06497648,-0.04131143,-0.05886559,0.00602775,0.02377420,0.04284104,0.03737647,-0.01927521,-0.05307585,0.04902811,0.05312768,-0.08888349,-0.07044909,-0.07596075,0.05569418,-0.02325513,0.06759988,0.09083059,-0.05760729,-0.03544050,0.06062360,0.05652836,0.05458048,0.04486230,-0.00902340,0.07328966,0.01861948,-0.07937449,-0.08130820,-0.05748678,-0.01831267,0.05462148,-0.05090257,0.02309044,-0.07094706,0.00003423,-0.07085650,-0.08618260,-0.01497290,-0.08416228,-0.02330754,0.00969946,0.01859160,0.05727751,-0.06046975,-0.08096378,-0.06929681,-0.09299450,0.04130007,-0.09749331,0.07037002,-0.01069136,-0.04562654,-0.07650064,-0.06405358,0.06746127,-0.04856257,-0.02887041,0.01175758,-0.09316912,-0.00730164,-0.08949603,-0.13354577,-0.09305381,0.01074849,-0.08300846,-0.03042842,-0.01079797,-0.01756422,-0.02430928,0.13185991,-0.04673500,0.00008323,-0.08629884,-0.09511466,-0.04488754,0.05141706,-0.10285673,0.04881771,0.04258026,0.06994343,0.02275212,0.05801051,0.05489389,-0.03996274,-0.08528166,0.03281389,-0.11171094,-0.02921840,0.00019279,-0.07011131,-0.03737947,-0.07543564,-0.09559094,-0.11839104,-0.00189800,-0.12278048,-0.04767351,-0.01085569,-0.15107584,-0.09693638,-0.04856858,-0.02473743,0.01393347,0.10968708,0.09885534,0.11338599,0.13433488,0.09071486,0.03853986,0.06560270,-0.08514611,0.07428205,-0.05758591,-0.02541902,-0.08248134,-0.14203118,-0.05908659,-0.01613273,-0.03900995,-0.02687388,-0.09872498,-0.08393348,-0.01903477,-0.05247667,-0.01159384,-0.00291089,0.04686287,0.00389298,0.02570147,-0.06209110,0.03436949,0.08579431,0.11315235,0.13707533,0.06982086,0.07516456,0.01323058,-0.00617813,-0.08377653,-0.07569117,-0.03798568,0.03432719,-0.06121323,-0.06597762,-0.10664525,-0.00217501,0.02828888,0.04784830,-0.07824938,0.02819954,0.02768721,-0.05158442,-0.02098013,0.02012622,0.00836063,-0.02220372,0.12887041,0.06299658,0.19208935,0.17224889,0.25791854,0.25209489,0.15831673,0.07902667,0.01136953,0.04553466,0.03691391,-0.00554772,-0.00502424,-0.06697244,-0.15283370,-0.08455695,0.09031461,-0.01297335,-0.00011936,-0.00094550,0.05841995,0.02979215,-0.05136444,0.18365234,0.21203882,0.19966274,0.21533301,0.32033432,0.24834089,0.27884686,0.26630506,0.31728593,0.13968679,0.21188511,0.14945337,0.11805404,0.11054157,0.04314163,-0.06319395,-0.06238398,-0.06528007,-0.00823228,-0.10810184,-0.07777091,-0.01096388,0.06986839,0.04291897,-0.01121554,0.03682134,-0.00303430,0.12671414,0.13214099,0.33068895,0.45933497,0.45415020,0.41740173,0.46583992,0.34598026,0.25264123,0.19649358,0.17842968,0.05896844,-0.11175911,0.02486720,-0.00638336,-0.02590407,-0.04919214,-0.06856325,-0.14714080,-0.01013292,-0.05753278,-0.03271169,-0.08186264,-0.01968384,-0.00925209,-0.09664631,0.01905688,-0.18127459,-0.07526571,-0.16794924,-0.20095018,-0.18753466,-0.12291113,-0.09932867,-0.04538291,-0.07975119,-0.20184885,-0.07117312,-0.32165527,-0.32690743,-0.23441575,-0.05112153,-0.03179971,-0.04567856,-0.03812639,-0.09318820,0.03059919,-0.03610776,-0.09620240,-0.09577971,-0.04727581,-0.10393532,-0.08693979,0.01896440,-0.11887481,-0.16806012,-0.21106394,-0.39322993,-0.55977350,-0.68045932,-0.80928695,-0.94290668,-0.94563687,-0.73196721,-0.48583093,-0.47941476,-0.49738246,-0.33732006,-0.22920728,-0.15061362,0.07264301,-0.00004279,0.04707604,-0.00674604,-0.01859375,0.10001592,-0.00052150,-0.11957354,-0.04258569,-0.09578283,-0.08649019,-0.02821237,-0.02724837,0.00460532,0.07607818,0.07948156,-0.03561765,-0.20029570,-0.28105146,-0.48347566,-0.62016487,-0.71363127,-0.68728369,-0.58058488,-0.44066051,-0.46876788,-0.27266842,-0.18912268,0.03114169,-0.04502847,0.00062388,0.06412223,-0.04000985,-0.04371424,0.04139796,0.00734254,-0.14206307,-0.02223082,-0.04922257,-0.06314781,0.10810517,-0.04206571,-0.02467473,0.03646403,0.22413744,0.05937728,0.11553086,-0.00871310,-0.09226015,-0.18995975,-0.15360655,-0.29451805,-0.27457836,-0.33745816,-0.19401191,-0.12102336,-0.02845776,-0.03826043,0.09990145,0.00693911,-0.06882150,0.07869145,-0.01520044,0.00544529,-0.01461315,-0.00505463,0.05348817,-0.00917022,-0.02388866,0.00089251,0.08245635,0.07694934,0.01304927,-0.00121546,0.02814559,0.23058750,0.20332617,0.06997963,0.05154174,-0.06647728,-0.14254443,-0.13387553,-0.05676265,-0.00421937,-0.02174483,-0.04616348,-0.01118539,0.12365745,0.02452421,0.01595534,-0.00526991,0.14001410,0.06333987,-0.06018295,-0.03953411,0.18363215,-0.04199807,-0.05457156,-0.09311689,0.02055749,0.02649317,0.16151449,0.01587092,0.03732863,0.16442934,0.21501772,0.19122177,0.03923095,0.08207019,0.00013803,-0.07004083,-0.03457503,0.00980470,-0.04615952,-0.01752267,0.08820298,-0.03916920,-0.01457950,-0.01348562,-0.08759191,-0.00932270,0.04993724,0.02340346,0.00139146,0.00542884,0.05891880,-0.08263928,-0.03585235,-0.05459140,0.00307741,-0.01319518,0.00642938,-0.01911286,0.08135082,-0.05061617,0.02215784,-0.03621376,-0.02121118,0.02078451,0.02737340,-0.10177337,-0.02808013,0.01699180,0.04261199,-0.01649823,0.03359579,-0.06110298,-0.06938702,-0.02157282,0.07944167,-0.07509158,0.00340260,0.09835829,-0.07625668,-0.00953134,-0.01605885,-0.02097322,0.01381693,0.09419566,0.11307926,0.00689988,0.01031337,0.03566899,-0.04447515,0.10571001,0.09755545,0.01781902,-0.05944113,0.01538480,-0.08900090,-0.07365452,0.01381016,0.08233650,-0.00998032,0.01701998,0.13885500,-0.07527142,0.02485442,-0.02544614,-0.00013615,-0.01973255,-0.02234156,-0.05537388,-0.06815756,0.11039197,0.02400544,0.12476965,0.01582603,0.00588367,0.01529186,0.00245324,0.08909761,0.01865226,0.12108856,0.03396792,0.04417957,-0.05256204,0.05015603,-0.05724991,0.03023100,-0.03626365,-0.02181473,-0.01209341,-0.01231107,-0.14952101,-0.00256808,-0.00214021,0.02745994,0.03013745,-0.03882216,-0.04018832,-0.03501769,0.10964267,0.05123732,0.03881180,0.10431194,0.08517239,0.11461502,0.05020174,0.06570284,-0.01520321,0.11426596,-0.02036089,0.04359494,-0.04347042,-0.05313335,-0.02087777,-0.04488799,0.03891817,0.10124571,0.07533711,-0.06298765,0.08560337,0.10294677,0.05433534,0.01075141,-0.01215682,0.14793746,0.06267569,-0.00848724,0.15655270,0.02503212,0.05824641,0.11005811,0.09948443,0.06892034,0.04095505,0.02990911,0.05034892,0.12720662,0.13986792,0.08469858,0.05026411,0.00553852,-0.05178791,0.01775084,-0.10325984,0.05005384,-0.02743035,0.01290967,-0.05623693,-0.06951617,0.04627950,0.00731912,0.09422190,-0.08667977,0.03182391,-0.12606677,0.05235234,0.06535720,0.07697310,-0.05546399,-0.00205024,0.06358588,0.10932701,0.06084118,-0.02458255,0.03804839,0.02214985,-0.01067976,0.01298934,0.04040707,-0.05467926,0.03945966,0.01203319,0.02396975,0.02296151,-0.00026160,0.03234967,-0.02142949,0.01042391,0.04156148,-0.01398072,0.08070878,0.10763640,-0.00542141,0.06661440,0.11235014,-0.01636752,0.00659140,0.01927474,-0.01679077,-0.00700278,-0.08395466,0.09040014,0.05284192,0.03729955,0.09749846,0.03478515,-0.03997606,0.06249410,0.00128231,-0.04583213,0.03171108,-0.08819377,0.09127744,-0.01067613,-0.13138813,-0.00796943,-0.04905548,0.05718265,0.03216800,0.00542053,0.09445868,0.03731461,0.02048738,0.09202100,0.00124621,0.04226761,0.03061121,-0.02350333,0.05343018,0.10073498,0.00786934,-0.04350945,-0.04775670,-0.06477395,0.06679878,-0.03946707,-0.03305732,-0.02671705,-0.05633783,0.04873256,-0.04447166,0.01218165,-0.02375349,0.00872851,-0.02737958,0.02343562,-0.06252215,-0.07221247,0.07164253,0.05618776,0.00918093,0.01033598,-0.06324203,0.06398782,-0.00058198,0.04651070,-0.06466420,-0.01081179,0.06368674,0.08983672,0.10034914,-0.06525237,0.06821110,-0.02302829,0.04669628,0.04997354,-0.02291299,-0.00993551,-0.00970315,0.03338668,-0.12302354,0.05463760,0.01480862,0.00791027,-0.06436191,-0.02417346,0.00975503,0.08295410,-0.05418001,0.02663323,-0.03313801,-0.08529774,0.02938266,0.07948928,-0.00019533,0.01005053,0.03478588,0.03415997,0.08680416,0.08015677,-0.01627601,0.08443374,0.00150965,0.03638303,0.01233598,-0.05053948,-0.05950749,0.01360976,0.02423496,0.05029181,-0.02690073,0.06253466,0.00918406,0.03408132,0.08393376,0.03493838,-0.17158286,-0.00067191,-0.02783908,0.06248581,0.03037422,0.06944401,0.05735475,0.04496401,0.03703808,-0.03196564,0.01090637,0.01222935,0.05436381,-0.05662394,-0.01810247,-0.02672414,0.04599526,-0.03217264,0.05846558,-0.03715050,-0.01611725,0.08464196,-0.01689315,0.05837332,0.11513173,0.08030928,0.13724190,0.16245678,0.02364383,0.01328914,0.01828322,0.04995300,0.06768449,-0.03899179,-0.04236330,-0.09142204,-0.06121076,0.12534457,0.04962580,-0.00651326,-0.06178173,-0.06448016,0.04125854,0.07722832,-0.02700773,0.06255803,-0.03937088,0.03037245,0.00699639,-0.06427018,0.07742646,0.03973662,0.11187710,-0.01161409,0.03386965,0.10880517,0.02715890,0.09844984,0.01820855,0.01202262,0.08822762,0.00277271,0.05752067,0.01305198,0.01177443,-0.04440580,0.01107590,-0.03812872],[-0.02510161,-0.08312064,0.05897919,-0.07732692,0.04747730,-0.02898662,-0.01126773,0.02633180,-0.04328578,-0.07504088,-0.06713474,0.01121531,0.06155524,0.01877539,0.05371836,-0.04687320,-0.06797709,0.02405671,0.07597141,0.02240846,0.02886757,-0.02514680,0.03214462,-0.01149144,0.08067223,-0.01257992,0.00676051,0.08558910,-0.07525925,-0.05961707,-0.00572579,-0.00777866,-0.03451648,0.03375354,-0.02243431,0.03687293,-0.06323732,-0.00807481,-0.04881438,-0.05603080,0.03599779,0.12735319,0.05822627,0.08653121,0.10323461,0.10470644,0.09704439,0.05289334,0.01940258,-0.02771828,0.00141789,0.08203191,-0.04387538,-0.05837033,0.00705316,0.03478465,-0.04983976,0.01931742,-0.06181963,-0.00638423,0.07745951,0.02375722,0.04910263,-0.03037572,0.03758331,0.12283491,0.04613471,0.17318660,0.20182127,0.28057688,0.16591854,0.09611584,0.17811242,0.20752287,0.15033546,0.02421894,0.15442052,0.11896470,0.00406247,0.02440197,0.09424761,0.06625977,0.08340524,0.06800975,0.06426727,-0.07169960,0.04730155,-0.03623366,0.05000581,-0.05170140,0.08214050,0.04895866,0.13573791,0.26080239,0.16785635,0.31662202,0.24592005,0.34031150,0.23258354,0.26630411,0.20020542,0.24066259,0.20188144,0.24574125,0.20306255,-0.04345535,-0.01314022,-0.05554680,0.05796916,0.07891705,0.08519403,-0.06230314,-0.02333544,-0.00132676,0.06395208,0.01376508,0.06808568,-0.02531926,0.10778945,0.07021349,0.18525086,0.07834837,0.13690571,0.08666644,0.14392340,0.07919040,0.11010478,0.19093575,-0.02914910,-0.00483762,0.02956338,0.09263530,0.04090085,0.04187120,0.07118479,-0.00674164,-0.02276550,0.03233509,0.05115312,0.08025249,-0.02063129,0.02096018,-0.06376897,0.03204785,0.00502030,-0.02735353,0.01767035,-0.01967248,0.06711926,0.17192963,0.08793227,0.11078116,0.10758478,0.06254850,0.08599679,0.02411785,0.12344769,0.09601385,0.08856734,0.13565686,0.04781239,0.04736647,-0.00317313,0.03605795,-0.02602077,0.08905981,0.08025848,0.04869588,0.07512672,-0.05274348,0.02970250,-0.04301228,-0.07433040,-0.07159324,-0.05873320,-0.08083544,0.03231487,0.05996579,0.05322399,0.03335863,0.06966362,0.09200603,0.02008391,-0.06324393,-0.05815978,0.01253960,0.06598441,0.07554990,0.13535939,-0.00425250,-0.03476253,0.01200375,0.04559697,0.10324109,-0.05886698,-0.06098923,0.05765031,-0.05223721,0.02628038,-0.00768895,-0.04942412,-0.07447973,0.06253225,-0.06157288,0.01888092,-0.10288157,-0.01373600,-0.00312849,0.03315260,-0.03587095,-0.12807363,0.06508836,0.02059650,-0.00559689,0.11543216,-0.00706955,0.06794424,0.02670167,0.03426081,0.01759863,-0.07206169,-0.08209477,0.04465425,-0.02669547,-0.02263452,-0.06286640,-0.03745696,0.04350709,-0.01397290,0.00628994,-0.03664207,0.05354848,0.00930998,-0.05599460,0.05748654,-0.04810951,0.04210274,0.11262529,0.07136459,-0.03906592,0.09255087,0.02461828,-0.04365504,0.09204177,0.07758649,0.09694721,0.02010856,-0.02775857,-0.07055601,-0.02989366,-0.06925181,0.04362786,-0.06178710,-0.04039612,0.04962418,0.02886097,-0.03576612,-0.01768807,-0.08837044,-0.03642725,-0.03013070,0.04376452,0.00614338,-0.02853376,-0.02053085,0.01396793,-0.11732693,-0.12761797,0.03052813,0.00198509,-0.04139389,0.03380816,0.01691307,-0.02494512,-0.01799071,0.09666703,-0.09226975,-0.04681602,0.05772816,0.07400177,0.03416454,0.01015144,0.01521056,-0.10682742,0.01813083,-0.08896378,-0.10927681,0.01729576,0.03392972,-0.16447562,0.01394833,-0.05581202,-0.02700414,0.02639206,0.00795817,-0.06043494,-0.01318838,0.04561128,-0.07745099,-0.07149107,-0.11344994,0.02918563,0.02033439,0.10592917,0.01890896,-0.07121047,0.07409369,0.01488222,-0.01321680,-0.03169593,-0.03740179,-0.01349421,0.09058368,-0.02756941,-0.07902814,-0.08759270,0.04119514,-0.04836113,-0.12584770,0.00659960,-0.08495010,-0.07786908,0.14747930,0.03621873,-0.07227850,-0.02964380,-0.07424227,0.10378317,0.01760222,-0.04173933,-0.08009792,-0.12409668,-0.05250343,0.05147038,0.07477441,0.00476416,0.00067867,-0.02505235,-0.02403002,-0.06033491,0.03249364,-0.11969877,-0.05421088,-0.08675585,-0.13694982,-0.03360054,-0.06158896,-0.05149439,-0.01823367,0.00624207,0.05070836,0.07800822,-0.04876458,-0.02011102,-0.11733826,-0.11388864,-0.03430335,-0.01550653,-0.06166648,-0.09248411,-0.00260749,-0.08800311,-0.07385214,-0.00183431,0.01692284,-0.08733319,-0.10752799,0.03615407,-0.14252040,-0.10963718,-0.05169056,-0.03283400,-0.08941720,0.00748671,-0.16013704,-0.07747953,-0.06721641,-0.05657211,-0.02038407,-0.04840753,-0.05396319,-0.08206296,-0.01779462,-0.07715514,0.01800960,0.01973512,-0.17052808,0.00550441,-0.02922158,0.09676475,0.00418335,0.02978361,-0.04700410,0.07778725,-0.08743308,-0.05424278,-0.11873128,0.03435525,-0.05794722,-0.02925777,-0.02902482,0.18575238,-0.08204722,0.05333208,-0.03205210,0.06782770,-0.06977028,-0.06650084,0.14895819,-0.07834616,-0.03996321,-0.08986261,-0.00825802,0.00007178,-0.00228988,0.06620673,-0.00332816,0.04974915,0.01989089,-0.04156429,0.07935978,-0.03769014,0.01807751,0.01553223,-0.08286853,-0.11645409,-0.06913453,-0.14090577,-0.05162974,-0.10689792,-0.07985856,-0.02543017,0.06762411,-0.01969445,0.03934005,-0.06128529,-0.01504937,-0.16381902,-0.03335772,-0.06832284,-0.02024334,0.07866710,-0.01176543,0.03910708,0.03796878,0.01961482,0.00434903,0.05676094,0.03364119,0.03564975,0.04746605,0.11241073,0.06787527,-0.14468141,-0.05482316,-0.06443462,-0.11765790,-0.05545402,-0.01831222,-0.01108961,-0.16368131,-0.06849448,-0.01691814,-0.08014590,0.01239309,-0.05872307,-0.06370894,-0.07278577,0.02474418,0.04990367,0.02700773,0.03558060,0.02667971,0.05871662,0.06787067,-0.04544777,-0.05186492,0.07229543,0.12066628,0.09757558,0.13640460,0.11391166,-0.00578245,0.12299509,0.01804588,-0.01026652,0.06578531,-0.11586875,0.00043564,-0.24878111,-0.03193929,-0.13922580,-0.17109743,-0.01115579,0.01779504,0.10278047,0.07143038,-0.00317741,-0.04703272,0.02339296,0.00723353,0.00175428,-0.03250046,0.06758256,0.06455641,0.09325989,0.14954929,0.18597694,0.19023652,0.15300518,0.06013371,0.05796034,0.04323465,0.02567619,0.00486706,-0.16000053,0.02837429,-0.28325301,-0.12360245,-0.08781986,-0.03020157,-0.02179145,-0.08829974,-0.05933927,-0.06027716,0.04581818,0.05325916,0.11099866,0.20374943,0.08682886,-0.03188723,0.05031231,0.00376912,0.04597813,0.04168087,0.12816079,0.06340422,0.18595742,0.06170350,0.09765025,0.09958476,-0.06307406,-0.02997249,-0.12841292,-0.03800175,-0.13489997,-0.14293963,0.00617605,0.00862712,0.05147064,0.05825568,0.02670347,-0.03672823,0.04429916,0.12422395,0.11927295,0.08958251,0.05828445,-0.06653830,0.02326454,-0.02331142,0.03100170,0.08412507,0.15794015,0.22831850,0.13823834,0.21201104,0.17871787,0.18217777,0.16911006,0.19343805,0.27622271,0.21826926,0.25209406,0.22113843,0.23697633,0.18797600,0.20140228,0.19860946,0.14141147,0.15653285,0.08444899,0.17749695,0.14329220,0.11936914,0.08697239,-0.05956898,0.05708217,-0.01208704,0.11543179,0.12999856,0.12883614,0.23217198,0.12709101,0.29934856,0.30269659,0.25309339,0.29290670,0.31339252,0.30615386,0.33721089,0.32014409,0.19095173,0.24925916,0.22052187,0.28365210,0.08878241,0.24516962,0.21779701,0.03208033,0.19136237,0.19799484,0.02768376,0.00725664,0.07978730,0.03378918,-0.02699366,0.00073086,0.02191865,0.09288655,0.14696996,0.03333864,0.07183155,0.18299486,0.14000815,0.17648327,0.15901861,0.16318382,0.18888707,0.26544762,0.24443270,0.27135170,0.23637603,0.05661266,0.13132954,0.26042378,0.13326028,0.11948840,0.08817399,0.08211252,0.11158337,0.02009236,-0.01732054,-0.01359206,0.01475634,0.10858035,0.07459355,0.05815383,0.05030021,0.12987325,0.08894433,0.02966864,0.09275386,0.08900903,0.03516626,0.18442164,0.16776207,0.10863871,0.23545457,0.17897581,0.12060763,0.20169523,0.10691608,0.16571137,0.06547122,0.10304879,-0.02379313,0.06081481,-0.00230279,-0.05819423,0.04510451,-0.03506330,0.05748442,0.06721203,-0.01354116,0.05778382,0.09096442,0.19102913,0.14724411,0.10399744,0.07888271,0.08019246,0.06831054,0.06896237,0.11504577,0.07463227,0.02734062,0.04291729,0.15122747,0.08575380,0.11697935,0.15178493,0.01292047,0.01961060,0.06557016,0.01405339,0.04151775,0.05738813,0.04763252,-0.02568227,-0.04683061,-0.04735498,0.06472195,0.01615988,0.06127599,0.10711807,0.09175739,0.09653019,0.15567064,0.02635535,0.02969769,0.01720762,0.09555783,0.01638200,0.08344093,0.03816367,-0.02048225,0.14281258,0.03122384,-0.02382244,0.08701051,-0.01701989,0.02094515,-0.08077035,0.03693273,-0.15477151,-0.09764862,-0.08537834,0.02860515,0.00601450,-0.03288002,0.01404354,0.03155288,0.04020950,0.09207734,0.10788573,0.06844287,0.14955534,0.09253459,-0.02853809,0.02037062,0.02927744,-0.05445508,-0.01514457,0.00126696,0.02775335,-0.08583477,-0.03975298,-0.05304279,-0.08837219,-0.02773093,0.00470685,0.04416484,0.04792688,0.04447709,0.03853657,0.02523375,0.02745889,0.04134561,0.03175784,0.09545208,-0.04943591,0.01367165,0.08364771,-0.01181744,-0.13585478,-0.09273228,-0.08155429,-0.06389728,-0.15866461,-0.11433893,-0.07827302,-0.12934002,-0.03513992,-0.01020369,-0.07797270,-0.10194761,-0.01407121,0.00422033,-0.00316129,-0.07390974,0.04247227,0.07582324,0.13178296],[-0.03502292,0.04416045,-0.06210502,0.01618147,0.07477695,0.03919465,-0.02570856,-0.05195833,-0.04953798,-0.04084985,-0.06769444,-0.02435205,-0.00421046,0.04325427,-0.01476426,-0.09350481,-0.06797404,-0.10306508,-0.00957870,0.00350597,-0.01621273,-0.10742497,-0.08739758,0.05959858,-0.07474312,-0.00811904,0.06618118,0.02826296,-0.03823530,-0.02608957,-0.07614551,-0.01970574,0.02540177,-0.09808809,-0.09683159,-0.10773476,-0.11819660,-0.14100811,-0.07535692,-0.15126613,-0.07109832,-0.09549419,-0.15571824,-0.22956969,-0.09646396,-0.15734223,-0.19986884,-0.09813875,-0.03683483,-0.03267989,-0.12304354,-0.00343022,0.01912176,-0.06061173,0.00633590,-0.00006054,0.01768053,-0.04650362,0.03167149,-0.00715285,0.03090915,-0.10208116,0.02429050,-0.01892865,-0.07715648,-0.16200580,-0.19698374,-0.21129969,-0.14704014,-0.12199242,-0.25849104,-0.26067734,-0.25161770,-0.19309209,-0.14171799,-0.04567626,-0.12040140,-0.04360760,-0.09996232,0.05244367,0.02714934,-0.04842513,0.07973061,0.04843254,0.06485184,-0.06410207,0.04602712,0.00793862,-0.09936775,-0.02187794,-0.18890309,-0.11875430,-0.08311275,-0.23279071,-0.17767023,-0.25937060,-0.15395449,-0.22134480,-0.27345368,-0.21548004,-0.15822458,-0.19833592,-0.02344560,0.00534997,-0.02510261,-0.00591654,-0.07820071,0.01167946,-0.05499291,-0.07161523,-0.08385957,-0.08744266,-0.04861882,0.03406442,-0.02297621,0.01778894,-0.14616355,-0.08508173,-0.07300275,-0.11823826,-0.27691129,-0.31391263,-0.32840976,-0.28389528,-0.32846010,-0.24697495,-0.26185200,-0.10078279,-0.10632497,-0.09733446,-0.10328639,-0.12775305,-0.13859242,-0.00349040,-0.04161732,-0.01909461,0.01814343,-0.01421741,-0.02826017,-0.05791685,-0.00578826,0.05611204,0.00901188,-0.01583556,-0.10240955,-0.11100594,-0.17875688,-0.23761836,-0.19162931,-0.30481225,-0.31104806,-0.18509533,-0.19746792,-0.11903188,-0.02232264,-0.10718530,-0.18669131,-0.06562710,-0.06584973,0.01698577,-0.03153383,-0.14705123,-0.09208741,0.01866674,-0.01961247,-0.09783412,-0.05120975,-0.01102765,-0.04499336,-0.07350328,0.01543795,-0.05678160,-0.06708368,-0.22102386,-0.20426916,-0.23372345,-0.24861194,-0.17605036,-0.13934444,-0.14182563,-0.01165302,-0.10111758,-0.15444538,0.06605227,-0.08858406,-0.01839998,0.00199391,-0.00409205,0.03261689,-0.00380789,-0.06235228,-0.05438221,-0.01172168,-0.09390794,-0.01945977,-0.01077615,0.06635732,0.03297836,-0.05656992,-0.03684913,-0.21041138,-0.22830915,-0.12459416,-0.13437206,-0.14497820,-0.07289763,-0.09101421,-0.00813888,-0.05901440,-0.15933542,-0.07966653,-0.06573807,-0.02569171,-0.00203148,0.08099183,0.03868025,-0.04629394,-0.00219645,-0.04956338,-0.09399367,0.00067058,-0.09722793,0.00096279,-0.04416268,-0.01002510,0.07745726,-0.09019738,-0.10994659,-0.17723559,-0.10768380,-0.10912091,-0.02890499,-0.11420859,-0.07660061,-0.14315182,-0.15276571,-0.08384770,0.11962115,-0.02398177,-0.08946241,0.00092694,-0.08440803,-0.01215811,0.07253552,0.06405009,0.04965448,-0.08754212,0.03171499,-0.04958266,-0.01530541,-0.00604674,-0.08307697,0.06067394,0.04901157,-0.06368919,-0.12557670,-0.13600133,-0.14433803,-0.09393498,-0.17773211,-0.14095818,-0.13312706,-0.18286560,-0.08252397,-0.08369066,-0.09088878,-0.18585554,-0.08435417,-0.00705014,-0.00447395,-0.09910282,0.00512550,-0.10607654,-0.09035355,-0.14236973,-0.03203527,-0.01256245,-0.04139492,-0.02862521,-0.00268384,-0.08047646,-0.04971794,-0.08322318,-0.10535731,-0.15057090,-0.20058568,-0.04446014,-0.15586491,-0.01230453,-0.06103962,-0.07245636,-0.20627277,-0.20725711,-0.04541815,-0.24271041,-0.07431144,-0.02040608,-0.09570465,-0.03268763,-0.11687637,-0.09965567,-0.17620420,-0.11419773,-0.18225653,-0.07548182,0.00759559,0.07743132,0.03597918,-0.06974636,0.02045771,-0.03730387,-0.05809897,-0.17099044,-0.00624089,0.04353419,-0.00019102,0.05827335,-0.05435214,0.13436916,0.02189686,-0.13298631,-0.16103308,-0.17615929,-0.05975877,-0.30568933,-0.28154829,-0.27847838,-0.13215916,-0.09225131,-0.01691299,-0.01321897,-0.05275590,0.22399139,-0.02573599,-0.08040918,0.03647998,-0.02776694,-0.06863706,-0.10318841,-0.02289565,0.01224848,0.03705994,0.13981843,0.12260286,0.07319136,-0.00271443,0.00956451,-0.06523429,-0.01640910,-0.20688318,-0.30863434,-0.23909794,-0.33997864,-0.19413815,-0.23576117,-0.09348316,-0.00150553,-0.05291678,0.06339917,0.11033573,0.10098518,0.12681574,0.03124403,-0.03263738,-0.02169082,0.03988741,0.07715032,0.04578154,-0.00804318,-0.03674579,0.01660874,0.11209997,0.01898160,-0.01922844,-0.00859646,-0.08845465,-0.15727367,-0.09144415,-0.03123023,-0.15593337,-0.12999229,0.03158458,-0.05469709,0.08702239,0.10112916,0.14390506,0.21376047,0.13177024,-0.01474664,-0.01566873,0.04688004,-0.06723494,0.04316844,-0.02969996,0.03013680,0.01265729,0.11979584,0.00120967,-0.00286390,0.00041735,0.12819517,0.12078740,0.14572720,0.13839693,0.05714400,-0.09273671,0.04934667,-0.02124090,0.12021111,0.13230215,0.08278942,0.09466223,0.09962104,0.18447249,0.09447931,0.20372273,-0.01714859,-0.01958673,0.05366989,0.04959106,0.01948048,-0.01186156,0.00250315,0.03106267,-0.07206050,-0.01644213,-0.02939052,0.03278661,0.04492478,0.09163936,0.17936836,0.22553985,0.34382355,0.19186863,0.02314143,0.26791763,0.03468240,0.12349725,0.13575061,0.17552301,0.17526630,0.18048085,-0.04089719,0.06321757,0.08673102,-0.01408242,0.03324969,0.08114472,-0.00990840,0.00210438,0.09366202,0.13189159,0.10160691,0.15993313,-0.01868374,0.09976964,-0.01092979,0.08588821,0.13516377,0.13175532,0.21656184,0.06784751,0.10545806,0.10815151,0.05155326,0.19440523,0.09172459,0.04897757,0.00697431,0.02372887,0.00498409,-0.01351132,-0.03977584,-0.00906529,-0.05448139,-0.02488801,0.04062708,0.04946857,0.05898890,0.12583354,0.04575080,0.12791945,-0.00586158,0.10766588,0.13306639,0.09926452,0.10866159,0.05900643,0.25169483,0.16790721,0.23248433,0.27134231,0.14401659,0.07891500,0.08460608,-0.02790932,0.02850161,-0.03834056,-0.04906784,-0.01943281,0.05061644,0.03158821,-0.02000259,-0.06921987,0.00384476,0.06457947,0.00883303,0.15137824,0.11935385,0.12913975,0.10098723,0.02975971,0.11251906,0.10636812,0.03492971,0.12030845,0.17287648,0.15251793,0.25592920,0.18873428,0.20897937,-0.03985202,0.08701094,-0.06078742,-0.00987834,0.06698382,0.05335457,0.01704882,0.00080535,0.07111198,0.02236605,0.00068391,0.07971910,0.08204493,-0.01291047,0.01906437,0.02421194,0.01435460,0.12651724,0.06114725,0.01323303,0.09275009,0.19910470,0.14268781,0.18741894,0.24566118,0.24709576,0.10960453,0.05820180,-0.03449900,0.08832722,0.01227432,0.00089491,0.00684859,-0.02791543,-0.01099696,0.04891538,-0.04206903,0.04171682,-0.01910431,-0.04982935,0.02084456,-0.01466179,-0.00232517,0.00067813,-0.03579963,-0.05681646,0.05159944,0.08146766,0.11663007,0.13066997,0.03413010,0.07899648,0.07884447,0.10184330,0.14833710,0.00807185,0.21708678,0.08267809,0.02869982,0.05737034,-0.06705094,0.05010029,0.07959647,0.14124212,0.08861447,-0.01211571,-0.01193454,-0.01138123,0.04326101,-0.08152564,0.00122577,-0.10798327,-0.01198990,-0.07725798,-0.04122284,0.03312741,0.02265062,0.08899566,-0.05434927,-0.02083053,0.03481003,-0.02900830,0.05225518,0.03883942,0.00373372,0.18940237,0.02182725,0.02419251,-0.01810556,0.08632261,0.07585321,0.05833424,0.02702262,0.07202318,-0.06319805,0.07002275,0.03816886,-0.01585102,-0.07622780,-0.06179146,0.04987674,0.02116928,-0.04746305,-0.08417949,-0.08327545,0.01298284,0.03192110,-0.01854526,0.05490641,0.02167246,0.01409815,0.03418648,-0.00858904,0.00683997,0.06695677,0.11395579,0.02823237,0.22993624,0.20133618,0.06981220,-0.00632449,-0.01020262,-0.01994448,-0.05219346,0.02614736,-0.10637050,0.04210522,-0.02428214,-0.00937049,0.14991297,0.03933880,0.08870176,-0.00926930,0.05945390,0.05945352,-0.00931485,-0.03145071,0.03639014,0.08204346,-0.00727787,0.12511249,-0.00292397,0.05362013,0.11227962,0.16785966,0.29498819,0.24860017,0.06162519,0.05493942,-0.04403732,0.06069639,-0.04268955,-0.04259423,-0.01046122,-0.06290928,-0.06637809,0.02447647,0.03200085,0.06218044,0.10277443,0.11933421,0.07028016,0.12791803,0.03137635,0.00553107,0.01190361,0.08053593,-0.04421829,0.03303777,0.09806419,0.02127643,0.09833097,0.09794208,0.18287440,0.13851839,0.12138979,0.08215785,0.02124364,0.07991075,-0.08513241,0.06144491,-0.06823493,0.02323949,0.07591373,0.09860707,0.06129194,0.06451146,0.06109750,0.02520885,0.08562572,0.02999996,0.05102468,0.00060509,0.07826094,0.01969673,0.04308267,0.05772645,0.15295051,0.10789631,0.06032849,0.17479245,0.08354121,0.00290492,0.06797758,-0.15276238,-0.06983717,-0.17083021,0.00377968,-0.06706840,0.02730617,0.02446949,0.07037509,0.00534644,-0.04971635,0.02545587,0.03869762,0.11571261,0.02524026,0.06282482,0.06335158,0.03078465,-0.00387851,0.11232638,0.16050711,0.07631958,0.14174637,0.10538435,0.20116352,0.12846023,0.13865589,0.04497957,-0.00084319,0.01257920,-0.03807668,0.09454577,0.04786310,0.00274836,-0.01732841,-0.05182479,0.01822748,-0.09123201,0.00106761,-0.04222327,0.01775085,0.02465652,0.10769481,0.03407212,0.16602623,0.23037143,0.08524080,0.14411785,0.10489023,0.16216530,0.05484678,0.13594821,0.05879705,0.05765681,-0.05262425,-0.02814071,0.05957369,0.00519608,-0.06306070,0.07686675],[0.05242773,0.04614516,0.01531892,0.06548599,0.07408112,0.04241572,-0.03877853,-0.03296567,-0.04854215,0.10680803,0.08197459,0.02026900,0.11188713,0.11920186,0.08296593,0.02089588,0.07168721,0.10935421,0.04243013,0.01026885,-0.05929514,-0.04468724,-0.04630015,-0.02422349,-0.02879816,0.00400115,-0.07279107,0.05222853,0.04186485,-0.02179202,0.02197989,-0.02053105,0.08630594,-0.00432306,0.02245476,0.02925117,0.10668173,0.13933434,0.13092262,0.16239563,0.12957101,0.01926280,0.17167777,0.09802467,0.11425822,-0.01600732,0.05741486,0.02422677,-0.04399843,0.07336985,0.01236451,-0.00859587,0.02599950,-0.06288709,0.04423384,-0.00297554,0.08259369,-0.07418991,0.06134782,0.04753533,0.05919491,0.08544066,-0.02781084,0.04218315,0.11674402,0.15082639,0.14651889,0.14864504,0.07976360,0.05630642,0.03711611,0.07849031,0.07752163,0.10108437,0.07700393,-0.04414287,0.03554601,0.08885694,-0.04649234,0.01955095,0.01349884,0.01027695,-0.04134249,0.05259929,-0.01553572,-0.02109823,0.08273361,0.02790521,-0.05337323,0.01856155,0.13384512,-0.02313708,0.06731855,0.09359962,0.03646319,0.04837415,0.02307852,-0.08179612,0.03552954,-0.06077046,-0.02247423,0.05915102,-0.05568196,0.02172547,0.01411176,-0.04871805,0.02601419,-0.01381014,0.07229985,0.00173007,-0.07644247,0.03576808,0.01716102,-0.05839930,-0.07455533,-0.00222653,-0.00236237,0.03529316,0.07091177,0.01165959,-0.00406851,0.01096666,0.01320696,-0.06350584,-0.16506661,-0.12921685,0.04375401,0.04354149,0.01179601,-0.02507631,-0.13732111,0.00754515,-0.14887269,-0.10172820,-0.06221374,0.06681191,0.05218344,-0.01620998,0.01182336,0.02042438,-0.01227114,-0.02787529,-0.06035480,-0.02151709,0.03405685,-0.03507777,0.00270211,-0.07198012,-0.03579775,0.08885850,0.02483346,0.03009379,-0.08172113,-0.07960813,-0.08623838,-0.01452178,0.01439342,-0.02834525,-0.00569462,-0.00779214,-0.08219868,-0.04920469,-0.03796992,-0.09647749,0.05834904,-0.03106960,0.02255301,-0.03516587,-0.01143640,-0.07179960,-0.02388391,-0.03367253,-0.00577191,-0.08682065,-0.06808224,-0.11156332,-0.10235111,0.06214236,-0.07629260,-0.09436227,0.09228023,-0.07552575,-0.20244673,-0.06618527,-0.14365011,0.01091518,-0.07587869,-0.07605340,-0.13726760,0.00068280,-0.03997274,-0.08996505,-0.01533010,0.05601618,-0.06688695,-0.05001830,-0.06175204,-0.02612438,0.00758902,-0.09514202,-0.08425207,-0.04167358,-0.13928574,-0.13242921,-0.02765144,-0.01414611,-0.10948514,-0.17294461,-0.05192715,-0.09122805,-0.13483194,0.01512277,-0.14114824,-0.09706028,-0.01500163,-0.13563110,-0.08068054,-0.03353621,0.06600923,-0.06567857,-0.13455619,-0.01595182,-0.07586785,-0.02761835,0.01475914,-0.09040534,0.04495186,-0.02974789,-0.01544919,-0.12412565,-0.12513396,0.02599923,0.07790964,0.02172836,-0.12047525,-0.02630206,-0.15304340,-0.12260259,-0.08784936,-0.04717854,-0.04285981,-0.10588472,-0.00035231,0.06436201,0.03424449,0.01512935,-0.02670991,-0.01401836,0.01886554,-0.06471182,0.00178616,0.00641178,0.06330609,-0.08646292,-0.07333685,-0.08406895,-0.07476735,-0.04986768,-0.05454744,0.00100990,-0.04058274,0.04118973,-0.04787359,0.06791673,-0.08245197,-0.09471720,0.01622528,-0.19869344,-0.06374918,-0.11300324,-0.06759354,-0.00585542,0.09458089,0.02937619,0.07036695,0.11654100,-0.04686577,0.06001907,0.08146954,-0.00094883,-0.07192177,-0.01084326,0.00579367,-0.14474805,-0.04860562,-0.04891878,-0.00226622,0.00299071,0.00011697,0.01284471,-0.03376450,-0.06855838,-0.10942552,-0.16405623,-0.00737823,-0.28488395,-0.14095974,-0.05415817,0.04599623,0.07572292,0.01519389,0.03011266,0.08201107,0.16334459,0.05059296,-0.02899658,0.04876750,0.06738434,0.02784663,-0.09900122,-0.13816224,-0.03401178,0.01599589,-0.00012147,-0.06521735,-0.13302083,-0.05440285,-0.09833965,-0.01760482,0.07609797,-0.12434470,-0.07170315,0.02070495,-0.22436021,-0.06012332,-0.16684008,0.04523921,-0.03934891,0.04419997,-0.01577950,-0.05573064,-0.00891935,-0.01580689,-0.01010099,0.02054628,-0.04989808,-0.06249762,-0.06557855,-0.10259569,-0.12202397,-0.04198884,-0.00670497,-0.01471779,-0.02641079,-0.05482935,0.09855589,-0.10046127,-0.03261800,-0.11363198,-0.21196681,-0.09636404,-0.26513985,-0.13863713,-0.03528004,-0.08736388,0.02404558,-0.00897780,0.04422169,-0.01607682,0.12950329,-0.01413682,-0.08911625,0.01744918,-0.01455681,0.07147410,0.02557917,-0.05048828,0.01895602,-0.10550939,-0.03239115,-0.00601481,0.15957864,-0.00060342,-0.00625521,-0.19071877,-0.28966349,-0.17147352,-0.09402902,0.07475943,0.10076366,-0.23079550,-0.28311875,-0.18489692,-0.24232596,-0.11993467,-0.20440982,-0.15372881,-0.07164489,-0.03278683,-0.01799576,-0.04183280,0.01030992,0.00860432,0.03396678,-0.04125746,-0.08440990,-0.10238791,0.06942695,-0.04249846,-0.09912790,-0.07239983,-0.06286126,-0.27824274,-0.15425347,0.07774906,0.18100782,0.22125269,0.13113673,-0.07834533,-0.09506601,-0.05048393,-0.19588283,-0.20697574,-0.20179836,-0.17184342,-0.12519573,-0.09083175,-0.00813593,0.09581068,0.00237633,0.03073488,0.06577421,-0.10385524,0.04159239,-0.16134530,-0.05186359,-0.10258103,-0.06933051,-0.17634377,-0.10510283,-0.10674756,-0.00865039,-0.05550696,0.10471037,0.10830380,0.20717672,0.02709910,0.02608245,0.02637471,-0.09711342,-0.17021105,-0.30771837,-0.29625171,-0.25871614,-0.20826271,0.08780479,0.07723437,0.00179758,-0.01496002,-0.05691976,-0.06124393,0.03247824,-0.04061267,-0.00159264,-0.05511218,-0.10190096,-0.10252620,-0.15015985,-0.02566166,0.01923520,-0.02657334,0.19285610,0.19816819,0.20338921,0.14324199,-0.14414044,-0.12559305,-0.14263634,-0.07392300,-0.20537251,-0.17136797,-0.29014471,-0.22954890,0.05094516,0.00752827,0.08741523,-0.03338851,-0.02445809,0.06069733,-0.02885661,0.00079092,-0.03580678,-0.15351287,-0.22144231,-0.12271678,-0.10400101,0.02894961,0.07255861,-0.05670569,0.05666758,0.33734307,0.16467243,-0.03304616,-0.03194642,-0.05988066,0.06824887,-0.03324583,-0.02789395,-0.03549527,-0.06311948,-0.09757645,0.11877875,0.08519549,0.06655544,-0.05538363,0.02670102,-0.01518287,-0.00053108,0.01537219,0.02358957,-0.00476595,-0.05492999,0.00989413,-0.11948071,-0.01804692,-0.06942171,0.07805047,0.05182985,0.27942055,0.29445514,0.20346828,0.08124185,0.09468659,0.22476631,0.13637488,0.07585740,0.09942129,0.04480590,0.09868606,0.16291362,0.03482867,-0.00771019,-0.07858004,-0.05027573,0.12787451,0.03151258,0.14862226,-0.02746784,0.15349142,0.05936644,-0.07167960,0.04439522,0.04590376,0.05760634,-0.13609324,0.00589794,0.23060474,0.27692336,0.32577035,0.22288045,0.24088171,0.28980765,0.24313287,0.28396812,0.15926453,0.25144202,0.22526139,0.29372352,0.17783995,0.07820544,-0.07244751,0.05615001,0.04549577,0.15995243,0.22664170,0.09578218,0.14207625,0.09966391,0.14683731,0.16941038,0.04895373,0.19079651,0.08577243,0.03511910,0.22939335,0.33842328,0.24017884,0.31149712,0.29817080,0.33681160,0.28274015,0.31427529,0.23471321,0.24540171,0.29010549,0.21771608,0.11654045,0.07487273,0.00756926,0.08884414,0.06433193,0.01831515,0.14414038,0.11764465,0.21495745,0.11933278,0.17091489,0.22077605,0.11628799,0.17403536,0.15106814,0.09036085,0.11111232,0.12948832,0.00811065,0.26565284,0.18092395,0.13600053,0.25179678,0.33742854,0.35423097,0.41726157,0.32655469,0.25877464,0.10677584,0.10134522,0.07766125,0.02651532,0.05121631,-0.02251240,-0.00742314,0.19551522,0.04665845,0.08716696,0.17764106,0.09615284,0.07982539,0.01726555,0.13292794,0.03389933,-0.06036829,-0.01487106,-0.05206049,0.08042105,0.17131977,0.19879737,0.17877182,0.21558432,0.16185084,0.26865807,0.11410827,0.13612407,0.02339311,0.03946303,-0.03910255,-0.02655572,0.07247245,-0.03758363,-0.03120211,-0.08209667,-0.02263347,0.08887299,0.12946369,0.03761967,-0.00337166,0.02173413,0.07957426,-0.01436103,0.02613426,0.02488821,0.06611937,0.08205238,0.04385010,0.18462025,0.08899178,0.18015990,0.19792420,0.23656477,0.08514181,0.02734931,-0.01944648,-0.04744256,-0.00465847,-0.05990123,0.01276109,0.00253305,0.04608840,-0.03041876,-0.07485420,-0.10744612,0.02458610,0.01792906,0.00295515,0.07432194,-0.02030668,0.00197512,0.00278864,-0.09194338,-0.01170829,-0.05263390,-0.02931823,-0.00150239,0.01365152,0.04388186,-0.03424741,-0.01419322,0.11091819,0.08229639,0.07651823,-0.02559338,0.01215148,-0.07995380,0.08691651,-0.01546408,0.05142284,-0.06044764,0.01297881,-0.03077762,-0.00427900,-0.15388079,0.02447270,-0.03031762,0.03277090,0.02199649,0.02838877,-0.05767839,0.00150002,0.02345267,-0.00878318,0.00245074,0.03603981,-0.02359001,0.04798646,0.02512626,0.03652825,-0.10421401,-0.01735824,-0.14133628,-0.06629542,-0.04758831,-0.02933582,0.03502161,0.04145277,0.06933663,-0.00779424,0.07300632,0.07928731,-0.00206224,-0.01902706,0.04491473,0.06605136,-0.04044028,-0.03455100,-0.04006499,0.01618241,0.06036368,0.00556973,0.03694378,0.05559261,-0.03443187,0.03266707,-0.06127283,0.03744822,0.00417388,0.09457470,0.02516077,-0.08086032,-0.07989267,0.05388927,-0.04790882,-0.04155534,0.02058454,0.02297676,-0.03024760,-0.11040179,-0.06211565,-0.03960395,-0.09093110,-0.14345232,-0.09368096,-0.07341629,-0.03462467,-0.15804672,-0.03686880,-0.13729240,-0.02520029,-0.09431317,-0.02761920,-0.02922357,0.07447034,-0.03986571,0.10696850,-0.08882055,0.03576481],[-0.00220331,-0.03213751,-0.05468535,-0.07739796,0.01733885,0.07150353,0.00871160,0.03235173,0.02702004,-0.00131963,0.01945831,0.04605880,0.03385451,-0.03049797,-0.09902456,-0.03715443,0.05356805,0.05056562,0.00795281,0.02174476,-0.03224538,0.01518682,0.00757029,-0.06600723,-0.06934022,-0.05251833,-0.05893965,-0.04995847,0.00653406,-0.04869941,0.04496128,0.03787955,0.07633930,-0.00118330,0.05537049,-0.02076999,-0.00519047,-0.04291013,-0.07381099,-0.00723888,-0.06219061,-0.13872506,-0.03495855,-0.05895770,-0.08224160,-0.04618175,-0.02938605,-0.05245966,-0.00170805,-0.10084122,-0.07571346,-0.08854922,0.01272185,0.00115672,-0.02303104,0.07249247,0.04285290,-0.04873757,0.04666541,0.01581841,0.01228777,0.04232571,-0.05800070,0.00663277,-0.06616890,-0.02649561,-0.11143859,-0.19165380,-0.16456842,-0.08970647,0.02289398,0.00201947,0.00649135,0.02917744,-0.04408654,-0.07760028,-0.04506414,-0.04774090,-0.11352335,0.04006841,-0.05934535,0.00512747,-0.00650966,0.01206394,0.06778550,-0.02664654,0.03951795,-0.07526307,0.00523395,-0.05779122,0.05675336,0.04515793,-0.06798252,-0.20126535,-0.09091265,-0.21648715,-0.05842932,0.04768431,-0.01227436,0.03624962,-0.03542601,0.03031529,-0.03511008,-0.04976444,-0.15354839,0.01409287,-0.04759455,-0.00993519,0.01631914,-0.08204457,0.01769846,0.04200182,-0.06617582,0.01160397,-0.01692946,-0.00792751,-0.04644398,0.01880874,-0.12225495,-0.07011578,-0.13871945,-0.16997015,-0.20892444,-0.09749696,-0.06669557,-0.02611679,-0.04911575,-0.06377605,0.04525148,-0.08355942,-0.02202085,-0.21346302,-0.20283312,-0.11967362,-0.11947905,-0.10404921,-0.01254641,-0.01364560,0.00227571,-0.02868012,-0.00454292,0.01245193,0.03760517,-0.03983516,0.00382448,-0.06767306,0.06209757,-0.06056882,0.01397358,-0.09227776,-0.05523701,-0.09707350,0.09224773,-0.03090504,-0.07361704,0.05719554,0.01883167,-0.04573600,-0.03818616,-0.17868984,-0.13174836,-0.05840052,-0.03713584,0.00576489,-0.10084116,-0.06969608,-0.08048915,0.01307963,-0.06843439,-0.08297531,-0.09687869,-0.03341582,-0.10689322,0.05635230,0.03691694,-0.05766035,-0.06651361,-0.00631867,-0.14479659,-0.08903982,0.03017469,0.02190454,0.00921940,-0.04706592,0.00747938,-0.00344058,-0.08414695,-0.13005830,-0.08970912,-0.03189282,-0.04652075,-0.08593049,-0.02351456,-0.16292429,-0.00937873,-0.04265976,0.00445513,0.05619537,-0.09105180,-0.02063481,-0.10175785,0.00925091,0.06124642,-0.04636845,0.00812177,-0.15539227,-0.13919879,-0.14501767,-0.10339081,-0.00801604,0.04397647,-0.03252168,0.02366375,0.04907745,-0.12765609,-0.05427445,0.01634676,0.07351356,0.00769714,0.00523963,-0.10508987,-0.00036473,-0.03282005,-0.03386576,0.06230947,-0.07455879,0.02131193,-0.04549634,-0.01475318,0.05090000,-0.04501923,0.04770796,-0.14446795,-0.13217959,-0.14138708,-0.21491852,-0.05498035,-0.05471389,0.15483503,-0.00389509,-0.11257984,-0.03540334,-0.09025001,-0.08534592,-0.00568850,-0.00401007,-0.05678999,-0.03269263,-0.03795217,-0.04884978,0.03014322,-0.09896921,0.01211435,0.04323599,0.00359305,0.01803212,0.01151666,0.01509733,-0.00818891,-0.00093345,-0.06830478,-0.02939422,0.04534663,-0.20277046,0.03815698,-0.13706040,0.04194023,0.06309605,-0.09456664,0.05142379,-0.07930555,-0.07659094,-0.07973257,0.10311660,0.10962833,0.02086752,-0.14853279,-0.11201343,-0.06963030,-0.07579515,0.00981269,0.04090326,-0.02085412,-0.00242731,-0.04646640,-0.01332957,0.02502301,0.04664187,-0.08495118,-0.01660187,0.01036101,-0.07043400,-0.10641889,-0.07048183,-0.13974473,-0.07441473,-0.06615220,-0.03260446,-0.13570282,-0.00205184,-0.02139956,0.02384750,0.16122717,0.02983560,-0.05520253,-0.04799244,0.03869239,-0.09191126,0.09758531,0.00638545,0.12786368,0.04462134,0.00401850,0.02080029,-0.06799185,0.05578058,0.01665996,0.03538305,-0.02519911,0.07074542,-0.12376627,-0.03289273,-0.07737558,-0.04649467,-0.07386275,0.08554719,0.00755299,0.06051561,0.00616882,0.06599982,0.07886513,0.00541750,-0.09532128,-0.11297576,-0.14770098,0.03708579,-0.07211323,0.11130976,0.01434956,0.00404923,0.05574195,0.00841519,0.00244200,0.08704887,0.06576163,0.00687196,-0.00316716,-0.04301611,0.03489958,0.02302158,-0.20757706,0.01902233,-0.02299567,0.01617307,0.13345182,0.00231486,0.02219814,-0.01714413,-0.03107922,0.01533259,-0.05129492,-0.12589747,-0.04845433,0.03613896,0.04557608,0.00846736,-0.01877739,0.08684381,0.02327062,-0.01520155,-0.05187903,-0.01326342,0.10064460,-0.03590904,0.02532365,0.02764520,-0.03876133,-0.11242417,-0.25990438,0.00388264,0.04894951,0.26401332,0.09263758,0.11726738,0.15331395,0.16006392,0.07639804,0.16802922,0.02747845,-0.04220245,-0.03362281,0.05082982,0.05188802,-0.03810653,-0.00464743,0.07996602,-0.11112890,-0.02743108,-0.11506401,0.03460325,0.07835787,-0.01108461,-0.02182499,-0.07873087,-0.12088423,-0.29334542,-0.12467748,-0.02377175,0.08480145,0.13362296,0.10939232,0.05426247,0.10814632,0.09515894,0.06528120,0.10075457,-0.10602772,-0.10016018,-0.03689215,-0.08261274,-0.07292570,0.07895222,-0.02012727,-0.00920987,-0.06079051,-0.03218829,0.05945021,0.00043684,-0.01756602,0.12710218,0.16340625,0.04564987,-0.11126504,-0.22363158,-0.22402224,0.16958942,0.34563887,0.26515689,-0.04852206,-0.01424563,0.09465300,0.09051365,0.12695798,0.03737092,-0.07699728,-0.17511094,-0.03151041,0.02041014,0.08599367,0.07280158,0.03757003,0.01894029,0.02461396,-0.01339165,-0.05695401,0.11835411,0.04251084,0.02203877,0.07714745,-0.01919467,-0.06671664,-0.36302438,-0.03087112,0.11930498,0.15251207,0.09120494,0.16892457,0.12393226,0.02534450,0.12518588,-0.02658459,-0.07905625,-0.01056812,-0.04320143,0.04563638,-0.06538370,-0.05890832,0.05182476,-0.01362345,-0.03305626,0.07466454,-0.00975182,-0.00471120,0.06796024,0.03559538,0.06436204,0.01744107,0.04532530,-0.12039392,-0.29279646,0.09003546,0.28540486,0.20034440,0.01400561,-0.04860891,0.12409422,-0.03426208,0.00450032,-0.06347519,-0.16778325,-0.13923325,-0.10854629,0.01499054,0.06341728,0.00439669,-0.06019295,0.01232558,-0.06275043,0.05722713,0.05350699,0.02509872,0.00948852,0.05149759,0.03613677,-0.05717231,-0.15956251,-0.21280427,-0.35622919,0.13369031,0.45289272,0.11983430,0.12213118,0.09825049,0.01499502,0.05824604,0.02873310,-0.09052136,-0.14765070,-0.06003059,-0.08524900,-0.03498628,0.04114541,-0.02007633,-0.06366271,-0.11076883,0.02305435,0.02380634,0.04369865,0.09446332,0.01196827,-0.01444285,0.01108323,-0.11659946,-0.27605441,-0.35540617,-0.10144252,0.21217640,0.40472156,0.14829846,0.15459470,0.08168209,0.07786681,-0.03321123,-0.02358531,-0.17214049,-0.06474312,-0.12785387,-0.05853163,0.00451195,0.06549028,0.06845891,0.00683988,-0.08392444,-0.05011954,0.03600855,0.01392022,0.01265307,-0.12089870,-0.20253384,-0.19639376,-0.33836770,-0.15511265,-0.07128059,-0.02998349,0.07925241,0.32151449,0.30947635,0.26703435,0.11049518,0.17850101,0.00020788,-0.07338013,-0.15408473,-0.18050176,-0.14269666,-0.10662889,0.04570177,-0.04239389,-0.01320690,-0.05087271,-0.02650525,-0.02034922,-0.13363084,-0.00326579,-0.05023741,-0.23440756,-0.25676361,-0.28914964,-0.27375281,-0.15646899,0.02770725,-0.05019247,0.17072812,0.06144003,0.19233662,0.18115199,0.29388168,0.00506568,0.00363427,-0.07706447,-0.11612052,-0.12757917,-0.11008378,0.02923961,-0.08165051,0.07034038,0.03232462,0.03873786,0.04869180,-0.10121501,-0.00605844,-0.14156777,-0.14998884,-0.34543517,-0.31801566,-0.18236734,0.06142024,-0.01300558,-0.04675662,-0.03550342,-0.02575895,-0.08571702,0.04365240,0.05869381,0.07642450,0.03862589,0.10284089,0.04767109,-0.01120088,-0.00933295,0.05360196,-0.03246775,0.05715188,0.00018480,-0.00739788,0.02163013,0.02531697,0.04142041,-0.14166814,-0.19296753,-0.26254198,-0.36633450,-0.27747127,-0.21376669,0.03636234,-0.12020078,-0.03743718,-0.06991749,-0.02649804,-0.03890209,-0.05021421,0.09479997,-0.00159300,0.16622622,0.29824609,0.17473853,0.13074991,0.00379613,0.04480001,-0.03778281,-0.06623100,0.07983066,-0.02616172,0.05198955,-0.06644257,0.00401828,-0.01221363,-0.10097095,-0.25701234,-0.25934565,-0.08799269,-0.04434564,0.02802741,-0.00439291,-0.14806326,-0.03815624,-0.10189996,-0.00353993,-0.04732583,-0.08810728,0.06130787,0.10935021,0.12064789,0.09042564,0.05410748,0.04067924,-0.06156541,-0.00344233,0.02278773,-0.04476344,-0.01875968,-0.00959202,-0.04881252,-0.03978832,-0.07419723,-0.11520618,-0.12302196,-0.18011171,-0.06309997,0.08184613,0.05203619,-0.12611933,-0.05783696,-0.02916973,-0.02369767,-0.01099348,0.13059336,-0.06292986,0.07204618,0.03384362,-0.01486491,0.03576607,0.15922132,0.13023917,0.02726336,-0.14540292,-0.09191886,-0.00844379,0.04539006,-0.05612070,-0.06737562,0.02269064,-0.01267341,-0.06697893,-0.00144241,-0.02637312,-0.03344604,0.02962913,-0.07946380,0.01575723,-0.17335007,-0.21866550,-0.08968785,0.04761921,-0.08161781,-0.02525037,-0.07314602,-0.03338348,0.12677611,0.10886671,-0.03260927,-0.01774442,-0.05898433,0.01848698,0.02451733,0.04958551,-0.03939203,-0.02751816,-0.06446510,0.01490959,0.02644200,0.06174091,0.03640682,0.06403061,-0.00754340,0.05322685,0.07227343,-0.02897890,-0.10568156,0.01968572,-0.04888079,-0.04895879,-0.07907000,-0.05161187,-0.02787626,-0.05793602,-0.04578298,-0.02999498,-0.06335263,0.00618726,0.06204144,-0.08359960,-0.10023296,-0.00072962],[-0.02187249,0.03300022,-0.01759867,-0.03877212,0.00074873,-0.04912514,0.00424594,0.08243506,0.04593303,-0.05325094,0.05277326,-0.06595377,-0.05667478,0.04634351,0.06691559,-0.00876217,0.10004991,0.04245743,0.17080577,0.08461531,0.14974633,-0.01555594,0.10397426,0.07279000,-0.05483522,-0.08531650,-0.01049694,-0.03506399,-0.05033362,0.00762509,-0.02681397,-0.05176993,-0.07898761,0.01701269,0.04777288,-0.04209303,-0.02989742,-0.01479287,-0.01802715,0.02180027,-0.06489886,0.03736831,0.06935336,0.08242474,0.16090691,0.10416729,0.21785179,0.18185398,0.12942970,0.08634342,0.12264463,0.09277577,0.08309054,-0.07971511,-0.01916521,-0.05214253,0.04168893,-0.06453139,0.08376416,0.04683383,-0.03979897,-0.04746340,0.01876653,0.10167185,0.01958874,0.06910215,0.01888207,0.00663002,-0.00670753,-0.15532447,-0.11810762,-0.15039620,-0.03241659,-0.04689076,0.05767137,0.06474117,0.04632546,0.05131818,-0.02590377,-0.10279122,0.04197275,-0.03528562,-0.06354117,0.06429694,0.05816467,0.05946176,0.06232946,0.07055083,0.00778874,-0.02211978,0.12589900,0.10879528,-0.04077971,-0.06807785,-0.12024965,-0.05501599,-0.10677972,-0.13913566,0.07340091,-0.07976608,-0.08177704,-0.05349808,-0.02461150,0.02095130,0.01290664,-0.15586002,-0.02992552,-0.03210478,-0.03782434,-0.07521962,-0.01554103,-0.00232717,0.06081881,-0.05545863,0.02987595,-0.07994991,0.03145071,0.06517812,0.13440818,-0.04879357,-0.00191379,-0.03282046,-0.01635250,0.02083656,0.00376997,-0.08346263,-0.06480104,-0.04089572,-0.03026088,0.03522848,-0.07929496,0.01790562,-0.14204371,-0.10164463,-0.18204258,-0.05467592,-0.07054838,-0.11499763,-0.12599948,-0.00661017,-0.05827238,-0.09555487,-0.04218161,0.01300506,0.05830526,0.01549537,-0.06504185,-0.11021698,-0.13471243,-0.04405189,-0.04583583,0.06120196,0.06751377,-0.04999053,0.03076109,0.06652121,-0.10470664,-0.10526899,-0.11526785,-0.03715341,-0.05551736,-0.12796256,-0.01877259,-0.02434793,-0.07578694,-0.11691988,0.01000420,-0.07329771,-0.04066961,0.07836151,0.03754890,-0.02053550,-0.02314055,-0.00901778,0.01085041,-0.10887264,-0.22528169,-0.17095742,-0.18838061,0.02155401,0.04259898,0.04144856,0.04283749,-0.01319464,0.00458521,-0.10135495,-0.09275103,-0.07464017,-0.07675984,-0.08580772,0.09464072,-0.13881120,0.05505317,0.05282235,-0.07490093,0.05117918,-0.06781127,0.02114867,0.05191427,-0.11664876,0.02512798,-0.06588115,-0.02312365,-0.08788610,-0.19879003,-0.22651656,-0.11267717,-0.14077055,0.09985983,0.07828770,0.07415286,0.07694528,-0.00617473,-0.01657120,-0.04262784,-0.05466210,-0.13562027,-0.03775923,-0.05888454,-0.00242791,-0.04935425,0.01213052,0.00078483,0.04385315,0.02227378,-0.03032601,-0.02113091,-0.12908918,-0.00358827,-0.00066389,-0.12866938,-0.19350721,-0.20343719,-0.11332211,-0.13925204,-0.11423096,-0.09719326,0.02265612,0.10444205,-0.04497886,0.05434060,-0.14262231,-0.10940474,0.00192233,-0.07977422,-0.05194881,-0.15666324,-0.08110265,-0.08308674,-0.04739718,0.04484823,-0.00905331,-0.01912177,0.00025528,-0.05913840,-0.09493232,-0.06584666,-0.10682204,-0.10072465,-0.12648076,-0.00726815,-0.21624437,-0.08290941,-0.14007960,-0.13079554,-0.06253465,0.03566286,-0.10655359,-0.14375940,-0.07972017,-0.07229327,-0.09268889,-0.01091090,-0.03694134,-0.02625091,-0.10928821,-0.11836056,-0.08923606,-0.08777200,-0.07513908,-0.02902666,0.04391616,-0.05176134,-0.04093717,-0.13507164,-0.02842328,-0.05141159,0.06832636,-0.21666285,-0.16743101,-0.07138339,-0.12038871,-0.11826475,-0.06902613,-0.04190484,-0.21081740,-0.06492669,0.04369126,-0.14756079,-0.18314092,-0.11168348,0.00241915,-0.07119305,-0.10024417,-0.21122974,-0.14103739,-0.13107871,-0.11034636,0.04904493,0.01153398,-0.00321154,-0.10378145,-0.04402754,-0.08062364,-0.01724860,0.04588306,-0.07993550,-0.03058601,-0.02369259,0.04695966,0.03096898,-0.00590967,-0.08666629,-0.16483805,-0.10405094,-0.14825720,-0.09390551,-0.02630494,-0.14431559,0.00392119,-0.03362354,-0.10047355,-0.19921805,-0.12719466,-0.17365862,-0.05283096,0.00602687,-0.05992245,-0.04625762,-0.02977241,-0.19682835,-0.10719179,-0.04178006,0.15625569,0.02982818,0.11691588,0.02963457,0.15914270,0.06953926,0.15392148,-0.01842721,-0.05661547,-0.12121503,0.02446925,-0.04403554,-0.07150364,-0.10900128,-0.04141045,-0.02374314,0.01686911,-0.24501610,-0.25176221,-0.09725276,-0.05704620,0.01229910,0.05213363,0.03523806,-0.02777039,-0.26894876,-0.18399002,-0.10982224,0.04685041,-0.04860883,0.03003220,0.03532290,0.18583646,0.07903953,0.03035454,-0.22380714,-0.05556038,-0.08419163,-0.00700440,-0.11399752,-0.13797481,-0.10430899,-0.17639694,-0.02921640,-0.06960118,-0.08906054,-0.16744038,-0.08433756,-0.00581780,-0.04887059,0.05751896,0.00452379,-0.16472057,-0.24170613,-0.06437295,-0.00566366,0.27207950,0.04047079,0.03187212,0.23825282,0.16570957,0.07438666,-0.11398137,-0.28323719,-0.11525008,-0.17584638,0.02111888,0.08660779,0.02643515,-0.04106318,-0.15319289,-0.02113140,-0.06990917,0.03696385,-0.04126564,-0.00635303,0.00254456,-0.07185157,-0.01326111,-0.01775311,-0.15152514,-0.22534104,0.03193261,0.03280346,0.11769171,0.04029682,0.05309647,0.01484889,0.04392260,0.07790301,-0.07467692,-0.16357334,-0.18098627,0.05944164,0.12610631,0.04488675,-0.15118127,-0.04731555,-0.02170858,0.18700257,0.04684510,0.06501065,0.01728523,0.08145124,-0.04857367,0.05584091,0.08406852,0.04876887,-0.02428882,-0.00411463,0.10719646,-0.08560602,0.08620216,0.04310073,-0.02656262,0.02246645,0.15820614,0.02966874,0.13028291,-0.04580730,0.06945903,0.18766190,0.16683519,0.01648417,0.08792594,0.08962703,0.19558948,0.21173328,0.25993192,0.21013674,0.20014116,0.19108765,0.09789053,-0.04621291,-0.04376106,0.05505909,-0.06934549,0.07418539,0.06282414,0.13146688,0.08956820,0.09299124,0.07380953,0.10011379,0.03173400,-0.00079568,0.04746797,-0.00592309,0.15637609,0.15551387,0.08507382,0.17337781,0.16251530,0.13405210,0.16222520,0.28636611,0.20984688,0.20421731,0.20814307,0.02850746,-0.02565905,0.01241881,-0.01150971,-0.06296565,0.00035070,0.14292476,-0.02334716,0.20383041,0.11298176,0.02121639,0.13257937,0.08903922,0.15952238,-0.00972858,0.01452892,0.07756121,0.07970908,0.09222576,0.08219281,0.08056253,0.20347928,0.08418583,0.19861242,0.20996234,0.17614032,0.19312027,0.03859883,0.09753546,0.06342100,-0.05736978,-0.03025972,-0.03928701,0.13089129,0.17870092,-0.00275542,0.03162036,0.06318425,0.05936775,0.00632787,0.07879042,0.08741982,-0.00246882,0.01812202,0.11229514,0.21614310,0.08938817,0.08892781,0.16677031,0.21075471,0.17601484,0.11036906,0.15396315,0.17952192,0.04996745,0.01876565,0.08924913,-0.00805142,-0.07532010,0.04017226,0.04639484,0.07261955,0.00974124,0.11366241,0.04863328,0.09209853,0.13889726,0.11619911,0.26595369,0.19182299,0.18164305,0.08823165,0.04693353,0.14232463,0.10193882,0.03305230,0.10078694,0.03977069,0.02923665,0.06126306,0.12102211,0.03916868,-0.04144603,0.04666322,-0.08467101,0.05291708,-0.06606016,0.03955889,0.07043158,0.05222820,0.04057372,0.09034614,0.07431468,0.10613699,0.12258770,0.18163952,0.10516302,0.14110512,0.13509908,0.07470407,-0.01860896,-0.05523589,-0.11170190,-0.13628507,-0.05901115,-0.06670623,-0.02830515,-0.04446093,-0.04115720,-0.01447010,-0.13060375,-0.02400262,-0.01534792,0.03571900,0.04416867,-0.03656744,-0.04714296,0.01189767,0.09910266,0.13056333,0.09405746,0.12306355,0.08591551,0.11371102,0.06161715,0.12059347,0.11090142,0.02498973,0.08077984,-0.14354365,-0.08671794,-0.13210157,-0.12999597,-0.03908089,-0.05613347,-0.20331390,-0.18982480,-0.24725290,-0.15364450,-0.16649497,-0.05777366,0.00050111,-0.07292411,-0.01994307,0.03617809,-0.01619728,0.03196210,-0.04155260,-0.01919484,0.05906955,0.09717729,-0.02474672,0.10581424,-0.00537651,-0.00775175,0.06815456,0.07044036,0.06415393,-0.10965692,-0.04788134,-0.06626910,-0.15278362,-0.11316384,-0.13168074,-0.13868421,-0.19834228,-0.11853954,-0.10828599,0.01520526,0.02132351,-0.04127520,-0.04478738,0.08564036,-0.06617293,-0.03514486,-0.02601044,-0.11951584,-0.10157849,-0.17183319,-0.12949799,-0.01772990,-0.01110992,-0.01278738,0.00906509,-0.03144243,-0.04230633,-0.06412190,-0.15243025,-0.15481223,-0.25676301,-0.17309253,-0.11258157,-0.22618042,-0.20176776,-0.01714439,-0.09880520,0.04624377,0.02759484,0.03196436,-0.00124136,-0.00165287,0.02074152,-0.00652775,-0.00892503,-0.04004234,-0.06983373,-0.17325522,-0.20565593,-0.17565271,-0.15946086,-0.27428296,-0.28686374,-0.20148054,-0.04737372,-0.13814637,-0.24485050,-0.20594805,-0.21802996,-0.20427527,-0.18389814,-0.07153881,-0.08538719,-0.08483651,-0.17653646,-0.04264555,-0.02496501,0.01809979,0.01206833,0.06552346,0.01189768,0.06093052,-0.06263955,-0.00307597,-0.11109320,-0.15905096,-0.06320202,-0.22362444,-0.29464111,-0.28866026,-0.32537913,-0.27679005,-0.22928447,-0.15830682,-0.13500458,-0.24197474,-0.20799595,-0.18260315,-0.16300224,-0.07544323,-0.09859566,0.05971076,-0.07347031,0.06322075,0.06613497,-0.07848915,0.03609963,-0.07315584,0.06375093,0.02972504,-0.04568196,-0.01303820,-0.06455310,-0.07011729,-0.11680549,-0.15227658,-0.14712372,-0.14767915,-0.24908952,-0.08185221,-0.20057727,-0.20756716,-0.10707260,-0.11913988,-0.08274192,-0.08124740,-0.08334541,0.03687733,0.04751572,-0.01200557,-0.04819911,0.04699199,0.11441700],[-0.06797659,0.04339322,0.06210697,0.06505964,-0.08259545,-0.02799227,-0.05670998,-0.05874415,-0.06885578,0.06650166,-0.09042209,0.01790586,-0.07036414,-0.08060976,-0.01485716,0.03739918,0.01562976,0.06555552,-0.02933809,-0.01594670,0.07361960,-0.04641397,-0.01200929,-0.05433325,-0.04562753,-0.00326934,-0.05331442,-0.07785006,-0.01066122,0.02370921,-0.08401772,0.05911851,-0.03778848,-0.07280739,-0.06317197,0.03858105,-0.05592641,-0.07341363,-0.02673196,-0.04207505,0.10999169,-0.03656636,-0.01203867,0.06894091,-0.00225748,-0.05734584,-0.04338875,0.01376466,0.02685841,-0.00124684,-0.07883845,0.01104661,0.03451959,0.05188101,-0.01574312,-0.04174835,0.07230368,0.00984592,0.01355594,-0.04634375,0.05120716,0.03037377,0.04137467,-0.04511184,0.00186891,-0.03104814,0.00753210,0.00469692,0.02043834,0.01084384,0.01684262,-0.05577404,0.06054180,0.09864964,-0.00543609,-0.01662858,-0.08086529,0.01448442,0.07832049,0.01778430,-0.01143145,0.03377338,0.01777367,0.04295337,-0.01969990,-0.03607516,-0.01980428,0.05126345,0.02859383,0.02105589,0.06943681,0.02796427,-0.01768418,-0.10420062,0.06259079,0.01324483,0.01530235,0.00901834,-0.00735127,-0.01543467,0.04898585,0.05634402,0.02213455,-0.08638538,-0.12868877,0.02758733,-0.05707011,-0.11814335,-0.04436000,-0.06796252,0.06068814,-0.05291966,-0.03587187,0.06429809,-0.06128277,0.08327386,-0.01618289,-0.04082735,0.01469531,-0.09135539,-0.01795101,0.07144524,-0.04329820,-0.00412906,-0.09527402,0.03354891,-0.01847271,0.05344117,0.00462147,-0.04440866,-0.04735105,-0.04364337,0.02631134,-0.04313912,0.00368885,-0.11092685,0.03299160,0.02252080,-0.00333456,0.07328932,-0.04350573,0.02994125,0.01645311,-0.04534804,0.03354964,0.06063562,-0.04251485,0.06972243,0.07159527,0.11927781,0.08079686,-0.03591458,-0.14245827,-0.00583930,-0.00203093,-0.05118820,0.01735274,0.09664697,0.03064851,0.12324347,0.07683033,-0.07686371,0.02253107,0.00914771,-0.08024534,-0.11596365,-0.01397633,0.04364542,0.08452912,-0.06916746,0.00601164,0.06751316,-0.08422499,-0.04200251,-0.07203551,-0.05219658,0.02759598,-0.01450056,0.11705734,-0.00473733,0.11214676,0.11010639,-0.01986673,0.05034357,0.06328648,0.06197283,0.03250690,0.02939186,0.08301076,0.14826313,0.01950679,0.02145585,0.03509480,0.08167745,-0.07474320,-0.02016330,0.01354397,-0.06591196,-0.01975401,0.00901223,0.01967253,0.02937039,-0.09913222,-0.05893315,-0.08056226,-0.10156067,-0.00563317,0.07173827,0.02031351,-0.03810716,-0.02983031,-0.08203609,0.08355720,0.06043170,-0.02734877,0.04713403,0.03577445,0.01829292,-0.03722637,0.00222788,0.04287128,0.12911591,-0.00477319,-0.01042489,-0.08362807,0.00122391,-0.03128738,0.05496813,0.06998778,-0.07021178,-0.05797617,0.03006777,-0.00067504,-0.04503251,0.03283221,-0.02893688,0.12526055,-0.09442049,0.08495320,-0.04413933,0.03216166,0.12038532,0.08851849,0.08120717,0.15028502,0.13979569,0.00488553,0.03206653,0.08026463,0.15411803,0.03110428,0.04470123,-0.08524760,-0.05678204,0.04977439,-0.01862737,-0.06785705,-0.02444751,-0.08729442,-0.02333691,-0.05706505,-0.10442446,-0.15721615,-0.13817039,0.01276923,-0.00308357,-0.00522992,-0.10890131,-0.23909333,-0.08803573,-0.03497097,0.14720061,-0.00921801,0.11917118,0.04750265,0.01901701,0.13321251,0.14630400,0.06207209,0.00621809,-0.01497289,-0.03218790,-0.06739619,0.04628671,0.03783096,0.05160237,-0.01205325,-0.05190833,-0.06436521,-0.01338934,-0.03182058,-0.03409735,-0.01494957,-0.04514938,-0.12558758,-0.15441953,-0.28315631,-0.27454352,-0.06153515,0.12014664,0.17821589,0.06915580,0.11920401,0.14279285,0.13271210,0.20339614,0.13688971,0.02411486,-0.01815826,0.09000617,0.00199067,0.02176754,-0.04753817,0.09649142,0.08313835,0.13202418,0.17256518,-0.03155844,-0.01781589,0.04266361,0.07884599,0.17355934,0.03270152,-0.13676395,-0.47516266,-0.56995559,0.01464781,0.05208936,0.11207769,0.08059646,0.17962405,0.14814340,0.25068185,0.12101764,-0.01716732,0.02447334,-0.03657651,0.06163796,-0.01923778,0.10298923,0.01281668,0.05561630,0.00713233,-0.06066778,0.03156986,0.08523746,0.09939244,-0.03028698,0.05695177,0.21804222,0.16929024,0.01781794,-0.60483289,-0.70740664,-0.00768913,0.24414960,-0.02911443,0.04533864,0.10001971,0.08117154,0.20997284,0.04737698,0.09698977,0.05139219,-0.01618021,-0.06683633,0.06430852,-0.00760219,0.12685131,0.13251528,0.01840652,-0.04680485,0.05755534,0.07802778,0.09294438,0.12938510,0.08134181,0.22646981,0.27334052,-0.13724785,-0.83627051,-0.40496621,0.11461963,0.02624884,0.00224155,-0.03499599,-0.02538587,-0.00574014,0.11106575,0.01276281,0.10621358,-0.08965749,0.04551618,-0.04960407,0.03231722,0.08844584,-0.05374571,-0.05415701,0.11204989,-0.00474258,-0.00605516,0.10439146,-0.12144811,-0.00245032,0.22061509,0.13219629,0.18735768,-0.31927499,-0.68181032,-0.23635966,0.14562827,-0.00946197,0.06251696,0.06290438,-0.10946622,0.11830132,-0.01697817,0.03487542,-0.06383815,0.00645373,-0.03159995,-0.08683901,0.09948313,0.08623925,-0.05931807,-0.05151816,-0.10658993,0.03665886,0.03740072,0.03902277,0.08630614,0.07694869,0.20106478,0.21346793,-0.22217479,-0.64476335,-0.43778944,0.09252202,0.09032070,0.07306635,0.07102311,-0.00230431,-0.07039443,-0.05806647,-0.05054069,-0.11790251,-0.01041023,0.05420062,0.01541966,0.04233664,0.11595692,0.03797157,-0.02978075,-0.08215287,-0.15298693,-0.00076966,0.08832450,0.07399758,0.01506144,0.21956679,0.07646539,-0.09288400,-0.43069720,-0.47411856,-0.11247358,0.02709451,0.09295914,0.08282606,0.08047128,0.03155752,-0.04967881,-0.06766749,-0.00649375,0.00375901,0.09015202,0.04289565,-0.01870993,-0.04684067,-0.08829807,-0.07375092,-0.12171461,-0.03421294,-0.02109768,0.03497136,-0.07063240,-0.01849559,0.08050974,0.13125484,-0.00888645,-0.19089611,-0.36201209,-0.11866001,0.06364910,0.17144601,0.16643117,0.05489184,0.18478802,-0.04528481,-0.03540125,-0.06225169,-0.05021077,-0.03355635,0.05549452,0.03096846,0.08409173,-0.05968227,-0.11830347,-0.07208943,-0.09508159,-0.04406472,-0.05209262,-0.00481552,0.05944298,-0.00552263,0.03981569,0.05037245,-0.09826856,-0.25068238,-0.25905210,-0.08458153,0.17904389,0.17459680,0.09292197,0.07592574,0.10638329,0.09902760,-0.01684395,-0.03980605,-0.06368806,0.04413800,0.02176750,-0.07739014,-0.04088649,-0.04824286,-0.05148966,-0.02729569,-0.00459426,0.06906483,0.01862401,0.06332348,0.08170252,0.08213016,0.05251016,0.04012759,-0.09817666,-0.20389000,-0.07448981,-0.00451177,0.16291621,0.06002939,-0.02291444,-0.00802439,-0.00639445,0.01714842,0.00417819,0.05852055,0.10226262,-0.03319997,-0.08123751,0.03712198,-0.02535477,-0.02024774,0.02937639,-0.03756637,0.00491565,-0.01499512,0.11484279,0.10527291,0.07919129,0.00730573,0.05226928,0.07630357,0.01807104,-0.07088813,-0.09807724,-0.02991506,-0.00064097,-0.05862799,-0.00533529,0.05750792,0.06341363,0.01188398,0.08038601,0.00145657,0.13811569,-0.03992651,-0.00020510,0.04623599,-0.05020797,0.03062023,0.10985948,0.01596750,-0.01918040,-0.03413231,-0.05241009,-0.04081042,0.02335563,-0.04279661,-0.01437099,0.01220873,0.03106038,-0.01676290,-0.10344573,0.04095589,-0.06248741,0.06390431,0.08952382,0.04930156,0.00305223,0.05540240,0.06993868,0.07261020,0.02133101,0.11700478,-0.03870132,0.01378997,0.07428309,-0.00635993,0.03528230,-0.02210491,0.09389107,0.12181947,-0.03991124,0.00531676,0.06287936,-0.02935586,-0.01503666,0.04068354,-0.03019992,0.02221120,0.01412035,0.03721683,0.09326746,0.00072797,0.06206412,0.05496006,0.01278790,0.07601300,0.05865085,0.13923663,0.09294526,0.01758714,0.03447129,-0.00146596,-0.06980909,0.01909317,-0.03805621,-0.04663381,0.09647496,0.06957828,0.01490250,0.05114571,0.07141171,-0.07423261,0.01176391,-0.08025435,-0.03625536,-0.06845732,-0.02784148,-0.03041174,-0.09199114,-0.04200710,-0.03154720,0.03365219,0.01935924,-0.02252553,0.07754713,0.00803396,-0.01835242,-0.00846099,-0.07894383,-0.04529649,-0.05164294,-0.02323133,0.05849162,-0.05831644,0.04393174,0.00978420,0.10029461,0.04222761,-0.00151972,0.01353988,-0.02419019,0.03107405,0.11884791,-0.03394939,-0.02877858,-0.07623798,0.09081069,-0.08665614,-0.11585630,-0.06135464,-0.08137886,-0.09364857,-0.04474176,-0.02068532,-0.05894091,-0.00928201,-0.05937337,0.08243536,-0.06913876,0.03459030,-0.01471433,-0.02807457,-0.01905697,-0.03716338,0.09035253,-0.00433305,-0.00205254,0.02008713,0.09628198,0.03528718,0.07990326,-0.05597229,0.04962004,0.03154527,-0.04928531,0.07945810,-0.00764743,-0.00409641,-0.03662362,-0.00347380,0.03172464,0.05743233,0.02694811,0.14935397,0.09032984,0.03498382,0.00024484,-0.01264907,0.06226953,-0.03972752,-0.03602789,0.05368194,-0.07431486,-0.08545057,-0.03580436,0.01568511,0.04970566,-0.00700837,-0.00486020,0.02545084,0.09669640,0.06852280,0.01708420,0.11389912,0.15020987,0.10563705,0.00630420,-0.01947327,-0.02317043,-0.06572466,-0.04556105,0.04076324,0.02025140,-0.00754234,-0.06772477,0.06311900,0.01227724,0.08314454,0.06419478,0.00703532,0.01363123,-0.05638735,-0.04026953,0.10477517,0.08926585,0.03272983,-0.02326631,-0.00244152,0.06341433,0.00068136,0.05862810,0.02422736,0.07392278,-0.05406832,-0.01704472,-0.07155238,0.02576423,0.03541072,0.07468124,-0.05072877,0.00485659,0.04977097],[-0.06021664,-0.02415556,0.01886590,0.04880861,-0.03769352,-0.06556369,0.04123410,-0.07316659,-0.05256443,0.00658039,-0.06783268,-0.07359791,-0.03296307,-0.00646904,0.01144154,-0.07246117,0.07174408,-0.03975956,-0.02366571,0.01196856,-0.03495602,0.03494958,0.02384921,-0.03518529,0.01291580,0.03470131,0.01258320,0.03276224,0.00200931,0.03102778,0.07948310,0.00722742,-0.00801062,0.04352542,0.05987410,-0.02414260,0.03739132,-0.05909417,0.05338253,0.00158728,-0.05075818,-0.00167662,0.05169888,-0.02419633,-0.02583550,-0.01029871,-0.01338653,-0.04397798,0.05064655,-0.05102036,0.08766305,0.05040391,0.08197851,0.04146832,0.01291681,0.04443944,0.07479752,-0.05539982,0.00585727,0.06679127,0.05309986,-0.00600127,-0.07832623,0.05356975,0.00838255,0.06842375,0.08388861,0.05415269,-0.00891903,-0.07229127,-0.04060669,-0.07056046,-0.02245507,0.08376995,0.04915407,-0.08797258,-0.00427024,-0.01892832,0.02349120,0.05740861,0.06305758,0.04371972,0.03295427,-0.00845822,-0.03411800,-0.04165172,0.02189873,0.03588638,-0.00560230,-0.00759474,0.00640549,-0.01955332,0.06520766,-0.00164412,-0.08609559,0.01560238,-0.07268603,0.03708825,-0.01246988,-0.04593921,-0.03492389,-0.07055934,0.04002009,-0.07524053,-0.14693399,-0.05340873,-0.02487666,-0.09208096,-0.10085756,-0.10656447,-0.00958666,-0.00884152,0.01416346,-0.03275880,-0.01257041,-0.03871584,-0.00463269,0.00440183,0.07654450,0.04936897,-0.00356792,-0.02009190,0.04226439,-0.09100944,-0.13990377,-0.10877667,-0.01258940,-0.01086216,0.07125378,0.04827975,-0.05793248,0.00888779,-0.05156812,-0.00973800,-0.11048631,0.00448232,-0.10329255,0.04212523,-0.04056095,-0.04687182,-0.06142979,0.07951108,-0.08762158,0.09558359,0.00356596,-0.00102282,0.04936523,-0.01327143,0.02972460,0.07376642,-0.01499366,-0.10689925,-0.02996130,-0.07607625,-0.00072198,0.03968265,0.07383490,-0.06554902,-0.02445318,0.05450577,0.01542117,-0.01032704,0.01037310,-0.07384167,-0.11738981,-0.02073214,-0.07290211,-0.04142424,0.06216098,0.02448562,0.02637307,-0.01603886,0.06679246,-0.01197149,0.01897241,0.04090929,0.05287841,0.02147861,0.01054107,-0.06704426,-0.01710672,-0.06131338,0.01757789,-0.05206962,-0.00233750,0.07879350,-0.04493950,0.03712873,0.00630944,-0.05073412,0.05537760,-0.03609091,-0.05117782,-0.13986924,0.02183097,0.02293698,0.06085090,-0.00922492,0.07381956,0.08743563,0.03360229,0.01569737,0.02956382,0.07822727,0.01826814,0.09463856,0.01845841,-0.10759996,-0.01529863,-0.17173137,-0.01117595,0.15259054,0.08108254,-0.00844929,0.03209098,0.10234623,0.08163387,-0.01472783,0.06257411,0.00105660,0.01541179,-0.00226231,-0.01159345,0.03624617,-0.08568203,-0.01619786,0.02698697,-0.01726694,0.00617113,-0.09451611,0.01199873,-0.00347641,0.04936542,-0.12036224,-0.04196373,0.08428970,-0.07143000,-0.10228464,-0.05068766,0.14548802,0.10510684,0.25665271,0.06287517,0.16179936,0.03468669,0.05468442,0.19021037,0.05115476,0.02580955,-0.03585398,0.01282563,0.03518414,0.08414464,-0.06922597,0.04677949,0.05330718,0.03436346,-0.03908311,-0.09318145,0.00435490,-0.04044353,0.10488959,0.07736444,0.02836082,-0.00533508,-0.03775278,-0.37283519,0.14545158,0.29022843,0.12168299,0.04400410,0.13718194,0.01723864,-0.00175703,0.03379231,0.06295568,-0.00878035,-0.03650494,0.00905412,0.03126128,0.07077754,-0.03908165,0.00400091,0.07218780,0.03486979,0.01032678,0.00523973,0.09428533,0.11220718,0.19771093,0.07447784,-0.10264912,-0.24721254,-0.54616272,-0.63935262,0.03274708,0.23509303,0.09214645,0.02718195,0.04611430,0.05925940,0.09510923,0.07368759,0.09525856,0.03210213,-0.04330449,0.00806659,0.04790173,-0.03754095,0.01743685,-0.04190958,-0.08764373,-0.01501583,-0.08179838,0.08538108,0.04529062,0.07042085,-0.01815550,-0.38074717,-0.58754796,-0.62165147,-0.64745492,-0.12747517,-0.03718780,0.10799204,-0.03410409,0.12442277,0.00319059,0.09994483,0.03159878,0.13999397,0.06681552,0.04961692,-0.02828345,-0.08537884,-0.05499179,-0.06453031,-0.02062951,-0.09215918,-0.04574707,-0.12538123,0.02223752,0.10591793,-0.09544262,-0.13238463,-0.38489479,-0.66162550,-0.63089722,-0.18214954,-0.07555930,0.12438461,0.03858353,0.03741401,0.08052340,0.03762333,0.03818885,-0.01183666,0.09279795,-0.08223679,-0.05020624,0.00286059,-0.07288953,-0.07518245,0.04382757,-0.01543463,-0.00595326,-0.07098977,0.01750439,-0.08473749,-0.12616059,-0.14045908,-0.17091757,-0.53375816,-0.64959043,-0.60506785,-0.13275982,0.13032043,0.02608196,0.05003487,0.00156818,0.14388271,-0.03316400,0.03709076,-0.01502729,-0.11885009,-0.08436212,0.07429538,0.01965204,-0.03483072,0.03432211,-0.02986355,-0.08492765,0.00828628,-0.01012950,0.01083005,-0.09694026,-0.14417504,-0.08577373,-0.34459606,-0.39968690,-0.37087205,-0.30141371,0.08212106,0.12980781,0.06888102,0.00834037,0.04263945,0.10502459,0.07816102,-0.01174896,0.06999514,0.01627063,-0.04454624,0.01055111,0.07696674,-0.04730932,0.02494769,-0.09825443,-0.04429924,-0.04225916,-0.08102686,-0.05550195,-0.09657588,-0.02037489,-0.16126177,-0.21134362,-0.26571152,-0.18613438,-0.20184781,0.00343805,0.08293950,0.02376513,0.03577468,-0.05304370,0.14498697,0.03256563,0.11994242,0.01955963,-0.00768112,-0.04068765,-0.04857312,0.02987017,0.02284338,-0.02480780,-0.01195217,0.01303875,0.00949582,-0.07620766,0.07469822,0.01813993,-0.00882197,-0.03941451,-0.03091190,-0.00643241,-0.14540277,-0.01754324,0.01177374,0.00884045,-0.09694899,0.05516791,0.14594585,0.10320746,-0.09340123,0.02537302,-0.00095192,-0.00338054,0.00164302,-0.00851789,-0.06188535,-0.10306130,0.00761603,-0.07937754,-0.10676990,0.02758165,-0.06847738,-0.07972188,-0.06324391,-0.03185306,0.01936929,0.04223460,0.04058260,-0.02061426,-0.09390708,-0.05186801,-0.12879284,-0.06135423,-0.05121564,-0.04724618,0.06918741,-0.03936296,-0.18397455,0.00410327,-0.01095848,-0.01668580,-0.05573413,-0.00694839,-0.05513973,0.00022692,-0.01860032,-0.04591037,-0.06286256,0.05064488,-0.06795890,-0.05833564,-0.01625552,0.04038668,0.03359376,0.03399224,0.00093758,0.02194538,-0.08772623,0.01157023,-0.03846426,-0.03630499,-0.01405816,-0.06795626,0.02048684,0.01401771,-0.04661231,-0.05778164,0.03871696,0.00521084,-0.06755413,0.00309230,-0.03653908,0.01872626,0.00693304,-0.05707850,-0.00967281,0.01002268,0.05675239,-0.05126375,0.05426615,0.04094747,-0.03358220,0.02039940,0.08188844,0.08521590,0.09505884,0.14086786,0.02402465,0.01490819,-0.04696078,-0.02609982,-0.06136193,0.00921483,-0.07278153,-0.05108815,-0.10358319,0.04828496,0.04233761,-0.00598959,0.12650983,0.07333681,0.12118615,0.08998936,0.01602106,-0.02500431,0.07226008,-0.07405175,0.01124584,0.00315129,0.06350054,0.14132872,0.14474496,0.06656422,0.26002002,0.14572312,0.11260254,0.07829082,0.07872240,0.01898261,0.01745853,0.11925266,0.03079463,0.04820199,0.03134244,0.02925119,0.05206371,0.17211698,0.17640808,0.04450672,0.06587823,-0.06930239,-0.02506351,-0.02262752,-0.00965928,0.05236090,-0.06416489,0.07426871,-0.01691974,0.09274781,0.17125531,0.16812818,0.02210384,-0.00752108,0.04202377,0.05157322,0.09691608,0.01304837,0.05038641,0.03415784,0.01230988,0.05209123,0.08171637,-0.01144962,0.05218641,0.08268947,0.03306205,0.05155740,-0.06290257,0.02122051,0.08186591,0.04248255,-0.01728278,-0.07140815,0.06584547,0.02027148,0.04133463,0.09075615,0.05700677,0.07428101,0.03460482,0.04388549,-0.06413767,0.03392233,-0.03242123,0.00785871,-0.02227372,0.03425909,-0.02216694,0.05630025,0.02225623,-0.01759987,0.00403245,-0.03211625,-0.05317479,0.00737104,0.05632992,0.01161247,-0.05755622,-0.02397039,0.07393970,0.00598321,-0.06353388,0.03210543,0.06289245,0.07720198,-0.02506668,-0.01888511,-0.04896995,0.02123740,0.03157432,-0.12077633,-0.01224793,0.02217889,-0.04248663,-0.04389120,0.04394140,0.00887504,0.03155915,0.03120854,0.09239796,-0.01187831,0.02965619,-0.09375808,-0.09097558,0.01124811,-0.09747152,0.06498278,-0.00778941,-0.07088356,0.03864198,0.07526319,0.00992215,0.10972577,0.01868933,-0.03690873,0.00266120,0.00513535,-0.03574822,0.03430315,-0.03579628,0.02401287,0.00708754,0.05657870,0.02829445,-0.01220795,-0.02282661,-0.02008457,-0.09095880,0.03078743,-0.06247449,-0.03685959,-0.00966608,0.04464064,-0.06382319,0.02547356,-0.02226801,-0.03535717,-0.03157447,0.05060241,-0.08627561,0.02576785,0.02465135,-0.05637858,-0.07129103,-0.02230569,0.11891984,0.01407373,0.08837840,0.03453568,0.07519869,-0.08389450,0.00430630,-0.00148501,-0.04725029,-0.05916499,-0.04971588,0.01393277,-0.05331244,-0.05990253,-0.11997738,-0.00308591,0.04474639,0.06289778,0.04113680,0.05940190,0.02769404,0.00537382,-0.06105153,0.09344795,0.05824500,-0.06567498,-0.09107403,0.05804433,-0.09090945,0.01368081,0.08558317,0.04031770,0.00442109,0.02429513,0.03206158,-0.08769015,-0.10775250,0.02952457,-0.07779883,-0.04208810,-0.12172895,-0.08012565,0.02932203,0.03682174,-0.07510763,-0.04856552,-0.09908280,-0.07415660,-0.07084489,-0.04696898,-0.08066691,0.01766628,-0.05862691,-0.07775172,-0.05951964,-0.04134944,-0.05992357,-0.01583289,-0.06013798,-0.03633552,0.00253822,-0.01169750,-0.06347061,0.00018021,-0.08330513,-0.00616705,0.06000385,-0.08338875,0.02183061,-0.04592181,0.00552112,-0.07021141,0.06639247,-0.11631331,-0.03098923,-0.07664803],[0.05801324,0.08025467,0.00354185,-0.04728636,-0.04305846,-0.04398503,0.03636628,0.00803879,0.03783423,-0.03541352,0.00452657,-0.07659282,0.08120072,0.00846231,0.06799930,0.09973836,0.01125344,0.08968455,0.02127072,0.07541364,0.07803593,-0.06662954,0.00006202,0.07952898,-0.07064153,-0.07831543,-0.00704854,0.05366221,-0.02076142,-0.08541744,0.01985320,-0.06860957,-0.00345046,-0.06040791,0.02073851,-0.09643390,0.03997901,-0.11585569,-0.12031630,-0.00111659,0.04914454,0.05091258,0.10878127,0.12998645,0.12134994,0.03880678,0.11281628,-0.06524758,0.05367134,-0.07322206,0.04383936,0.00415729,0.05536589,-0.03835211,-0.00064855,-0.02533685,0.00810713,0.05771958,-0.05741842,0.07301929,-0.03263860,-0.07983694,